{"learner":{"attributes":{"best_iteration":"70","best_ntree_limit":"71","scikit_learn":"{\"n_estimators\": 100, \"objective\": \"reg:squarederror\", \"max_depth\": null, \"max_leaves\": null, \"max_bin\": null, \"grow_policy\": null, \"learning_rate\": 0.13, \"verbosity\": null, \"booster\": null, \"tree_method\": null, \"gamma\": 0.37, \"min_child_weight\": null, \"max_delta_step\": null, \"subsample\": 0.6, \"sampling_method\": null, \"colsample_bytree\": 0.8, \"colsample_bylevel\": null, \"colsample_bynode\": null, \"reg_alpha\": 0.79, \"reg_lambda\": 6.0, \"scale_pos_weight\": null, \"base_score\": null, \"missing\": NaN, \"num_parallel_tree\": null, \"random_state\": null, \"n_jobs\": null, \"monotone_constraints\": null, \"interaction_constraints\": null, \"importance_type\": null, \"gpu_id\": null, \"validate_parameters\": null, \"predictor\": null, \"enable_categorical\": false, \"max_cat_to_onehot\": null, \"eval_metric\": null, \"early_stopping_rounds\": null, \"callbacks\": null, \"base_divisor\": 3.3280000000000745, \"_estimator_type\": \"regressor\"}"},"feature_names":[],"feature_types":[],"gradient_booster":{"model":{"gbtree_model_param":{"num_parallel_tree":"1","num_trees":"71","size_leaf_vector":"0"},"tree_info":[0,0,0,0,0,0,0,0,0,0,0,0,0,0,0,0,0,0,0,0,0,0,0,0,0,0,0,0,0,0,0,0,0,0,0,0,0,0,0,0,0,0,0,0,0,0,0,0,0,0,0,0,0,0,0,0,0,0,0,0,0,0,0,0,0,0,0,0,0,0,0],"trees":[{"base_weights":[1.2883304E1],"categories":[],"categories_nodes":[],"categories_segments":[],"categories_sizes":[],"default_left":[0],"id":0,"left_children":[-1],"loss_changes":[0E0],"parents":[2147483647],"right_children":[-1],"split_conditions":[1.6748294E0],"split_indices":[0],"split_type":[0],"sum_hessian":[5.8E1],"tree_param":{"num_deleted":"0","num_feature":"4","num_nodes":"1","size_leaf_vector":"0"}},{"base_weights":[1.1364991E1],"categories":[],"categories_nodes":[],"categories_segments":[],"categories_sizes":[],"default_left":[0],"id":1,"left_children":[-1],"loss_changes":[0E0],"parents":[2147483647],"right_children":[-1],"split_conditions":[1.4774488E0],"split_indices":[0],"split_type":[0],"sum_hessian":[6E1],"tree_param":{"num_deleted":"0","num_feature":"4","num_nodes":"1","size_leaf_vector":"0"}},{"base_weights":[1.0705653E1,1.1686553E1,3.822615E0],"categories":[],"categories_nodes":[],"categories_segments":[],"categories_sizes":[],"default_left":[1,0,0],"id":2,"left_children":[1,-1,-1],"loss_changes":[1.5180957E2,0E0,0E0],"parents":[2147483647,0,0],"right_children":[2,-1,-1],"split_conditions":[6.947655E1,1.5192518E0,4.9693993E-1],"split_indices":[2,0,0],"split_type":[0,0,0],"sum_hessian":[5.8E1,4.7E1,1.1E1],"tree_param":{"num_deleted":"0","num_feature":"4","num_nodes":"3","size_leaf_vector":"0"}},{"base_weights":[9.253615E0],"categories":[],"categories_nodes":[],"categories_segments":[],"categories_sizes":[],"default_left":[0],"id":3,"left_children":[-1],"loss_changes":[0E0],"parents":[2147483647],"right_children":[-1],"split_conditions":[1.2029699E0],"split_indices":[0],"split_type":[0],"sum_hessian":[6.5E1],"tree_param":{"num_deleted":"0","num_feature":"4","num_nodes":"1","size_leaf_vector":"0"}},{"base_weights":[7.3939486E0,2.8554099E0,8.582952E0,3.6730971E0,7.575468E-1],"categories":[],"categories_nodes":[],"categories_segments":[],"categories_sizes":[],"default_left":[1,1,0,0,0],"id":4,"left_children":[1,3,-1,-1,-1],"loss_changes":[1.784895E2,1.7543243E1,0E0,0E0,0E0],"parents":[2147483647,0,0,1,1],"right_children":[2,4,-1,-1,-1],"split_conditions":[1.7515E1,7.96E0,1.1157837E0,4.775026E-1,9.848108E-2],"split_indices":[1,1,0,0,0],"split_type":[0,0,0,0,0],"sum_hessian":[5.6E1,1.6E1,4E1,8E0,8E0],"tree_param":{"num_deleted":"0","num_feature":"4","num_nodes":"5","size_leaf_vector":"0"}},{"base_weights":[6.384649E0,2.4854116E0,7.6517143E0,3.3721893E0,5.518027E-1],"categories":[],"categories_nodes":[],"categories_segments":[],"categories_sizes":[],"default_left":[1,1,0,0,0],"id":5,"left_children":[1,3,-1,-1,-1],"loss_changes":[1.7926147E2,2.6887695E1,0E0,0E0,0E0],"parents":[2147483647,0,0,1,1],"right_children":[2,4,-1,-1,-1],"split_conditions":[1.825E1,7.96E0,9.9472284E-1,4.383846E-1,7.173435E-2],"split_indices":[1,1,0,0,0],"split_type":[0,0,0,0,0],"sum_hessian":[5.5E1,1.8E1,3.7E1,9E0,9E0],"tree_param":{"num_deleted":"0","num_feature":"4","num_nodes":"5","size_leaf_vector":"0"}},{"base_weights":[6.5123873E0,2.1234932E0,6.9845524E0],"categories":[],"categories_nodes":[],"categories_segments":[],"categories_sizes":[],"default_left":[1,0,0],"id":6,"left_children":[1,-1,-1],"loss_changes":[3.6441162E1,0E0,0E0],"parents":[2147483647,0,0],"right_children":[2,-1,-1],"split_conditions":[2.732E1,2.760541E-1,9.0799177E-1],"split_indices":[0,0,0],"split_type":[0,0,0],"sum_hessian":[5.8E1,9E0,4.9E1],"tree_param":{"num_deleted":"0","num_feature":"4","num_nodes":"3","size_leaf_vector":"0"}},{"base_weights":[5.4613943E0,6.4827914E0,4.8326296E-1],"categories":[],"categories_nodes":[],"categories_segments":[],"categories_sizes":[],"default_left":[1,0,0],"id":7,"left_children":[1,-1,-1],"loss_changes":[2.8586316E2,0E0,0E0],"parents":[2147483647,0,0],"right_children":[2,-1,-1],"split_conditions":[7.003308E1,8.427628E-1,6.282418E-2],"split_indices":[2,0,0],"split_type":[0,0,0],"sum_hessian":[5.5E1,4.4E1,1.1E1],"tree_param":{"num_deleted":"0","num_feature":"4","num_nodes":"3","size_leaf_vector":"0"}},{"base_weights":[4.8067966E0,1.4318957E0,6.924798E0,2.1560047E0,-5.133974E-2],"categories":[],"categories_nodes":[],"categories_segments":[],"categories_sizes":[],"default_left":[1,1,0,0,0],"id":8,"left_children":[1,3,-1,-1,-1],"loss_changes":[3.8423157E2,3.669558E1,0E0,0E0,0E0],"parents":[2147483647,0,0,1,1],"right_children":[2,4,-1,-1,-1],"split_conditions":[2.0575E1,5.5484474E1,9.0022373E-1,2.802806E-1,-6.6741663E-3],"split_indices":[1,2,0,0,0],"split_type":[0,0,0,0,0],"sum_hessian":[5.7E1,2.6E1,3.1E1,1.6E1,1E1],"tree_param":{"num_deleted":"0","num_feature":"4","num_nodes":"5","size_leaf_vector":"0"}},{"base_weights":[4.365951E0,1.7838356E0,5.9265356E0,2.4025688E0,-0E0,2.695245E-1,3.3797162E0],"categories":[],"categories_nodes":[],"categories_segments":[],"categories_sizes":[],"default_left":[1,1,0,1,0,0,0],"id":9,"left_children":[1,3,-1,5,-1,-1,-1],"loss_changes":[1.68224E2,3.41196E1,0E0,3.959047E1,0E0,0E0,0E0],"parents":[2147483647,0,0,1,1,3,3],"right_children":[2,4,-1,6,-1,-1,-1],"split_conditions":[2.0585E1,2.738224E1,7.704496E-1,2.7645E1,-0E0,3.5038184E-2,4.393631E-1],"split_indices":[1,3,0,0,0,0,0],"split_type":[0,0,0,0,0,0,0],"sum_hessian":[5.3E1,2.5E1,2.8E1,1.7E1,8E0,8E0,9E0],"tree_param":{"num_deleted":"0","num_feature":"4","num_nodes":"7","size_leaf_vector":"0"}},{"base_weights":[4.3866825E0,2.2794263E0,5.7795715E0,3.621588E0,8.970746E-1,-8.8809654E-2,1.4087375E0],"categories":[],"categories_nodes":[],"categories_segments":[],"categories_sizes":[],"default_left":[1,1,0,0,1,0,0],"id":10,"left_children":[1,3,-1,-1,5,-1,-1],"loss_changes":[1.0537512E2,4.372946E1,0E0,0E0,1.4908852E1,0E0,0E0],"parents":[2147483647,0,0,1,1,4,4],"right_children":[2,4,-1,-1,6,-1,-1],"split_conditions":[2.1385E1,2.6598642E1,7.5134426E-1,4.7080642E-1,2.7286364E1,-1.1545255E-2,1.8313587E-1],"split_indices":[1,3,0,0,3,0,0],"split_type":[0,0,0,0,0,0,0],"sum_hessian":[5.9E1,3E1,2.9E1,1E1,2E1,8E0,1.2E1],"tree_param":{"num_deleted":"0","num_feature":"4","num_nodes":"7","size_leaf_vector":"0"}},{"base_weights":[3.9740567E0,5.2166686E0,7.519818E-1,2.497584E0,6.3041306E0,-1.0317411E0,2.6520817E0,3.1562653E0,8.311146E-1],"categories":[],"categories_nodes":[],"categories_segments":[],"categories_sizes":[],"default_left":[1,1,1,1,0,0,0,0,0],"id":11,"left_children":[1,3,5,7,-1,-1,-1,-1,-1],"loss_changes":[2.2799017E2,3.1636719E1,1.0242894E2,6.3571167E0,0E0,0E0,0E0,0E0,0E0],"parents":[2147483647,0,0,1,1,2,2,3,3],"right_children":[2,4,6,8,-1,-1,-1,-1,-1],"split_conditions":[5.9759132E1,2.6865772E1,2.286E1,4.3823166E1,8.195369E-1,-1.3412635E-1,3.447706E-1,4.1031447E-1,1.0804489E-1],"split_indices":[2,3,1,2,0,0,0,0,0],"split_type":[0,0,0,0,0,0,0,0,0],"sum_hessian":[5.8E1,3.9E1,1.9E1,1.7E1,2.2E1,1.1E1,8E0,8E0,9E0],"tree_param":{"num_deleted":"0","num_feature":"4","num_nodes":"9","size_leaf_vector":"0"}},{"base_weights":[3.1288822E0,-1.6009696E-2,4.2420197E0,-8.3954734E-1,7.579607E-1,2.0743334E0,5.1628184E0],"categories":[],"categories_nodes":[],"categories_segments":[],"categories_sizes":[],"default_left":[1,1,1,0,0,0,0],"id":12,"left_children":[1,3,5,-1,-1,-1,-1],"loss_changes":[2.2078925E2,1.7905178E1,2.1842285E1,0E0,0E0,0E0,0E0],"parents":[2147483647,0,0,1,1,2,2],"right_children":[2,4,6,-1,-1,-1,-1],"split_conditions":[1.796E1,2.70267E1,2.2619999E1,-1.0914115E-1,9.853488E-2,2.6966333E-1,6.7116636E-1],"split_indices":[1,3,1,0,0,0,0],"split_type":[0,0,0,0,0,0,0],"sum_hessian":[5.6E1,1.6E1,4E1,8E0,8E0,1.8E1,2.2E1],"tree_param":{"num_deleted":"0","num_feature":"4","num_nodes":"7","size_leaf_vector":"0"}},{"base_weights":[2.8289754E0,3.2589526E0,-7.763549E-2,1.3423743E0,4.3848205E0,-1.0824504E0,2.7284756E0],"categories":[],"categories_nodes":[],"categories_segments":[],"categories_sizes":[],"default_left":[1,1,0,1,0,0,0],"id":13,"left_children":[1,3,-1,5,-1,-1,-1],"loss_changes":[8.5266785E1,8.315448E1,0E0,1.1985257E2,0E0,0E0,0E0],"parents":[2147483647,0,0,1,1,3,3],"right_children":[2,4,-1,6,-1,-1,-1],"split_conditions":[7.752856E1,2.7198555E1,-1.0092613E-2,1.802E1,5.7002664E-1,-1.4071855E-1,3.5470182E-1],"split_indices":[2,3,0,1,0,0,0],"split_type":[0,0,0,0,0,0,0],"sum_hessian":[5.9E1,5.1E1,8E0,2.4E1,2.7E1,9E0,1.5E1],"tree_param":{"num_deleted":"0","num_feature":"4","num_nodes":"7","size_leaf_vector":"0"}},{"base_weights":[2.426892E0,3.6588058E0,-2.3493409E-1,1.1557766E0,4.6528316E0,-1.6294436E0,1.6022642E0],"categories":[],"categories_nodes":[],"categories_segments":[],"categories_sizes":[],"default_left":[1,1,1,0,0,0,0],"id":14,"left_children":[1,3,5,-1,-1,-1,-1],"loss_changes":[2.2100647E2,7.5108826E1,8.229802E1,0E0,0E0,0E0,0E0],"parents":[2147483647,0,0,1,1,2,2],"right_children":[2,4,6,-1,-1,-1,-1],"split_conditions":[6.14439E1,1.9439999E1,2.2455E1,1.5025096E-1,6.0486805E-1,-2.1182767E-1,2.0829433E-1],"split_indices":[2,1,1,0,0,0,0],"split_type":[0,0,0,0,0,0,0],"sum_hessian":[5.9E1,3.9E1,2E1,1.5E1,2.4E1,1.2E1,8E0],"tree_param":{"num_deleted":"0","num_feature":"4","num_nodes":"7","size_leaf_vector":"0"}},{"base_weights":[2.7130513E0,4.489503E0,-3.9382035E-1,4.894274E0,1.5259861E0,-2.1153224E0,2.3007843E0],"categories":[],"categories_nodes":[],"categories_segments":[],"categories_sizes":[],"default_left":[1,1,1,0,0,0,0],"id":15,"left_children":[1,3,5,-1,-1,-1,-1],"loss_changes":[3.7259244E2,4.973755E-1,1.6357915E2,0E0,0E0,0E0,0E0],"parents":[2147483647,0,0,1,1,2,2],"right_children":[2,4,6,-1,-1,-1,-1],"split_conditions":[5.973492E1,5.4378044E1,2.2619999E1,6.362556E-1,1.9837818E-1,-2.749919E-1,2.9910195E-1],"split_indices":[2,2,1,0,0,0,0],"split_type":[0,0,0,0,0,0,0],"sum_hessian":[5.9E1,3.6E1,2.3E1,2.8E1,8E0,1.5E1,8E0],"tree_param":{"num_deleted":"0","num_feature":"4","num_nodes":"7","size_leaf_vector":"0"}},{"base_weights":[2.1049387E0,3.2085578E0,-0E0,1.7914985E0,4.142013E0,6.891353E-1,-7.7027E-1,2.8102937E0,-2.2973742E-1],"categories":[],"categories_nodes":[],"categories_segments":[],"categories_sizes":[],"default_left":[1,1,1,1,0,0,0,0,0],"id":16,"left_children":[1,3,5,7,-1,-1,-1,-1,-1],"loss_changes":[1.3421954E2,1.0550232E0,1.6973164E1,5.945227E1,0E0,0E0,0E0,0E0,0E0],"parents":[2147483647,0,0,1,1,2,2,3,3],"right_children":[2,4,6,8,-1,-1,-1,-1,-1],"split_conditions":[5.930797E1,3.329E1,7.090518E1,4.7651146E1,5.384617E-1,8.9587584E-2,-1.00135095E-1,3.6533818E-1,-2.9865863E-2],"split_indices":[2,0,2,2,0,0,0,0,0],"split_type":[0,0,0,0,0,0,0,0,0],"sum_hessian":[5.2E1,3.2E1,2E1,2E1,1.2E1,1.1E1,9E0,1.2E1,8E0],"tree_param":{"num_deleted":"0","num_feature":"4","num_nodes":"9","size_leaf_vector":"0"}},{"base_weights":[1.9588436E0,3.26213E0,3.344207E-1,1.1440932E0,4.531393E0,-1.0527908E0,1.5976448E0],"categories":[],"categories_nodes":[],"categories_segments":[],"categories_sizes":[],"default_left":[1,1,1,0,0,0,0],"id":17,"left_children":[1,3,5,-1,-1,-1,-1],"loss_changes":[1.23989746E2,5.5814117E1,7.185492E1,0E0,0E0,0E0,0E0],"parents":[2147483647,0,0,1,1,2,2],"right_children":[2,4,6,-1,-1,-1,-1],"split_conditions":[5.4313057E1,2.6830809E1,2.249E1,1.4873211E-1,5.8908105E-1,-1.368628E-1,2.0769382E-1],"split_indices":[2,3,1,0,0,0,0],"split_type":[0,0,0,0,0,0,0],"sum_hessian":[5.7E1,2.8E1,2.9E1,1.5E1,1.3E1,1.4E1,1.5E1],"tree_param":{"num_deleted":"0","num_feature":"4","num_nodes":"7","size_leaf_vector":"0"}},{"base_weights":[2.0415525E0,3.074101E0,6.715629E-2,7.0162684E-1,4.507137E0,-1.2257141E0,1.6444049E0,-6.1128247E-1,1.7702675E0],"categories":[],"categories_nodes":[],"categories_segments":[],"categories_sizes":[],"default_left":[1,1,1,1,0,0,0,0,0],"id":18,"left_children":[1,3,5,7,-1,-1,-1,-1,-1],"loss_changes":[1.1859932E2,1.0950488E2,6.748199E1,3.8275017E1,0E0,0E0,0E0,0E0,0E0],"parents":[2147483647,0,0,1,1,2,2,3,3],"right_children":[2,4,6,8,-1,-1,-1,-1,-1],"split_conditions":[5.973492E1,3.0665E1,3.4975E1,1.791E1,5.859278E-1,-1.5934283E-1,2.1377262E-1,-7.9466715E-2,2.3013477E-1],"split_indices":[2,0,0,1,0,0,0,0,0],"split_type":[0,0,0,0,0,0,0,0,0],"sum_hessian":[5.4E1,3.3E1,2.1E1,1.6E1,1.7E1,1.2E1,9E0,8E0,8E0],"tree_param":{"num_deleted":"0","num_feature":"4","num_nodes":"9","size_leaf_vector":"0"}},{"base_weights":[1.8328804E0,1.0145975E-2,3.0262194E0,1.1215392E0,-1.0628723E0,4.4622703E0,1.3670996E0,3.7982723E-1,1.6212689E0],"categories":[],"categories_nodes":[],"categories_segments":[],"categories_sizes":[],"default_left":[1,1,1,0,0,0,1,0,0],"id":19,"left_children":[1,3,5,-1,-1,-1,7,-1,-1],"loss_changes":[1.3880115E2,4.536011E1,5.1713226E1,0E0,0E0,0E0,1.499546E0,0E0,0E0],"parents":[2147483647,0,0,1,1,2,2,6,6],"right_children":[2,4,6,-1,-1,-1,8,-1,-1],"split_conditions":[2.717191E1,4.8026978E1,5.3624027E1,1.458001E-1,-1.3817339E-1,5.800951E-1,6.3932568E1,4.937754E-2,2.1076494E-1],"split_indices":[3,2,2,0,0,0,2,0,0],"split_type":[0,0,0,0,0,0,0,0,0],"sum_hessian":[5.9E1,2.6E1,3.3E1,1.3E1,1.3E1,1.2E1,2.1E1,8E0,1.3E1],"tree_param":{"num_deleted":"0","num_feature":"4","num_nodes":"9","size_leaf_vector":"0"}},{"base_weights":[1.1450775E0,2.45562E0,-2.2604737E-2,6.402165E-2,3.5385656E0,-9.266471E-1,1.3473295E0,-8.310161E-2,-1.3966701E0],"categories":[],"categories_nodes":[],"categories_segments":[],"categories_sizes":[],"default_left":[1,1,1,0,0,1,0,0,0],"id":20,"left_children":[1,3,5,-1,-1,7,-1,-1,-1],"loss_changes":[1.0172446E2,7.6083786E1,5.66978E1,0E0,0E0,9.236189E0,0E0,0E0,0E0],"parents":[2147483647,0,0,1,1,2,2,5,5],"right_children":[2,4,6,-1,-1,8,-1,-1,-1],"split_conditions":[5.1859634E1,2.6544218E1,2.286E1,8.322814E-3,4.600135E-1,1.9935001E1,1.7515282E-1,-1.0803209E-2,-1.815671E-1],"split_indices":[2,3,1,0,0,1,0,0,0],"split_type":[0,0,0,0,0,0,0,0,0],"sum_hessian":[5.9E1,2.5E1,3.4E1,1E1,1.5E1,2.2E1,1.2E1,1.1E1,1.1E1],"tree_param":{"num_deleted":"0","num_feature":"4","num_nodes":"9","size_leaf_vector":"0"}},{"base_weights":[1.7874615E0,2.8334243E0,8.126058E-1,5.142317E-1,3.6428216E0,-4.3834767E-1,1.9001338E0,-1.0337864E0,1.6025403E-1,6.967279E-1,2.4906409E0],"categories":[],"categories_nodes":[],"categories_segments":[],"categories_sizes":[],"default_left":[1,1,1,0,0,1,1,0,0,0,0],"id":21,"left_children":[1,3,5,-1,-1,7,9,-1,-1,-1,-1],"loss_changes":[5.2641953E1,4.1790848E1,6.601199E1,0E0,0E0,1.0594868E1,4.835678E0,0E0,0E0,0E0,0E0],"parents":[2147483647,0,0,1,1,2,2,5,5,6,6],"right_children":[2,4,6,-1,-1,8,10,-1,-1,-1,-1],"split_conditions":[5.148229E1,1.7515E1,6.420795E1,6.685012E-2,4.7356677E-1,2.4724998E1,3.4975E1,-1.3439223E-1,2.0833023E-2,9.057462E-2,3.237833E-1],"split_indices":[2,1,2,0,0,1,0,0,0,0,0],"split_type":[0,0,0,0,0,0,0,0,0,0,0],"sum_hessian":[6.2E1,2.4E1,3.8E1,9E0,1.5E1,1.9E1,1.9E1,8E0,1.1E1,1.1E1,8E0],"tree_param":{"num_deleted":"0","num_feature":"4","num_nodes":"11","size_leaf_vector":"0"}},{"base_weights":[1.5137643E0,1.9093574E0,-2.4075091E-1,4.3381828E-1,2.779953E0,-9.358649E-1,1.6901946E0],"categories":[],"categories_nodes":[],"categories_segments":[],"categories_sizes":[],"default_left":[1,1,0,1,0,0,0],"id":22,"left_children":[1,3,-1,5,-1,-1,-1],"loss_changes":[4.572072E1,5.4455063E1,0E0,5.482846E1,0E0,0E0,0E0],"parents":[2147483647,0,0,1,1,3,3],"right_children":[2,4,-1,6,-1,-1,-1],"split_conditions":[2.81915E1,2.7089432E1,-3.1297617E-2,3.1314999E1,3.6139387E-1,-1.2166244E-1,2.197253E-1],"split_indices":[3,3,0,0,0,0,0],"split_type":[0,0,0,0,0,0,0],"sum_hessian":[5.4E1,4.4E1,1E1,2E1,2.4E1,1E1,1E1],"tree_param":{"num_deleted":"0","num_feature":"4","num_nodes":"7","size_leaf_vector":"0"}},{"base_weights":[1.2704072E0,1.7531581E0,-8.7277E-1,-5.7029862E-2,2.87701E0,1.1439143E0,-1.4615247E0,3.4443972E0,8.7919754E-1],"categories":[],"categories_nodes":[],"categories_segments":[],"categories_sizes":[],"default_left":[1,1,0,1,1,0,0,0,0],"id":23,"left_children":[1,3,-1,5,7,-1,-1,-1,-1],"loss_changes":[6.781489E1,1.0086264E2,0E0,5.0763344E1,1.2420502E1,0E0,0E0,0E0,0E0],"parents":[2147483647,0,0,1,1,3,3,4,4],"right_children":[2,4,-1,6,8,-1,-1,-1,-1],"split_conditions":[2.881228E1,2.7089432E1,-1.13460094E-1,4.7651146E1,2.288E1,1.4870887E-1,-1.8999821E-1,4.477716E-1,1.1429568E-1],"split_indices":[3,3,0,2,1,0,0,0,0],"split_type":[0,0,0,0,0,0,0,0,0],"sum_hessian":[5E1,4.2E1,8E0,1.8E1,2.4E1,1E1,8E0,1.5E1,9E0],"tree_param":{"num_deleted":"0","num_feature":"4","num_nodes":"9","size_leaf_vector":"0"}},{"base_weights":[1.0095502E0,-4.4723824E-1,1.4873852E0,3.034622E0,3.7669355E-1,-2.7077034E-1,1.0801421E0,-8.391041E-1,2.7868557E-1],"categories":[],"categories_nodes":[],"categories_segments":[],"categories_sizes":[],"default_left":[1,0,1,0,1,1,0,0,0],"id":24,"left_children":[1,-1,3,-1,5,7,-1,-1,-1],"loss_changes":[5.2148117E1,0E0,8.152697E1,0E0,1.9701614E1,9.340392E0,0E0,0E0,0E0],"parents":[2147483647,0,0,2,2,4,4,5,5],"right_children":[2,-1,4,-1,6,8,-1,-1,-1],"split_conditions":[1.7515E1,-5.8140967E-2,4.828472E1,3.9450085E-1,6.3968063E1,3.6015E1,1.4041847E-1,-1.0908353E-1,3.6229122E-2],"split_indices":[1,0,2,0,2,0,0,0,0],"split_type":[0,0,0,0,0,0,0,0,0],"sum_hessian":[6.2E1,1.5E1,4.7E1,1.5E1,3.2E1,1.8E1,1.4E1,8E0,1E1],"tree_param":{"num_deleted":"0","num_feature":"4","num_nodes":"9","size_leaf_vector":"0"}},{"base_weights":[6.8258977E-1,-3.3800805E-1,1.2599851E0,-1.4574101E0,6.636075E-1,1.8031276E0,-2.4941945E-1,2.6030793E0,5.0273275E-1],"categories":[],"categories_nodes":[],"categories_segments":[],"categories_sizes":[],"default_left":[1,1,1,0,0,1,0,0,0],"id":25,"left_children":[1,3,5,-1,-1,7,-1,-1,-1],"loss_changes":[4.0408836E1,3.6702675E1,3.8358353E1,0E0,0E0,2.298259E1,0E0,0E0,0E0],"parents":[2147483647,0,0,1,1,2,2,5,5],"right_children":[2,4,6,-1,-1,8,-1,-1,-1],"split_conditions":[2.719161E1,1.8685E1,7.067789E1,-1.894633E-1,8.626897E-2,2.3064999E1,-3.242453E-2,3.384003E-1,6.5355256E-2],"split_indices":[3,1,2,0,0,1,0,0,0],"split_type":[0,0,0,0,0,0,0,0,0],"sum_hessian":[5.7E1,2.1E1,3.6E1,9E0,1.2E1,2.6E1,1E1,1.2E1,1.4E1],"tree_param":{"num_deleted":"0","num_feature":"4","num_nodes":"9","size_leaf_vector":"0"}},{"base_weights":[7.168137E-1,1.6738477E0,-3.4993538E-1,-5.422416E-1,2.581021E0,-1.287977E0,4.7179413E-1,3.2867858E0,7.901814E-1],"categories":[],"categories_nodes":[],"categories_segments":[],"categories_sizes":[],"default_left":[1,1,1,0,1,0,0,0,0],"id":26,"left_children":[1,3,5,-1,7,-1,-1,-1,-1],"loss_changes":[6.3773407E1,7.433994E1,2.8956871E1,0E0,1.1530121E1,0E0,0E0,0E0,0E0],"parents":[2147483647,0,0,1,1,2,2,4,4],"right_children":[2,4,6,-1,8,-1,-1,-1,-1],"split_conditions":[5.499934E1,2.8134998E1,2.0625E1,-7.04914E-2,4.828472E1,-1.67437E-1,6.1333235E-2,4.2728215E-1,1.02723576E-1],"split_indices":[2,0,1,0,2,0,0,0,0],"split_type":[0,0,0,0,0,0,0,0,0],"sum_hessian":[5.2E1,2.6E1,2.6E1,8E0,1.8E1,1.1E1,1.5E1,9E0,9E0],"tree_param":{"num_deleted":"0","num_feature":"4","num_nodes":"9","size_leaf_vector":"0"}},{"base_weights":[3.682163E-1,-5.1019996E-1,1.9277303E0,5.898353E-1,-2.0259092E0,2.268984E0,6.307521E-1,-4.795895E-1,2.1503894E0,-1.3568546E0,4.783604E-1],"categories":[],"categories_nodes":[],"categories_segments":[],"categories_sizes":[],"default_left":[1,1,1,1,0,1,1,1,0,0,0],"id":27,"left_children":[1,3,-1,7,-1,-1,-1,9,-1,-1,-1],"loss_changes":[9.6064674E1,8.500155E1,1.8717957E-1,5.9243504E1,0E0,0E0,0E0,2.3917051E1,0E0,0E0,0E0],"parents":[2147483647,0,0,1,1,2,2,3,3,7,7],"right_children":[2,4,-1,8,-1,-1,-1,10,-1,-1,-1],"split_conditions":[2.2619999E1,5.9759132E1,2.5060493E-1,2.7048363E1,-2.633682E-1,2.9496792E-1,8.199777E-2,1.7515E1,2.795506E-1,-1.7639108E-1,6.2186852E-2],"split_indices":[1,2,1,3,0,2147483647,2147483647,1,0,0,0],"split_type":[0,0,0,0,0,0,0,0,0,0,0],"sum_hessian":[5.9E1,4E1,1.9E1,2.5E1,1.5E1,1.1E1,8E0,1.7E1,8E0,8E0,9E0],"tree_param":{"num_deleted":"2","num_feature":"4","num_nodes":"11","size_leaf_vector":"0"}},{"base_weights":[6.048409E-1,9.823174E-1,-6.57145E-1,-4.8416413E-2,1.2582856E0,2.1288812E0,2.4530663E-1,7.93998E-1,-4.1458613E-1],"categories":[],"categories_nodes":[],"categories_segments":[],"categories_sizes":[],"default_left":[1,1,0,0,1,0,1,0,0],"id":28,"left_children":[1,3,-1,-1,5,-1,7,-1,-1],"loss_changes":[3.6999573E1,1.7250507E1,0E0,0E0,3.46763E1,0E0,1.2412987E1,0E0,0E0],"parents":[2147483647,0,0,1,1,4,4,6,6],"right_children":[2,4,-1,-1,6,-1,8,-1,-1],"split_conditions":[7.067789E1,1.7515E1,-8.542885E-2,-6.2941336E-3,4.828472E1,2.7675456E-1,2.4055E1,1.0321974E-1,-5.3896196E-2],"split_indices":[2,1,0,0,2,0,1,0,0],"split_type":[0,0,0,0,0,0,0,0,0],"sum_hessian":[6.3E1,5E1,1.3E1,1.1E1,3.9E1,1.7E1,2.2E1,1.2E1,1E1],"tree_param":{"num_deleted":"0","num_feature":"4","num_nodes":"9","size_leaf_vector":"0"}},{"base_weights":[7.565459E-1,-6.760712E-1,1.7134933E0,9.71817E-1,-1.8051184E0,2.3029084E0,-0E0,5.790143E-1,2.895064E0],"categories":[],"categories_nodes":[],"categories_segments":[],"categories_sizes":[],"default_left":[1,1,1,0,0,1,0,0,0],"id":29,"left_children":[1,3,5,-1,-1,7,-1,-1,-1],"loss_changes":[9.002658E1,6.3279E1,3.692457E1,0E0,0E0,1.5780563E1,0E0,0E0,0E0],"parents":[2147483647,0,0,1,1,2,2,5,5],"right_children":[2,4,6,-1,-1,8,-1,-1,-1],"split_conditions":[2.719161E1,2.6598642E1,2.8127083E1,1.263362E-1,-2.346654E-1,2.7322742E1,-0E0,7.527186E-2,3.7635833E-1],"split_indices":[3,3,3,0,0,3,0,0,0],"split_type":[0,0,0,0,0,0,0,0,0],"sum_hessian":[5.4E1,2.2E1,3.2E1,9E0,1.3E1,2.2E1,1E1,9E0,1.3E1],"tree_param":{"num_deleted":"0","num_feature":"4","num_nodes":"9","size_leaf_vector":"0"}},{"base_weights":[2.1117575E-2,-6.0482335E-1,5.9447366E-1,3.1869733E-1,-1.247869E0,1.8258672E0,-4.8995787E-1,2.1353288E-1,-1.0032327E0],"categories":[],"categories_nodes":[],"categories_segments":[],"categories_sizes":[],"default_left":[1,1,1,0,0,0,1,0,0],"id":30,"left_children":[1,3,5,-1,-1,-1,7,-1,-1],"loss_changes":[2.3682358E1,2.1530043E1,5.316062E1,0E0,0E0,0E0,1.0214136E1,0E0,0E0],"parents":[2147483647,0,0,1,1,2,2,6,6],"right_children":[2,4,6,-1,-1,-1,8,-1,-1],"split_conditions":[2.719161E1,2.6521492E1,2.7708332E1,4.1430652E-2,-1.6222297E-1,2.3736273E-1,3.5485E1,2.7759273E-2,-1.3042025E-1],"split_indices":[3,3,3,0,0,0,0,0,0],"split_type":[0,0,0,0,0,0,0,0,0],"sum_hessian":[5.4E1,2.5E1,2.9E1,1.1E1,1.4E1,1.2E1,1.7E1,8E0,9E0],"tree_param":{"num_deleted":"0","num_feature":"4","num_nodes":"9","size_leaf_vector":"0"}},{"base_weights":[9.0888196E-1,1.8032788E0,-2.5134972E-1,2.073118E-1,2.7704058E0,-1.0656632E0,8.6231786E-1],"categories":[],"categories_nodes":[],"categories_segments":[],"categories_sizes":[],"default_left":[1,1,1,0,0,0,0],"id":31,"left_children":[1,3,5,-1,-1,-1,-1],"loss_changes":[6.620799E1,4.8224174E1,3.3787395E1,0E0,0E0,0E0,0E0],"parents":[2147483647,0,0,1,1,2,2],"right_children":[2,4,6,-1,-1,-1,-1],"split_conditions":[5.9683533E1,3.1314999E1,3.5504997E1,2.6950533E-2,3.6015275E-1,-1.3853621E-1,1.1210132E-1],"split_indices":[2,0,0,0,0,0,0],"split_type":[0,0,0,0,0,0,0],"sum_hessian":[5.4E1,2.9E1,2.5E1,1.4E1,1.5E1,1.5E1,1E1],"tree_param":{"num_deleted":"0","num_feature":"4","num_nodes":"7","size_leaf_vector":"0"}},{"base_weights":[2.5807738E-1,-3.3207893E-1,1.1141402E0,6.966933E-1,-1.6765844E0,1.9093925E0,-4.953974E-2,-1.4179006E-1,1.5325891E0],"categories":[],"categories_nodes":[],"categories_segments":[],"categories_sizes":[],"default_left":[1,1,1,1,0,0,0,0,0],"id":32,"left_children":[1,3,5,7,-1,-1,-1,-1,-1],"loss_changes":[3.2645164E1,6.1726913E1,2.6097729E1,2.0625568E1,0E0,0E0,0E0,0E0,0E0],"parents":[2147483647,0,0,1,1,2,2,3,3],"right_children":[2,4,6,8,-1,-1,-1,-1,-1],"split_conditions":[2.2619999E1,5.9759132E1,2.4585E1,5.1170135E1,-2.1795596E-1,2.4822101E-1,-6.440166E-3,-1.8432707E-2,1.9923657E-1],"split_indices":[1,2,1,2,0,0,0,0,0],"split_type":[0,0,0,0,0,0,0,0,0],"sum_hessian":[5.3E1,3.3E1,2E1,2E1,1.3E1,1E1,1E1,1.2E1,8E0],"tree_param":{"num_deleted":"0","num_feature":"4","num_nodes":"9","size_leaf_vector":"0"}},{"base_weights":[3.9723742E-1,-4.5701444E-1,9.959033E-1,-1.1781824E0,4.500381E-2,1.3285435E0,-2.0608431E-1,9.799421E-1,-8.552693E-1,3.8300538E-1,2.258368E0,1.6223286E0,-1.039475E0],"categories":[],"categories_nodes":[],"categories_segments":[],"categories_sizes":[],"default_left":[1,1,1,0,1,1,0,0,0,1,0,0,0],"id":33,"left_children":[1,3,5,-1,7,9,-1,-1,-1,11,-1,-1,-1],"loss_changes":[3.8443966E1,1.2798611E1,1.972216E1,0E0,2.5327974E1,2.3494972E1,0E0,0E0,0E0,5.46515E1,0E0,0E0,0E0],"parents":[2147483647,0,0,1,1,2,2,4,4,5,5,9,9],"right_children":[2,4,6,-1,8,10,-1,-1,-1,12,-1,-1,-1],"split_conditions":[2.719161E1,2.8645E1,2.4695E1,-1.531637E-1,2.6820421E1,3.454E1,-2.679096E-2,1.2739247E-1,-1.1118501E-1,3.016E1,2.9358783E-1,2.1090272E-1,-1.3513175E-1],"split_indices":[3,0,1,0,3,0,0,0,0,0,0,0,0],"split_type":[0,0,0,0,0,0,0,0,0,0,0,0,0],"sum_hessian":[6.3E1,2.6E1,3.7E1,8E0,1.8E1,2.9E1,8E0,9E0,9E0,1.9E1,1E1,1E1,9E0],"tree_param":{"num_deleted":"0","num_feature":"4","num_nodes":"13","size_leaf_vector":"0"}},{"base_weights":[3.2888955E-1,7.088786E-1,-1.0166297E0,-4.2520875E-1,1.8842381E0,-1.0128046E0,2.6023453E-1],"categories":[],"categories_nodes":[],"categories_segments":[],"categories_sizes":[],"default_left":[1,1,0,1,0,0,0],"id":34,"left_children":[1,3,-1,5,-1,-1,-1],"loss_changes":[3.4246548E1,7.260781E1,0E0,1.4258841E1,0E0,0E0,0E0],"parents":[2147483647,0,0,1,1,3,3],"right_children":[2,4,-1,6,-1,-1,-1],"split_conditions":[2.8256647E1,2.7221237E1,-1.3216186E-1,3.1314999E1,2.4495095E-1,-1.316646E-1,3.383049E-2],"split_indices":[3,3,0,0,0,0,0],"split_type":[0,0,0,0,0,0,0],"sum_hessian":[5.3E1,4.4E1,9E0,2.4E1,2E1,1.2E1,1.2E1],"tree_param":{"num_deleted":"0","num_feature":"4","num_nodes":"7","size_leaf_vector":"0"}},{"base_weights":[4.234336E-1,1.4879705E0,5.2305643E-2,1.1268119E0,-3.1144848E-1,-1.0141256E0,7.6136786E-1,-1.5600089E0,-2.6097542E-1],"categories":[],"categories_nodes":[],"categories_segments":[],"categories_sizes":[],"default_left":[1,0,1,0,1,1,0,0,0],"id":35,"left_children":[1,-1,3,-1,5,7,-1,-1,-1],"loss_changes":[2.241605E1,0E0,2.3074318E1,0E0,3.7247684E1,8.041512E0,0E0,0E0,0E0],"parents":[2147483647,0,0,2,2,4,4,5,5],"right_children":[2,-1,4,-1,6,8,-1,-1,-1],"split_conditions":[2.6855E1,1.9343616E-1,1.736E1,1.4648554E-1,2.371E1,2.7204105E1,9.897782E-2,-2.0280115E-1,-3.3926804E-2],"split_indices":[0,0,1,0,1,3,0,0,0],"split_type":[0,0,0,0,0,0,0,0,0],"sum_hessian":[5.5E1,9E0,4.6E1,9E0,3.7E1,2.3E1,1.4E1,9E0,1.4E1],"tree_param":{"num_deleted":"0","num_feature":"4","num_nodes":"9","size_leaf_vector":"0"}},{"base_weights":[2.9388717E-1,5.0909346E-1,-6.825766E-1,-7.412383E-2,1.0397687E0,-7.3991567E-1,9.68126E-1,1.9037E0,9.197265E-2,5.6584835E-1,-1.6543658E0,-3.9899036E-1,5.999474E-1],"categories":[],"categories_nodes":[],"categories_segments":[],"categories_sizes":[],"default_left":[1,1,0,1,1,1,0,0,1,0,0,0,0],"id":36,"left_children":[1,3,-1,5,7,9,-1,-1,11,-1,-1,-1,-1],"loss_changes":[1.6027374E1,1.9485727E1,0E0,2.7017109E1,2.3575474E1,3.5134E1,0E0,0E0,7.081725E0,0E0,0E0,0E0,0E0],"parents":[2147483647,0,0,1,1,3,3,4,4,5,5,8,8],"right_children":[2,4,-1,6,8,10,-1,-1,12,-1,-1,-1,-1],"split_conditions":[2.8329174E1,3.1675E1,-8.8734955E-2,5.069077E1,5.4013847E1,3.760826E1,1.2585637E-1,2.4748099E-1,3.623E1,7.356028E-2,-2.1506755E-1,-5.1868744E-2,7.7993155E-2],"split_indices":[3,0,0,2,2,2,0,0,0,0,0,0,0],"split_type":[0,0,0,0,0,0,0,0,0,0,0,0,0],"sum_hessian":[6.1E1,5.3E1,8E0,2.7E1,2.6E1,1.8E1,9E0,1E1,1.6E1,8E0,1E1,8E0,8E0],"tree_param":{"num_deleted":"0","num_feature":"4","num_nodes":"13","size_leaf_vector":"0"}},{"base_weights":[4.864515E-1,-5.751562E-2,1.1328999E0,-1.0066514E0,5.701005E-1,1.4545075E0,2.4114418E-1,1.9301182E0,-7.046555E-1],"categories":[],"categories_nodes":[],"categories_segments":[],"categories_sizes":[],"default_left":[1,1,1,0,1,0,0,0,0],"id":37,"left_children":[1,3,5,-1,7,-1,-1,-1,-1],"loss_changes":[2.1284374E1,2.5233175E1,4.2994347E0,0E0,5.2470795E1,0E0,0E0,0E0,0E0],"parents":[2147483647,0,0,1,1,2,2,4,4],"right_children":[2,4,6,-1,8,-1,-1,-1,-1],"split_conditions":[2.2695E1,4.526579E1,2.4585E1,-1.3086468E-1,5.8903576E1,1.8908596E-1,3.1348743E-2,2.5091535E-1,-9.1605216E-2],"split_indices":[1,2,1,0,2,0,0,0,0],"split_type":[0,0,0,0,0,0,0,0,0],"sum_hessian":[5.1E1,3E1,2.1E1,1.1E1,1.9E1,1.2E1,9E0,8E0,1.1E1],"tree_param":{"num_deleted":"0","num_feature":"4","num_nodes":"9","size_leaf_vector":"0"}},{"base_weights":[2.4337247E-1,8.6464655E-1,-5.5416495E-1,1.2696645E-1,1.1253738E0,-1.0554532E0,2.1419042E-1,2.3664992E0,-4.1526124E-2],"categories":[],"categories_nodes":[],"categories_segments":[],"categories_sizes":[],"default_left":[1,1,1,0,1,0,0,0,0],"id":38,"left_children":[1,3,5,-1,7,-1,-1,-1,-1],"loss_changes":[3.5822517E1,5.846674E0,1.4346365E1,0E0,4.297789E1,0E0,0E0,0E0,0E0],"parents":[2147483647,0,0,1,1,2,2,4,4],"right_children":[2,4,6,-1,8,-1,-1,-1,-1],"split_conditions":[5.9690857E1,1.7515E1,2.249E1,1.6505638E-2,4.4207466E1,-1.3720891E-1,2.7844753E-2,3.0764487E-1,-5.398396E-3],"split_indices":[2,1,1,0,2,0,0,0,0],"split_type":[0,0,0,0,0,0,0,0,0],"sum_hessian":[6E1,3.4E1,2.6E1,1.2E1,2.2E1,1.5E1,1.1E1,8E0,1.4E1],"tree_param":{"num_deleted":"0","num_feature":"4","num_nodes":"9","size_leaf_vector":"0"}},{"base_weights":[5.0621253E-1,1.1051912E0,-3.55433E-2,-1.6944075E-1,1.8428763E0,5.6022435E-1,-4.160735E-1,-7.6100713E-1,6.561845E-2],"categories":[],"categories_nodes":[],"categories_segments":[],"categories_sizes":[],"default_left":[1,1,1,0,0,0,1,0,0],"id":39,"left_children":[1,3,5,-1,-1,-1,7,-1,-1],"loss_changes":[1.8928226E1,2.8583042E1,8.992744E0,0E0,0E0,0E0,5.0027676E0,0E0,0E0],"parents":[2147483647,0,0,1,1,2,2,6,6],"right_children":[2,4,6,-1,-1,-1,8,-1,-1],"split_conditions":[5.399899E1,2.6786364E1,3.318E1,-2.2027297E-2,2.3957391E-1,7.2829165E-2,3.5504997E1,-9.8930925E-2,8.530398E-3],"split_indices":[2,3,0,0,0,0,0,0,0],"split_type":[0,0,0,0,0,0,0,0,0],"sum_hessian":[4.9E1,2.1E1,2.8E1,9E0,1.2E1,9E0,1.9E1,1E1,9E0],"tree_param":{"num_deleted":"0","num_feature":"4","num_nodes":"9","size_leaf_vector":"0"}},{"base_weights":[-0E0,1.3602109E0,-3.2224053E-1,-1.0302408E0,7.427762E-1,-1.2826183E0,-3.179638E-1,1.3403089E0,-2.1870689E-1,-1.6703709E0,-5.0960463E-1],"categories":[],"categories_nodes":[],"categories_segments":[],"categories_sizes":[],"default_left":[1,0,1,1,1,1,0,0,0,0,0],"id":40,"left_children":[1,-1,3,5,7,9,-1,-1,-1,-1,-1],"loss_changes":[3.2132767E1,0E0,5.0060448E1,3.2993279E0,1.815685E1,9.636345E-1,0E0,0E0,0E0,0E0,0E0],"parents":[2147483647,0,0,2,2,3,3,4,4,5,5],"right_children":[2,-1,4,6,8,10,-1,-1,-1,-1,-1],"split_conditions":[7.96E0,1.7682742E-1,2.2619999E1,2.0575E1,2.479E1,2.9155E1,-4.1335292E-2,1.7424016E-1,-2.8431894E-2,-2.1714821E-1,-6.62486E-2],"split_indices":[1,0,1,1,1,0,0,0,0,0,0],"split_type":[0,0,0,0,0,0,0,0,0,0,0],"sum_hessian":[6.2E1,8E0,5.4E1,3.3E1,2.1E1,2E1,1.3E1,1.2E1,9E0,8E0,1.2E1],"tree_param":{"num_deleted":"0","num_feature":"4","num_nodes":"11","size_leaf_vector":"0"}},{"base_weights":[-2.830459E-1,-1.4872924E0,2.024431E-1,7.4922425E-1,-1.1568772E0,7.931153E-2,9.0800244E-1,1.5208404E0,2.3446855E-1],"categories":[],"categories_nodes":[],"categories_segments":[],"categories_sizes":[],"default_left":[1,0,1,1,0,0,1,0,0],"id":41,"left_children":[1,-1,3,5,-1,-1,7,-1,-1],"loss_changes":[3.9069786E1,0E0,4.12978E1,2.936264E0,0E0,0E0,8.856783E0,0E0,0E0],"parents":[2147483647,0,0,2,2,3,3,6,6],"right_children":[2,-1,4,6,-1,-1,8,-1,-1],"split_conditions":[1.7515E1,-1.93348E-1,2.8125772E1,3.0724998E1,-1.5039402E-1,1.0310498E-2,2.6991161E1,1.9770925E-1,3.048091E-2],"split_indices":[1,0,3,0,0,0,3,0,0],"split_type":[0,0,0,0,0,0,0,0,0],"sum_hessian":[5.6E1,1.3E1,4.3E1,3.3E1,1E1,9E0,2.4E1,8E0,1.6E1],"tree_param":{"num_deleted":"0","num_feature":"4","num_nodes":"9","size_leaf_vector":"0"}},{"base_weights":[-5.8171842E-2,-7.036195E-1,2.838685E-1,7.260889E-1,-1.9045467E0,5.731437E-1,-3.3138406E-1,-1.1033531E-2,9.477308E-1],"categories":[],"categories_nodes":[],"categories_segments":[],"categories_sizes":[],"default_left":[1,1,1,0,0,1,0,0,0],"id":42,"left_children":[1,3,5,-1,-1,7,-1,-1,-1],"loss_changes":[1.5217702E1,5.0435623E1,9.161577E0,0E0,0E0,8.023965E0,0E0,0E0,0E0],"parents":[2147483647,0,0,1,1,2,2,5,5],"right_children":[2,4,6,-1,-1,8,-1,-1,-1],"split_conditions":[2.6867756E1,2.6521492E1,2.8125772E1,9.4391555E-2,-2.4759106E-1,2.7308367E1,-4.3079928E-2,-1.434359E-3,1.23205E-1],"split_indices":[3,3,3,0,0,3,0,0,0],"split_type":[0,0,0,0,0,0,0,0,0],"sum_hessian":[5.6E1,1.8E1,3.8E1,9E0,9E0,2.7E1,1.1E1,1.2E1,1.5E1],"tree_param":{"num_deleted":"0","num_feature":"4","num_nodes":"9","size_leaf_vector":"0"}},{"base_weights":[-2.6823353E-2,4.6973637E-1,-1.2065327E0,-4.184763E-1,8.604633E-1,1.2244756E0,6.819559E-2],"categories":[],"categories_nodes":[],"categories_segments":[],"categories_sizes":[],"default_left":[1,1,0,0,1,0,0],"id":43,"left_children":[1,3,-1,-1,5,-1,-1],"loss_changes":[4.3230927E1,2.020915E1,0E0,0E0,9.436783E0,0E0,0E0],"parents":[2147483647,0,0,1,1,4,4],"right_children":[2,4,-1,-1,6,-1,-1],"split_conditions":[6.644278E1,1.7515E1,-1.5684925E-1,-5.440192E-2,2.427E1,1.5918182E-1,8.865426E-3],"split_indices":[2,1,0,0,1,0,0],"split_type":[0,0,0,0,0,0,0],"sum_hessian":[6.1E1,4.5E1,1.6E1,1.3E1,3.2E1,1.9E1,1.3E1],"tree_param":{"num_deleted":"0","num_feature":"4","num_nodes":"7","size_leaf_vector":"0"}},{"base_weights":[3.3506212E-1,-3.4505016E-1,7.746175E-1,-1.9441004E0,1.2352501E0,1.4862788E0,9.878012E-2,-3.212925E-1,6.160219E-1],"categories":[],"categories_nodes":[],"categories_segments":[],"categories_sizes":[],"default_left":[1,1,1,0,0,0,1,0,0],"id":44,"left_children":[1,3,5,-1,-1,-1,7,-1,-1],"loss_changes":[1.987987E1,8.3197136E1,1.662464E1,0E0,0E0,0E0,7.2869115E0,0E0,0E0],"parents":[2147483647,0,0,1,1,2,2,6,6],"right_children":[2,4,6,-1,-1,-1,8,-1,-1],"split_conditions":[5.0129547E1,1.9439999E1,1.9474998E1,-2.5273305E-1,1.6058251E-1,1.9321623E-1,3.623E1,-4.1768022E-2,8.008284E-2],"split_indices":[2,1,1,0,0,0,0,0,0],"split_type":[0,0,0,0,0,0,0,0,0],"sum_hessian":[5.4E1,2.1E1,3.3E1,1E1,1.1E1,1.2E1,2.1E1,1.2E1,9E0],"tree_param":{"num_deleted":"0","num_feature":"4","num_nodes":"9","size_leaf_vector":"0"}},{"base_weights":[-3.5314605E-2,7.6646173E-1,-5.846556E-1,-1.7310935E-1,1.285641E0,1.3574064E-1,-8.223205E-1,-1.4093094E0,-3.7183855E-2],"categories":[],"categories_nodes":[],"categories_segments":[],"categories_sizes":[],"default_left":[1,1,1,0,0,0,1,0,0],"id":45,"left_children":[1,3,5,-1,-1,-1,7,-1,-1],"loss_changes":[2.8531538E1,1.4897189E1,7.889436E0,0E0,0E0,0E0,1.282971E1,0E0,0E0],"parents":[2147483647,0,0,1,1,2,2,6,6],"right_children":[2,4,6,-1,-1,-1,8,-1,-1],"split_conditions":[5.3638885E1,2.6830809E1,2.0285E1,-2.2504214E-2,1.6713332E-1,1.7646283E-2,2.2619999E1,-1.8321021E-1,-4.833901E-3],"split_indices":[2,3,1,0,0,0,1,0,0],"split_type":[0,0,0,0,0,0,0,0,0],"sum_hessian":[5.3E1,2E1,3.3E1,8E0,1.2E1,8E0,2.5E1,1.1E1,1.4E1],"tree_param":{"num_deleted":"0","num_feature":"4","num_nodes":"9","size_leaf_vector":"0"}},{"base_weights":[2.597902E-1,5.9305364E-1,-1.1281736E0,-8.054164E-2,1.1011125E0,1.254124E0,-1.0968784E0,1.5853467E0,-1.7906822E-1,1.9091103E0,5.531934E-1],"categories":[],"categories_nodes":[],"categories_segments":[],"categories_sizes":[],"default_left":[1,1,0,1,1,0,0,1,0,1,1],"id":46,"left_children":[1,3,-1,5,7,-1,-1,-1,-1,-1,-1],"loss_changes":[3.3195343E1,2.0503021E1,0E0,4.746713E1,2.3271214E1,0E0,0E0,7.247925E-2,0E0,0E0,0E0],"parents":[2147483647,0,0,1,1,3,3,4,4,7,7],"right_children":[2,4,-1,6,8,-1,-1,-1,-1,-1,-1],"split_conditions":[7.43447E1,3.1775E1,-1.4666256E-1,4.4215523E1,2.4119999E1,1.6303612E-1,-1.4259419E-1,2.0609507E-1,-2.3278868E-2,2.4818434E-1,7.1915135E-2],"split_indices":[2,0,0,2,1,0,0,2,0,2147483647,2147483647],"split_type":[0,0,0,0,0,0,0,0,0,0,0],"sum_hessian":[5.8E1,5E1,8E0,2.3E1,2.7E1,9E0,1.4E1,1.9E1,8E0,1E1,9E0],"tree_param":{"num_deleted":"2","num_feature":"4","num_nodes":"11","size_leaf_vector":"0"}},{"base_weights":[7.111217E-1,-8.706865E-2,9.6595997E-1,1.4348761E0,8.587003E-2,1.2693991E-1,1.8223478E0,-2.2621372E-1,3.7611705E-1],"categories":[],"categories_nodes":[],"categories_segments":[],"categories_sizes":[],"default_left":[1,0,1,1,1,0,0,0,0],"id":47,"left_children":[1,-1,3,5,7,-1,-1,-1,-1],"loss_changes":[1.401375E1,0E0,1.8281067E1,1.2782524E1,2.8028738E0,0E0,0E0,0E0,0E0],"parents":[2147483647,0,0,2,2,3,3,4,4],"right_children":[2,-1,4,6,8,-1,-1,-1,-1],"split_conditions":[2.849E1,-1.1318924E-2,2.2965E1,3.1314999E1,2.418E1,1.6502187E-2,2.369052E-1,-2.9407782E-2,4.8895214E-2],"split_indices":[0,0,1,0,1,0,0,0,0],"split_type":[0,0,0,0,0,0,0,0,0],"sum_hessian":[5.7E1,1.4E1,4.3E1,2.5E1,1.8E1,8E0,1.7E1,8E0,1E1],"tree_param":{"num_deleted":"0","num_feature":"4","num_nodes":"9","size_leaf_vector":"0"}},{"base_weights":[-1.04508325E-1,7.489619E-1,-5.9044695E-1,-1.7536055E-1,1.2621143E0,-1.501693E0,2.8893116E-1,-2.0245872E0,-2.0408837E-1,-1.10072024E-1,6.788356E-1],"categories":[],"categories_nodes":[],"categories_segments":[],"categories_sizes":[],"default_left":[1,1,1,0,0,1,1,0,0,0,0],"id":48,"left_children":[1,3,5,-1,-1,7,9,-1,-1,-1,-1],"loss_changes":[2.9900558E1,1.4518762E1,4.042257E1,0E0,0E0,1.2044418E1,5.2536945E0,0E0,0E0,0E0,0E0],"parents":[2147483647,0,0,1,1,2,2,5,5,6,6],"right_children":[2,4,6,-1,-1,8,10,-1,-1,-1,-1],"split_conditions":[3.0945E1,1.796E1,2.2619999E1,-2.279687E-2,1.6407485E-1,3.4095E1,3.663E1,-2.6319632E-1,-2.6531488E-2,-1.43093625E-2,8.824862E-2],"split_indices":[0,1,1,0,0,0,0,0,0,0,0],"split_type":[0,0,0,0,0,0,0,0,0,0,0],"sum_hessian":[6E1,2E1,4E1,8E0,1.2E1,1.8E1,2.2E1,1E1,8E0,1.2E1,1E1],"tree_param":{"num_deleted":"0","num_feature":"4","num_nodes":"11","size_leaf_vector":"0"}},{"base_weights":[-0E0,1.1259254E0,-4.9924523E-1,6.2741875E-3,1.7865837E0,-1.7444147E0,-2.7737575E-2,8.5509956E-1,-4.4913667E-1,7.352529E-2,-6.495977E-1],"categories":[],"categories_nodes":[],"categories_segments":[],"categories_sizes":[],"default_left":[1,1,1,0,0,0,1,0,1,0,0],"id":49,"left_children":[1,3,5,-1,-1,-1,7,-1,9,-1,-1],"loss_changes":[4.236731E1,1.5529646E1,2.9426352E1,0E0,0E0,0E0,1.8724834E1,0E0,4.4087353E0,0E0,0E0],"parents":[2147483647,0,0,1,1,2,2,6,6,8,8],"right_children":[2,4,6,-1,-1,-1,8,-1,10,-1,-1],"split_conditions":[1.9265E1,5.1240456E1,2.0585E1,8.1564434E-4,2.3225586E-1,-2.267739E-1,4.807937E1,1.1116294E-1,2.2345E1,9.558287E-3,-8.44477E-2],"split_indices":[1,2,1,0,0,0,2,0,1,0,0],"split_type":[0,0,0,0,0,0,0,0,0,0,0],"sum_hessian":[6.4E1,1.7E1,4.7E1,9E0,8E0,8E0,3.9E1,1E1,2.9E1,8E0,2.1E1],"tree_param":{"num_deleted":"0","num_feature":"4","num_nodes":"11","size_leaf_vector":"0"}},{"base_weights":[4.826713E-1,9.360149E-1,1.6824685E-2,1.4595668E-1,1.4057686E0,-4.542064E-1,1.1763303E0,6.1236113E-1,-9.740747E-1,-1.3943515E0,-2.3770282E-1],"categories":[],"categories_nodes":[],"categories_segments":[],"categories_sizes":[],"default_left":[1,1,1,0,0,1,0,0,1,0,0],"id":50,"left_children":[1,3,5,-1,-1,7,-1,-1,9,-1,-1],"loss_changes":[1.3724781E1,1.0161566E1,2.616895E1,0E0,0E0,2.216233E1,0E0,0E0,4.4590282E0,0E0,0E0],"parents":[2147483647,0,0,1,1,2,2,5,5,8,8],"right_children":[2,4,6,-1,-1,8,-1,-1,10,-1,-1],"split_conditions":[3.1509998E1,2.8145E1,3.663E1,1.8974368E-2,1.8274991E-1,2.703611E1,1.5292294E-1,7.960694E-2,3.428E1,-1.8126568E-1,-3.0901365E-2],"split_indices":[0,0,0,0,0,3,0,0,0,0,0],"split_type":[0,0,0,0,0,0,0,0,0,0,0],"sum_hessian":[6.3E1,2.8E1,3.5E1,1.4E1,1.4E1,2.7E1,8E0,8E0,1.9E1,8E0,1.1E1],"tree_param":{"num_deleted":"0","num_feature":"4","num_nodes":"11","size_leaf_vector":"0"}},{"base_weights":[-0E0,7.4521196E-1,-2.2925422E-1,-1.3084732E0,1.4442654E-1,4.9702445E-1,-3.9777866E-1,6.540553E-2,8.210399E-1],"categories":[],"categories_nodes":[],"categories_segments":[],"categories_sizes":[],"default_left":[1,0,1,0,1,1,0,0,0],"id":51,"left_children":[1,-1,3,-1,5,7,-1,-1,-1],"loss_changes":[1.1513329E1,0E0,2.2217638E1,0E0,9.294216E0,3.0331903E0,0E0,0E0,0E0],"parents":[2147483647,0,0,2,2,4,4,5,5],"right_children":[2,-1,4,-1,6,8,-1,-1,-1],"split_conditions":[4.6103333E1,9.687755E-2,5.234028E1,-1.7010151E-1,2.8125772E1,2.7459087E1,-5.1711224E-2,8.502719E-3,1.06735185E-1],"split_indices":[2,0,2,0,3,3,0,0,0],"split_type":[0,0,0,0,0,0,0,0,0],"sum_hessian":[5.4E1,1E1,4.4E1,8E0,3.6E1,2.3E1,1.3E1,1.4E1,9E0],"tree_param":{"num_deleted":"0","num_feature":"4","num_nodes":"9","size_leaf_vector":"0"}},{"base_weights":[2.903934E-1,-0E0,1.1495421E0,8.170479E-1,-3.7966308E-1,-1.4914329E0,2.922068E-1,1.3358972E0,-5.1062447E-1],"categories":[],"categories_nodes":[],"categories_segments":[],"categories_sizes":[],"default_left":[1,1,0,0,1,0,1,0,0],"id":52,"left_children":[1,3,-1,-1,5,-1,7,-1,-1],"loss_changes":[1.788306E1,1.9693684E1,0E0,0E0,3.6428677E1,0E0,3.1557852E1,0E0,0E0],"parents":[2147483647,0,0,1,1,4,4,6,6],"right_children":[2,4,-1,-1,6,-1,8,-1,-1],"split_conditions":[3.6455E1,2.6575214E1,1.4944047E-1,1.0621622E-1,2.7089432E1,-1.9388627E-1,2.9845001E1,1.7366663E-1,-6.638118E-2],"split_indices":[0,3,0,0,3,0,0,0,0],"split_type":[0,0,0,0,0,0,0,0,0],"sum_hessian":[6.4E1,5.2E1,1.2E1,1.4E1,3.8E1,1.2E1,2.6E1,1E1,1.6E1],"tree_param":{"num_deleted":"0","num_feature":"4","num_nodes":"9","size_leaf_vector":"0"}},{"base_weights":[2.7144574E-2,-5.0774163E-1,5.4676735E-1,6.923583E-1,-1.2732654E0,1.361067E0,-1.1469934E-1],"categories":[],"categories_nodes":[],"categories_segments":[],"categories_sizes":[],"default_left":[1,1,1,0,0,0,0],"id":53,"left_children":[1,3,5,-1,-1,-1,-1],"loss_changes":[1.5593482E1,3.0553286E1,1.7541645E1,0E0,0E0,0E0,0E0],"parents":[2147483647,0,0,1,1,2,2],"right_children":[2,4,6,-1,-1,-1,-1],"split_conditions":[2.719161E1,2.6575214E1,3.05E1,9.0006575E-2,-1.655245E-1,1.7693871E-1,-1.4910914E-2],"split_indices":[3,3,0,0,0,0,0],"split_type":[0,0,0,0,0,0,0],"sum_hessian":[4.4E1,2.1E1,2.3E1,8E0,1.3E1,8E0,1.5E1],"tree_param":{"num_deleted":"0","num_feature":"4","num_nodes":"7","size_leaf_vector":"0"}},{"base_weights":[7.947321E-2,1.5051122E0,-3.0183294E-1,-7.682018E-1,3.1231454E-1,-1.7618469E0,-1.6206006E-2,7.4168175E-1,-2.6530197E-1,7.2181237E-1,-8.436483E-1],"categories":[],"categories_nodes":[],"categories_segments":[],"categories_sizes":[],"default_left":[1,0,1,1,1,0,1,0,0,0,0],"id":54,"left_children":[1,-1,3,5,7,-1,9,-1,-1,-1,-1],"loss_changes":[4.1185085E1,0E0,1.8698412E1,2.5323832E1,8.749236E0,0E0,2.023801E1,0E0,0E0,0E0,0E0],"parents":[2147483647,0,0,2,2,3,3,4,4,6,6],"right_children":[2,-1,4,6,8,-1,10,-1,-1,-1,-1],"split_conditions":[4.001944E1,1.9566457E-1,3.454E1,5.1112915E1,3.7114998E1,-2.2904009E-1,3.116E1,9.641863E-2,-3.4489255E-2,9.383561E-2,-1.09674275E-1],"split_indices":[2,0,0,2,0,0,0,0,0,0,0],"split_type":[0,0,0,0,0,0,0,0,0,0,0],"sum_hessian":[6.3E1,1E1,5.3E1,3E1,2.3E1,9E0,2.1E1,1.3E1,1E1,1.1E1,1E1],"tree_param":{"num_deleted":"0","num_feature":"4","num_nodes":"11","size_leaf_vector":"0"}},{"base_weights":[3.6499962E-1,1.3444483E0,-3.3462778E-1,4.4339234E-1,1.6356452E0,-8.761425E-1,7.573841E-1,-0E0,-1.2831172E0],"categories":[],"categories_nodes":[],"categories_segments":[],"categories_sizes":[],"default_left":[1,1,1,0,0,1,0,0,0],"id":55,"left_children":[1,3,5,-1,-1,7,-1,-1,-1],"loss_changes":[4.1871048E1,5.6578064E-1,2.5954878E1,0E0,0E0,9.787886E0,0E0,0E0,0E0],"parents":[2147483647,0,0,1,1,2,2,5,5],"right_children":[2,4,6,-1,-1,8,-1,-1,-1],"split_conditions":[4.828472E1,3.0724998E1,3.6355E1,5.7641003E-2,2.1263386E-1,3.109E1,9.845993E-2,-0E0,-1.6680522E-1],"split_indices":[2,0,0,0,0,0,0,0,0],"split_type":[0,0,0,0,0,0,0,0,0],"sum_hessian":[5E1,1.9E1,3.1E1,9E0,1E1,2.2E1,9E0,9E0,1.3E1],"tree_param":{"num_deleted":"0","num_feature":"4","num_nodes":"9","size_leaf_vector":"0"}},{"base_weights":[-3.5311842E-1,-9.969602E-1,6.499328E-1,-1.3527569E0,-2.5092795E-1,1.1782215E0,-2.8914437E-1,-1.6978649E0,-3.908722E-1],"categories":[],"categories_nodes":[],"categories_segments":[],"categories_sizes":[],"default_left":[1,1,1,1,0,0,0,0,0],"id":56,"left_children":[1,3,5,7,-1,-1,-1,-1,-1],"loss_changes":[4.355608E1,7.313854E0,1.614123E1,2.6668625E0,0E0,0E0,0E0,0E0,0E0],"parents":[2147483647,0,0,1,1,2,2,3,3],"right_children":[2,4,6,8,-1,-1,-1,-1,-1],"split_conditions":[3.428E1,5.1112915E1,2.8125772E1,3.0365E1,-3.262063E-2,1.5316878E-1,-3.7588768E-2,-2.2072242E-1,-5.0813384E-2],"split_indices":[0,2,3,0,0,0,0,0,0],"split_type":[0,0,0,0,0,0,0,0,0],"sum_hessian":[5.5E1,3.4E1,2.1E1,1.9E1,1.5E1,1.3E1,8E0,1E1,9E0],"tree_param":{"num_deleted":"0","num_feature":"4","num_nodes":"9","size_leaf_vector":"0"}},{"base_weights":[6.226075E-2,-9.466382E-1,4.1836104E-1,1.434406E0,-1.9889939E-1,-6.69274E-1,5.9956443E-1,1.97674E-2,-1.1025528E0],"categories":[],"categories_nodes":[],"categories_segments":[],"categories_sizes":[],"default_left":[1,0,1,0,1,1,0,0,0],"id":57,"left_children":[1,-1,3,-1,5,7,-1,-1,-1],"loss_changes":[2.6389187E1,0E0,3.7181908E1,0E0,1.7110214E1,9.345485E0,0E0,0E0,0E0],"parents":[2147483647,0,0,2,2,4,4,5,5],"right_children":[2,-1,4,-1,6,8,-1,-1,-1],"split_conditions":[1.7515E1,-1.2306297E-1,5.1511253E1,1.8647277E-1,7.6100555E1,2.2205E1,7.794337E-2,2.5697618E-3,-1.4333186E-1],"split_indices":[1,0,2,0,2,1,0,0,0],"split_type":[0,0,0,0,0,0,0,0,0],"sum_hessian":[6.2E1,1.3E1,4.9E1,1.6E1,3.3E1,2.2E1,1.1E1,1E1,1.2E1],"tree_param":{"num_deleted":"0","num_feature":"4","num_nodes":"9","size_leaf_vector":"0"}},{"base_weights":[-5.4856277E-1,1.3987072E-1,-1.3526152E0,-5.5827093E-1,9.089102E-1],"categories":[],"categories_nodes":[],"categories_segments":[],"categories_sizes":[],"default_left":[1,1,0,0,0],"id":58,"left_children":[1,3,-1,-1,-1],"loss_changes":[3.198419E1,2.1576063E1,0E0,0E0,0E0],"parents":[2147483647,0,0,1,1],"right_children":[2,4,-1,-1,-1],"split_conditions":[5.973492E1,4.9612396E1,-1.7583998E-1,-7.257522E-2,1.18158326E-1],"split_indices":[2,2,0,0,0],"split_type":[0,0,0,0,0],"sum_hessian":[4.8E1,2.8E1,2E1,1.5E1,1.3E1],"tree_param":{"num_deleted":"0","num_feature":"4","num_nodes":"5","size_leaf_vector":"0"}},{"base_weights":[1.8557777E-1,1.4371604E0,-2.9443046E-1,-1.5692911E0,2.6388878E-1,8.243879E-1,-1.8954107E-1,-6.377896E-1,2.8185722E-1],"categories":[],"categories_nodes":[],"categories_segments":[],"categories_sizes":[],"default_left":[1,0,1,0,1,0,1,0,0],"id":59,"left_children":[1,-1,3,-1,5,-1,7,-1,-1],"loss_changes":[3.708474E1,0E0,3.5546043E1,0E0,1.0588354E1,0E0,6.431066E0,0E0,0E0],"parents":[2147483647,0,0,2,2,4,4,6,6],"right_children":[2,-1,4,-1,6,-1,8,-1,-1],"split_conditions":[2.6612331E1,1.8683085E-1,2.7150541E1,-2.0400783E-1,2.7787006E1,1.07170425E-1,2.814869E1,-8.2912646E-2,3.6641438E-2],"split_indices":[3,0,3,0,3,0,3,0,0],"split_type":[0,0,0,0,0,0,0,0,0],"sum_hessian":[5E1,1.1E1,3.9E1,9E0,3E1,1.2E1,1.8E1,9E0,9E0],"tree_param":{"num_deleted":"0","num_feature":"4","num_nodes":"9","size_leaf_vector":"0"}},{"base_weights":[4.5075912E-2,-8.789542E-1,4.5812255E-1,1.1018311E0,-5.086952E-1,-1.2954245E0,4.3961775E-1],"categories":[],"categories_nodes":[],"categories_segments":[],"categories_sizes":[],"default_left":[1,0,1,0,1,0,0],"id":60,"left_children":[1,-1,3,-1,5,-1,-1],"loss_changes":[2.4983608E1,0E0,3.2459602E1,0E0,2.050648E1,0E0,0E0],"parents":[2147483647,0,0,2,2,4,4],"right_children":[2,-1,4,-1,6,-1,-1],"split_conditions":[1.7515E1,-1.1426404E-1,3.4934998E1,1.4323804E-1,2.398E1,-1.6840518E-1,5.7150304E-2],"split_indices":[1,0,0,0,1,0,0],"split_type":[0,0,0,0,0,0,0],"sum_hessian":[5.4E1,1.4E1,4E1,2.4E1,1.6E1,8E0,8E0],"tree_param":{"num_deleted":"0","num_feature":"4","num_nodes":"7","size_leaf_vector":"0"}},{"base_weights":[2.3099558E-1,1.3300302E0,-2.259753E-1,-1.1229196E0,1.7718576E-1,6.544114E-1,-6.261676E-2,-4.2042318E-1,2.5229487E-1],"categories":[],"categories_nodes":[],"categories_segments":[],"categories_sizes":[],"default_left":[1,0,1,0,1,0,1,0,0],"id":61,"left_children":[1,-1,3,-1,5,-1,7,-1,-1],"loss_changes":[3.2809135E1,0E0,1.8936733E1,0E0,4.947657E0,0E0,4.03689E0,0E0,0E0],"parents":[2147483647,0,0,2,2,4,4,6,6],"right_children":[2,-1,4,-1,6,-1,8,-1,-1],"split_conditions":[1.7805E1,1.7290393E-1,2.048E1,-1.4597954E-1,4.4811806E1,8.507348E-2,5.8665775E1,-5.465501E-2,3.279833E-2],"split_indices":[1,0,1,0,2,0,2,0,0],"split_type":[0,0,0,0,0,0,0,0,0],"sum_hessian":[5.4E1,1.3E1,4.1E1,1E1,3.1E1,8E0,2.3E1,1.1E1,1.2E1],"tree_param":{"num_deleted":"0","num_feature":"4","num_nodes":"9","size_leaf_vector":"0"}},{"base_weights":[7.600777E-2,-1.0159507E0,4.3255958E-1,1.5529224E0,-2.630467E-2,-5.5008495E-1,1.8618156E-1,5.929621E-1,-5.1359195E-1],"categories":[],"categories_nodes":[],"categories_segments":[],"categories_sizes":[],"default_left":[1,0,1,0,1,0,1,0,0],"id":62,"left_children":[1,-1,3,-1,5,-1,7,-1,-1],"loss_changes":[2.709362E1,0E0,2.8698132E1,0E0,5.6877093E0,0E0,1.1568191E1,0E0,0E0],"parents":[2147483647,0,0,2,2,4,4,6,6],"right_children":[2,-1,4,-1,6,-1,8,-1,-1],"split_conditions":[2.8645E1,-1.3207358E-1,2.6820421E1,2.018799E-1,2.043E1,-7.151104E-2,2.4695E1,7.708507E-2,-6.676695E-2],"split_indices":[0,0,3,0,1,0,1,0,0],"split_type":[0,0,0,0,0,0,0,0,0],"sum_hessian":[5.8E1,1.1E1,4.7E1,1E1,3.7E1,9E0,2.8E1,1.9E1,9E0],"tree_param":{"num_deleted":"0","num_feature":"4","num_nodes":"9","size_leaf_vector":"0"}},{"base_weights":[1.0544789E-1,7.2525036E-1,-1.6813806E-1,-0E0,-5.5158585E-1,2.5698158E-1,-3.505679E-1,-2.9965252E-1,9.1894764E-1],"categories":[],"categories_nodes":[],"categories_segments":[],"categories_sizes":[],"default_left":[1,0,1,1,0,1,0,0,0],"id":63,"left_children":[1,-1,3,5,-1,7,-1,-1,-1],"loss_changes":[1.1685066E1,0E0,3.234995E0,3.9291897E0,0E0,1.1721727E1,0E0,0E0,0E0],"parents":[2147483647,0,0,2,2,3,3,5,5],"right_children":[2,-1,4,6,-1,8,-1,-1,-1],"split_conditions":[2.6600483E1,9.4282545E-2,7.136824E1,2.315E1,-7.170616E-2,2.048E1,-4.5573827E-2,-3.8954824E-2,1.1946319E-1],"split_indices":[3,0,2,1,0,1,0,0,0],"split_type":[0,0,0,0,0,0,0,0,0],"sum_hessian":[5.6E1,1.5E1,4.1E1,3.2E1,9E0,2E1,1.2E1,1.2E1,8E0],"tree_param":{"num_deleted":"0","num_feature":"4","num_nodes":"9","size_leaf_vector":"0"}},{"base_weights":[-3.9147052E-1,5.900193E-1,-8.056545E-1,-1.918842E0,-2.475347E-1,3.6647806E-1,-1.2786065E0,7.6640624E-1,-3.0548137E-1],"categories":[],"categories_nodes":[],"categories_segments":[],"categories_sizes":[],"default_left":[1,0,1,0,1,1,0,0,0],"id":64,"left_children":[1,-1,3,-1,5,7,-1,-1,-1],"loss_changes":[2.782002E1,0E0,2.4018112E1,0E0,2.7589537E1,9.293462E0,0E0,0E0,0E0],"parents":[2147483647,0,0,2,2,4,4,5,5],"right_children":[2,-1,4,-1,6,8,-1,-1,-1],"split_conditions":[4.4811806E1,7.6702505E-2,5.1112915E1,-2.4944945E-1,7.067789E1,3.7575E1,-1.6621885E-1,9.963281E-2,-3.9712578E-2],"split_indices":[2,0,2,0,2,0,0,0,0],"split_type":[0,0,0,0,0,0,0,0,0],"sum_hessian":[5.5E1,1.5E1,4E1,8E0,3.2E1,2.2E1,1E1,1.4E1,8E0],"tree_param":{"num_deleted":"0","num_feature":"4","num_nodes":"9","size_leaf_vector":"0"}},{"base_weights":[-4.6926388E-3,-7.71231E-1,5.429465E-1,-1.2964245E0,1.5792215E-1,1.7963461E0,-4.5737952E-2,-6.1946696E-1,3.1526586E-1,8.7885803E-1,-3.2176596E-1],"categories":[],"categories_nodes":[],"categories_segments":[],"categories_sizes":[],"default_left":[1,1,1,0,0,0,1,0,1,0,0],"id":65,"left_children":[1,3,5,-1,-1,-1,7,-1,9,-1,-1],"loss_changes":[3.0818459E1,1.7255362E1,3.2865936E1,0E0,0E0,0E0,8.454124E0,0E0,1.075345E1,0E0,0E0],"parents":[2147483647,0,0,1,1,2,2,6,6,8,8],"right_children":[2,4,6,-1,-1,-1,8,-1,10,-1,-1],"split_conditions":[3.1314999E1,5.0626976E1,2.0335E1,-1.6853517E-1,2.052988E-2,2.3352498E-1,3.4855E1,-8.05307E-2,2.4585E1,1.1425154E-1,-4.1829575E-2],"split_indices":[0,2,1,0,0,0,0,0,1,0,0],"split_type":[0,0,0,0,0,0,0,0,0,0,0],"sum_hessian":[6.1E1,2.5E1,3.6E1,1.5E1,1E1,8E0,2.8E1,1E1,1.8E1,9E0,9E0],"tree_param":{"num_deleted":"0","num_feature":"4","num_nodes":"11","size_leaf_vector":"0"}},{"base_weights":[-5.1890904E-1,-1.095577E0,-1.1564797E-1,1.7875735E-2,-1.7083818E0,5.9664404E-1,-4.5367104E-1,-1.2867962E0,6.9243506E-2,4.4482565E-1,-3.8689503E-1],"categories":[],"categories_nodes":[],"categories_segments":[],"categories_sizes":[],"default_left":[1,1,1,0,0,0,1,0,1,0,0],"id":66,"left_children":[1,3,5,-1,-1,-1,7,-1,9,-1,-1],"loss_changes":[1.2700884E1,1.7894634E1,1.21050625E1,0E0,0E0,0E0,1.630869E1,0E0,5.5326247E0,0E0,0E0],"parents":[2147483647,0,0,1,1,2,2,6,6,8,8],"right_children":[2,4,6,-1,-1,-1,8,-1,10,-1,-1],"split_conditions":[2.719161E1,2.6521492E1,2.9845001E1,2.3238454E-3,-2.2208962E-1,7.7563725E-2,3.436E1,-1.672835E-1,3.8415E1,5.782733E-2,-5.029635E-2],"split_indices":[3,3,0,0,0,0,0,0,0,0,0],"split_type":[0,0,0,0,0,0,0,0,0,0,0],"sum_hessian":[5.6E1,1.8E1,3.8E1,8E0,1E1,1E1,2.8E1,8E0,2E1,1.2E1,8E0],"tree_param":{"num_deleted":"0","num_feature":"4","num_nodes":"11","size_leaf_vector":"0"}},{"base_weights":[-2.1034572E-1,7.528933E-2,-1.2642872E0,-1.3688162E-1,7.767873E-1,3.8258025E-1,-8.9104027E-1,-1.0454107E-2,7.7953553E-1,-1.7082606E-1,-1.1729515E0],"categories":[],"categories_nodes":[],"categories_segments":[],"categories_sizes":[],"default_left":[1,1,0,1,0,1,1,0,0,0,0],"id":67,"left_children":[1,3,-1,5,-1,7,9,-1,-1,-1,-1],"loss_changes":[2.1379248E1,9.62723E0,0E0,2.1251371E1,0E0,5.6490173E0,2.2029934E0,0E0,0E0,0E0,0E0],"parents":[2147483647,0,0,1,1,3,3,5,5,6,6],"right_children":[2,4,-1,6,-1,8,10,-1,-1,-1,-1],"split_conditions":[3.7114998E1,3.44E1,-1.6435733E-1,3.109E1,1.00982346E-1,2.7148363E1,2.7096077E1,-1.3590339E-3,1.01339616E-1,-2.2207387E-2,-1.5248369E-1],"split_indices":[0,0,0,0,0,3,3,0,0,0,0],"split_type":[0,0,0,0,0,0,0,0,0,0,0],"sum_hessian":[6E1,5.1E1,9E0,4.2E1,9E0,2.6E1,1.6E1,1.5E1,1.1E1,8E0,8E0],"tree_param":{"num_deleted":"0","num_feature":"4","num_nodes":"11","size_leaf_vector":"0"}},{"base_weights":[2.0492147E-1,1.0920457E0,-5.1806875E-2,3.511216E-1,-3.4789604E-1,-4.236811E-1,8.805943E-1,-9.0715E-1,-0E0,-4.2120516E-1,4.3586114E-1],"categories":[],"categories_nodes":[],"categories_segments":[],"categories_sizes":[],"default_left":[1,0,1,1,1,0,0,0,1,0,0],"id":68,"left_children":[1,-1,3,5,7,-1,-1,-1,9,-1,-1],"loss_changes":[1.6420485E1,0E0,7.5306325E0,1.3265667E1,7.0427246E0,0E0,0E0,0E0,6.4230223E0,0E0,0E0],"parents":[2147483647,0,0,2,2,3,3,4,4,8,8],"right_children":[2,-1,4,6,8,-1,-1,-1,10,-1,-1],"split_conditions":[8.035E0,1.4196593E-1,4.828472E1,1.9439999E1,5.457384E1,-5.5078544E-2,1.14477254E-1,-1.1792949E-1,2.2619999E1,-5.4756667E-2,5.6661945E-2],"split_indices":[1,0,2,1,2,0,0,0,1,0,0],"split_type":[0,0,0,0,0,0,0,0,0,0,0],"sum_hessian":[6.1E1,1E1,5.1E1,2E1,3.1E1,8E0,1.2E1,8E0,2.3E1,1.2E1,1.1E1],"tree_param":{"num_deleted":"0","num_feature":"4","num_nodes":"11","size_leaf_vector":"0"}},{"base_weights":[-1.7900184E-1,-0E0,-9.36003E-1,-4.472938E-1,5.5238014E-1,-7.9117113E-1,4.0029225E-1,-1.1673455E-1,1.1910868E0,6.5253474E-2,-1.2356383E0],"categories":[],"categories_nodes":[],"categories_segments":[],"categories_sizes":[],"default_left":[1,1,0,1,1,1,0,0,0,0,0],"id":69,"left_children":[1,3,-1,5,7,9,-1,-1,-1,-1,-1],"loss_changes":[1.0022507E1,1.6861492E1,0E0,1.2993219E1,1.4931392E1,1.2447306E1,0E0,0E0,0E0,0E0,0E0],"parents":[2147483647,0,0,1,1,3,3,4,4,5,5],"right_children":[2,4,-1,6,8,10,-1,-1,-1,-1,-1],"split_conditions":[2.8256647E1,2.722818E1,-1.2168039E-1,2.2355E1,6.3968063E1,2.6521492E1,5.203799E-2,-1.5175491E-2,1.5484127E-1,8.482952E-3,-1.6063297E-1],"split_indices":[3,3,0,1,2,3,0,0,0,0,0],"split_type":[0,0,0,0,0,0,0,0,0,0,0],"sum_hessian":[6.4E1,5.6E1,8E0,3.1E1,2.5E1,2.3E1,8E0,1.4E1,1.1E1,9E0,1.4E1],"tree_param":{"num_deleted":"0","num_feature":"4","num_nodes":"11","size_leaf_vector":"0"}},{"base_weights":[-1.1572901E-1,-9.1423786E-1,2.9950002E-1,-1.2688651E0,-8.603532E-2,9.4020504E-1,-1.2567402E-1,-6.701969E-1,3.353726E-1],"categories":[],"categories_nodes":[],"categories_segments":[],"categories_sizes":[],"default_left":[1,1,1,0,0,0,1,0,0],"id":70,"left_children":[1,3,5,-1,-1,-1,7,-1,-1],"loss_changes":[2.2353935E1,5.0297985E0,1.3338526E1,0E0,0E0,0E0,9.395668E0,0E0,0E0],"parents":[2147483647,0,0,1,1,2,2,6,6],"right_children":[2,4,6,-1,-1,-1,8,-1,-1],"split_conditions":[4.990691E1,1.9744999E1,2.0285E1,-1.6495246E-1,-1.1184591E-2,1.2222665E-1,2.2619999E1,-8.712559E-2,4.3598436E-2],"split_indices":[2,1,1,0,0,0,1,0,0],"split_type":[0,0,0,0,0,0,0,0,0],"sum_hessian":[5.5E1,1.7E1,3.8E1,9E0,8E0,1.3E1,2.5E1,1.1E1,1.4E1],"tree_param":{"num_deleted":"0","num_feature":"4","num_nodes":"9","size_leaf_vector":"0"}}]},"name":"gbtree"},"learner_model_param":{"base_score":"5E-1","num_class":"0","num_feature":"4","num_target":"1"},"objective":{"name":"reg:squarederror","reg_loss_param":{"scale_pos_weight":"1"}}},"version":[1,6,1]}