{"learner":{"attributes":{"best_iteration":"68","best_ntree_limit":"69","scikit_learn":"{\"n_estimators\": 100, \"objective\": \"reg:squarederror\", \"max_depth\": null, \"max_leaves\": null, \"max_bin\": null, \"grow_policy\": null, \"learning_rate\": 0.13, \"verbosity\": null, \"booster\": null, \"tree_method\": null, \"gamma\": 0.26, \"min_child_weight\": null, \"max_delta_step\": null, \"subsample\": 0.58, \"sampling_method\": null, \"colsample_bytree\": 1.0, \"colsample_bylevel\": null, \"colsample_bynode\": null, \"reg_alpha\": 0.22, \"reg_lambda\": 5.1000000000000005, \"scale_pos_weight\": null, \"base_score\": null, \"missing\": NaN, \"num_parallel_tree\": null, \"random_state\": null, \"n_jobs\": null, \"monotone_constraints\": null, \"interaction_constraints\": null, \"importance_type\": null, \"gpu_id\": null, \"validate_parameters\": null, \"predictor\": null, \"enable_categorical\": false, \"max_cat_to_onehot\": null, \"eval_metric\": null, \"early_stopping_rounds\": null, \"callbacks\": null, \"base_divisor\": 6.710000000000843, \"_estimator_type\": \"regressor\"}"},"feature_names":[],"feature_types":[],"gradient_booster":{"model":{"gbtree_model_param":{"num_parallel_tree":"1","num_trees":"69","size_leaf_vector":"0"},"tree_info":[0,0,0,0,0,0,0,0,0,0,0,0,0,0,0,0,0,0,0,0,0,0,0,0,0,0,0,0,0,0,0,0,0,0,0,0,0,0,0,0,0,0,0,0,0,0,0,0,0,0,0,0,0,0,0,0,0,0,0,0,0,0,0,0,0,0,0,0,0],"trees":[{"base_weights":[6.09258E0],"categories":[],"categories_nodes":[],"categories_segments":[],"categories_sizes":[],"default_left":[0],"id":0,"left_children":[-1],"loss_changes":[0E0],"parents":[2147483647],"right_children":[-1],"split_conditions":[7.9203534E-1],"split_indices":[0],"split_type":[0],"sum_hessian":[5.9E1],"tree_param":{"num_deleted":"0","num_feature":"4","num_nodes":"1","size_leaf_vector":"0"}},{"base_weights":[5.593203E0],"categories":[],"categories_nodes":[],"categories_segments":[],"categories_sizes":[],"default_left":[0],"id":1,"left_children":[-1],"loss_changes":[0E0],"parents":[2147483647],"right_children":[-1],"split_conditions":[7.2711635E-1],"split_indices":[0],"split_type":[0],"sum_hessian":[5.9E1],"tree_param":{"num_deleted":"0","num_feature":"4","num_nodes":"1","size_leaf_vector":"0"}},{"base_weights":[4.706863E0,5.2395825E0,1.9233534E0,1.8894622E0,5.651862E0,2.7712828E-1,2.427E0],"categories":[],"categories_nodes":[],"categories_segments":[],"categories_sizes":[],"default_left":[1,1,1,0,0,0,0],"id":2,"left_children":[1,3,5,-1,-1,-1,-1],"loss_changes":[3.9112305E1,1.1694458E1,1.098188E1,0E0,0E0,0E0,0E0],"parents":[2147483647,0,0,1,1,2,2],"right_children":[2,4,6,-1,-1,-1,-1],"split_conditions":[-3.0281143E1,2.849E1,2.164E1,2.4563009E-1,7.3474205E-1,3.6026675E-2,3.1551E-1],"split_indices":[2,0,1,0,0,0,0],"split_type":[0,0,0,0,0,0,0],"sum_hessian":[5.7E1,4.4E1,1.3E1,8E0,3.6E1,5E0,8E0],"tree_param":{"num_deleted":"0","num_feature":"4","num_nodes":"7","size_leaf_vector":"0"}},{"base_weights":[4.713036E0],"categories":[],"categories_nodes":[],"categories_segments":[],"categories_sizes":[],"default_left":[0],"id":3,"left_children":[-1],"loss_changes":[0E0],"parents":[2147483647],"right_children":[-1],"split_conditions":[6.126947E-1],"split_indices":[0],"split_type":[0],"sum_hessian":[6E1],"tree_param":{"num_deleted":"0","num_feature":"4","num_nodes":"1","size_leaf_vector":"0"}},{"base_weights":[3.8297937E0],"categories":[],"categories_nodes":[],"categories_segments":[],"categories_sizes":[],"default_left":[0],"id":4,"left_children":[-1],"loss_changes":[0E0],"parents":[2147483647],"right_children":[-1],"split_conditions":[4.9787316E-1],"split_indices":[0],"split_type":[0],"sum_hessian":[5.8E1],"tree_param":{"num_deleted":"0","num_feature":"4","num_nodes":"1","size_leaf_vector":"0"}},{"base_weights":[3.5090954E0,1.6390167E0,4.670124E0,2.2751577E0,2.7246028E-1,5.073021E0,1.4120317E0,8.974292E-1,2.750344E0,5.821819E-1,-2.67889E-1,-0E0,1.3075428E0],"categories":[],"categories_nodes":[],"categories_segments":[],"categories_sizes":[],"default_left":[1,1,1,1,1,0,0,1,0,0,0,0,0],"id":5,"left_children":[1,3,5,7,9,-1,-1,11,-1,-1,-1,-1,-1],"loss_changes":[9.6578186E1,2.4183334E1,9.428162E0,4.23172E-1,3.559002E0,0E0,0E0,5.007513E0,0E0,0E0,0E0,0E0,0E0],"parents":[2147483647,0,0,1,1,2,2,3,3,4,4,7,7],"right_children":[2,4,6,8,10,-1,-1,12,-1,-1,-1,-1,-1],"split_conditions":[2.0585E1,-3.924872E1,-2.1346771E1,2.8645E1,2.0055E1,6.594927E-1,1.8356411E-1,1.8134998E1,3.5754472E-1,7.568364E-2,-3.4825567E-2,-0E0,1.6998056E-1],"split_indices":[1,2,2,0,1,0,0,1,0,0,0,0,0],"split_type":[0,0,0,0,0,0,0,0,0,0,0,0,0],"sum_hessian":[5.8E1,2.7E1,3.1E1,1.6E1,1.1E1,2.5E1,6E0,8E0,8E0,7E0,4E0,4E0,4E0],"tree_param":{"num_deleted":"0","num_feature":"4","num_nodes":"13","size_leaf_vector":"0"}},{"base_weights":[3.1999617E0,3.6149032E0,1.6235491E0,-0E0,2.2294178E0],"categories":[],"categories_nodes":[],"categories_segments":[],"categories_sizes":[],"default_left":[1,0,1,0,0],"id":6,"left_children":[1,-1,3,-1,-1],"loss_changes":[8.882446E0,0E0,2.1768242E1,0E0,0E0],"parents":[2147483647,0,0,2,2],"right_children":[2,-1,4,-1,-1],"split_conditions":[-3.75561E1,4.699374E-1,2.0515E1,-0E0,2.898243E-1],"split_indices":[2,0,1,0,0],"split_type":[0,0,0,0,0],"sum_hessian":[5.6E1,3.9E1,1.7E1,6E0,1.1E1],"tree_param":{"num_deleted":"0","num_feature":"4","num_nodes":"5","size_leaf_vector":"0"}},{"base_weights":[2.925604E0,1.8141226E0,3.7556338E0,7.691603E-1,2.7329278E0,2.4034023E-1,1.2582526E0,3.432614E0,7.57752E-1,-1.4855333E-1,5.7366246E-1],"categories":[],"categories_nodes":[],"categories_segments":[],"categories_sizes":[],"default_left":[1,1,0,1,1,1,0,0,0,0,0],"id":7,"left_children":[1,3,-1,5,7,9,-1,-1,-1,-1,-1],"loss_changes":[2.0395996E1,2.3169258E1,0E0,4.361294E0,9.444923E0,2.8743896E0,0E0,0E0,0E0,0E0,0E0],"parents":[2147483647,0,0,1,1,3,3,4,4,5,5],"right_children":[2,4,-1,6,8,10,-1,-1,-1,-1,-1],"split_conditions":[2.1385E1,2.717722E1,4.8823237E-1,3.2519997E1,-4.2446915E1,1.802E1,1.6357283E-1,4.4623983E-1,9.8507755E-2,-1.9311931E-2,7.457612E-2],"split_indices":[1,3,0,0,2,1,0,0,0,0,0],"split_type":[0,0,0,0,0,0,0,0,0,0,0],"sum_hessian":[5.6E1,3.1E1,2.5E1,1.9E1,1.2E1,1.3E1,6E0,6E0,6E0,7E0,6E0],"tree_param":{"num_deleted":"0","num_feature":"4","num_nodes":"11","size_leaf_vector":"0"}},{"base_weights":[2.18323E0,4.6407273E-1,2.7237883E0,1.1557635E0,-8.5107493E-1,3.3521376E0,1.4316891E0,1.6309215E0,-9.959986E-2,-1.2238132E-1,1.88271E0,2.187211E0,4.8515683E-1],"categories":[],"categories_nodes":[],"categories_segments":[],"categories_sizes":[],"default_left":[1,1,1,1,0,0,1,0,0,0,1,0,0],"id":8,"left_children":[1,3,5,7,-1,-1,9,-1,-1,-1,11,-1,-1],"loss_changes":[5.056192E1,2.4277752E1,1.1899658E1,1.0768919E1,0E0,0E0,1.845448E1,0E0,0E0,0E0,2.128395E0,0E0,0E0],"parents":[2147483647,0,0,1,1,2,2,3,3,6,6,10,10],"right_children":[2,4,6,8,-1,-1,10,-1,-1,-1,12,-1,-1],"split_conditions":[1.7740002E1,2.7782303E1,-3.8307606E1,1.583E1,-1.10639736E-1,4.3577787E-1,2.6920307E1,2.1201979E-1,-1.2947981E-2,-1.5909571E-2,2.8733116E1,2.8433743E-1,6.307039E-2],"split_indices":[1,3,2,1,0,0,3,0,0,0,3,0,0],"split_type":[0,0,0,0,0,0,0,0,0,0,0,0,0],"sum_hessian":[5.7E1,1.6E1,4.1E1,1.1E1,5E0,2.2E1,1.9E1,7E0,4E0,5E0,1.4E1,9E0,5E0],"tree_param":{"num_deleted":"0","num_feature":"4","num_nodes":"13","size_leaf_vector":"0"}},{"base_weights":[2.1680958E0,9.372166E-1,2.909525E0,9.7214594E-2,1.6686229E0,6.668806E-1,-2.6435858E-1,-6.085326E-1,2.7943924E-1],"categories":[],"categories_nodes":[],"categories_segments":[],"categories_sizes":[],"default_left":[1,1,0,1,0,0,1,0,0],"id":9,"left_children":[1,3,-1,5,-1,-1,7,-1,-1],"loss_changes":[3.735675E1,1.6662758E1,0E0,4.921803E0,0E0,0E0,3.7657769E0,0E0,0E0],"parents":[2147483647,0,0,1,1,3,3,6,6],"right_children":[2,4,-1,6,-1,-1,8,-1,-1],"split_conditions":[3.1314999E1,1.9525E1,3.7823823E-1,-6.340993E1,2.1692096E-1,8.669448E-2,-4.830923E1,-7.910924E-2,3.63271E-2],"split_indices":[0,1,0,2,0,0,2,0,0],"split_type":[0,0,0,0,0,0,0,0,0],"sum_hessian":[5.2E1,2.4E1,2.8E1,1.4E1,1E1,4E0,1E1,6E0,4E0],"tree_param":{"num_deleted":"0","num_feature":"4","num_nodes":"9","size_leaf_vector":"0"}},{"base_weights":[2.0333016E0,6.9007605E-1,2.5162706E0,1.4780797E0,-3.8781345E-1,1.8598488E-1,2.0020351E0,-6.049532E-1,-0E0],"categories":[],"categories_nodes":[],"categories_segments":[],"categories_sizes":[],"default_left":[1,1,0,1,1,0,0,0,0],"id":10,"left_children":[1,3,-1,5,7,-1,-1,-1,-1],"loss_changes":[3.2022858E1,2.3633354E1,0E0,7.8423615E0,1.2096827E0,0E0,0E0,0E0,0E0],"parents":[2147483647,0,0,1,1,3,3,4,4],"right_children":[2,4,-1,6,8,-1,-1,-1,-1],"split_conditions":[2.6863605E1,-4.8327293E1,3.2711518E-1,1.8645E1,2.6381775E1,2.4178034E-2,2.6026455E-1,-7.864392E-2,-0E0],"split_indices":[3,2,0,1,3,0,0,0,0],"split_type":[0,0,0,0,0,0,0,0,0],"sum_hessian":[5.9E1,1.9E1,4E1,1E1,9E0,5E0,5E0,4E0,5E0],"tree_param":{"num_deleted":"0","num_feature":"4","num_nodes":"9","size_leaf_vector":"0"}},{"base_weights":[1.8791257E0,2.454134E0,8.486677E-1,8.892909E-1,2.7406049E0,-8.562239E-2,1.7583853E0,-4.9982882E-1,2.2644563E-1,-2.3397591E-2,3.5899022E-1],"categories":[],"categories_nodes":[],"categories_segments":[],"categories_sizes":[],"default_left":[1,1,1,0,0,1,0,0,1,0,0],"id":11,"left_children":[1,3,5,-1,-1,7,-1,-1,9,-1,-1],"loss_changes":[2.3669434E1,2.506424E0,2.5869106E1,0E0,0E0,3.10626E0,0E0,0E0,5.8359456E-1,0E0,0E0],"parents":[2147483647,0,0,1,1,2,2,5,5,8,8],"right_children":[2,4,6,-1,-1,8,-1,-1,10,-1,-1],"split_conditions":[-4.2299515E1,2.7384998E1,3.559E1,1.1560781E-1,3.5627863E-1,-3.5663643E1,2.2859009E-1,-6.497774E-2,2.7591616E1,-3.0416867E-3,4.6668727E-2],"split_indices":[2,0,0,0,0,2,0,0,3,0,0],"split_type":[0,0,0,0,0,0,0,0,0,0,0],"sum_hessian":[5.4E1,3E1,2.4E1,8E0,2.2E1,1.4E1,1E1,5E0,9E0,4E0,5E0],"tree_param":{"num_deleted":"0","num_feature":"4","num_nodes":"11","size_leaf_vector":"0"}},{"base_weights":[1.1926587E0,9.12045E-2,2.1622913E0,7.113059E-1,-7.7521694E-1,-2.4704535E-2,1.4718562E0,-4.157359E-1,2.6160774E-1],"categories":[],"categories_nodes":[],"categories_segments":[],"categories_sizes":[],"default_left":[1,1,0,1,0,1,0,0,0],"id":12,"left_children":[1,3,-1,5,-1,7,-1,-1,-1],"loss_changes":[6.1617607E1,2.0581772E1,0E0,1.2874802E1,0E0,2.391092E0,0E0,0E0,0E0],"parents":[2147483647,0,0,1,1,3,3,5,5],"right_children":[2,4,-1,6,-1,8,-1,-1,-1],"split_conditions":[2.1295E1,-3.927383E1,2.8109786E-1,3.1775E1,-1.007782E-1,2.6387173E1,1.9134131E-1,-5.4045666E-2,3.4009006E-2],"split_indices":[1,2,0,0,0,3,0,0,0],"split_type":[0,0,0,0,0,0,0,0,0],"sum_hessian":[5.4E1,2.8E1,2.6E1,1.7E1,1.1E1,1.1E1,6E0,4E0,7E0],"tree_param":{"num_deleted":"0","num_feature":"4","num_nodes":"9","size_leaf_vector":"0"}},{"base_weights":[1.3935523E0,2.180381E0,2.4462502E-1,-4.5450443E-1,1.053626E0,-6.636558E-2,-5.800625E-1,-1.4142379E-2,-8.5890585E-1],"categories":[],"categories_nodes":[],"categories_segments":[],"categories_sizes":[],"default_left":[1,0,1,1,0,0,1,0,0],"id":13,"left_children":[1,-1,3,5,-1,-1,7,-1,-1],"loss_changes":[5.2885254E1,0E0,2.0164131E1,6.410079E-1,0E0,0E0,1.971003E0,0E0,0E0],"parents":[2147483647,0,0,2,2,3,3,6,6],"right_children":[2,-1,4,6,-1,-1,8,-1,-1],"split_conditions":[-4.183262E1,2.8344953E-1,2.196E1,3.0865E1,1.3697137E-1,-8.627525E-3,2.7161621E1,-1.8385092E-3,-1.1165775E-1],"split_indices":[2,0,1,0,0,0,3,0,0],"split_type":[0,0,0,0,0,0,0,0,0],"sum_hessian":[5.7E1,3.1E1,2.6E1,1.5E1,1.1E1,6E0,9E0,5E0,4E0],"tree_param":{"num_deleted":"0","num_feature":"4","num_nodes":"9","size_leaf_vector":"0"}},{"base_weights":[1.3173885E0,1.5116186E0,1.0759658E-1,4.9621123E-1,1.8480184E0,-5.856073E-1,8.408512E-1,1.26054E0,-3.8615936E-1],"categories":[],"categories_nodes":[],"categories_segments":[],"categories_sizes":[],"default_left":[1,1,1,1,0,0,0,0,0],"id":14,"left_children":[1,3,5,7,-1,-1,-1,-1,-1],"loss_changes":[1.31714325E1,1.2604004E1,9.734396E0,1.6230751E1,0E0,0E0,0E0,0E0,0E0],"parents":[2147483647,0,0,1,1,2,2,3,3],"right_children":[2,4,6,8,-1,-1,-1,-1,-1],"split_conditions":[-2.8651354E1,1.8529999E1,-1.3794111E1,7.96E0,2.4024238E-1,-7.6128945E-2,1.0931065E-1,1.638702E-1,-5.0200716E-2],"split_indices":[2,1,2,1,0,0,0,0,0],"split_type":[0,0,0,0,0,0,0,0,0],"sum_hessian":[5.6E1,4.7E1,9E0,1.5E1,3.2E1,5E0,4E0,7E0,8E0],"tree_param":{"num_deleted":"0","num_feature":"4","num_nodes":"9","size_leaf_vector":"0"}},{"base_weights":[1.1049135E0,3.1384996E-1,1.9691291E0,1.3075842E0,-6.105956E-1,-1.8393503E-1,1.878158E0,-5.3116776E-2,-1.2795391E0,-6.3367414E-1,3.2517877E-1],"categories":[],"categories_nodes":[],"categories_segments":[],"categories_sizes":[],"default_left":[1,1,0,1,1,0,0,1,0,0,0],"id":15,"left_children":[1,3,-1,5,7,-1,-1,9,-1,-1,-1],"loss_changes":[3.8116867E1,3.9225887E1,0E0,1.9240108E1,7.9746895E0,0E0,0E0,5.0939245E0,0E0,0E0,0E0],"parents":[2147483647,0,0,1,1,3,3,4,4,7,7],"right_children":[2,4,-1,6,8,-1,-1,10,-1,-1,-1],"split_conditions":[3.4235E1,-5.047094E1,2.5598678E-1,1.7515E1,2.8266909E1,-2.3911553E-2,2.4416053E-1,2.6387173E1,-1.6634008E-1,-8.2377635E-2,4.227324E-2],"split_indices":[0,2,0,1,3,0,0,3,0,0,0],"split_type":[0,0,0,0,0,0,0,0,0,0,0],"sum_hessian":[5.6E1,3.3E1,2.3E1,1.5E1,1.8E1,5E0,1E1,1.3E1,5E0,4E0,9E0],"tree_param":{"num_deleted":"0","num_feature":"4","num_nodes":"11","size_leaf_vector":"0"}},{"base_weights":[1.3359461E0,-3.8740417E-1,1.5607386E0,2.1884153E0,8.0728E-1,-1.3433528E-2,9.4411397E-1,1.7412713E-1,1.0333401E0],"categories":[],"categories_nodes":[],"categories_segments":[],"categories_sizes":[],"default_left":[1,0,1,0,1,0,1,0,0],"id":16,"left_children":[1,-1,3,-1,5,-1,7,-1,-1],"loss_changes":[2.3912514E1,0E0,1.3078819E1,0E0,3.649706E0,0E0,6.0984993E-1,0E0,0E0],"parents":[2147483647,0,0,2,2,4,4,6,6],"right_children":[2,-1,4,-1,6,-1,8,-1,-1],"split_conditions":[2.591116E1,-5.0362542E-2,-4.4986153E1,2.8449398E-1,1.88E1,-1.7463586E-3,2.7008968E1,2.2636527E-2,1.343342E-1],"split_indices":[3,0,2,0,1,0,3,0,0],"split_type":[0,0,0,0,0,0,0,0,0],"sum_hessian":[4.8E1,5E0,4.3E1,1.8E1,2.5E1,4E0,2.1E1,4E0,1.7E1],"tree_param":{"num_deleted":"0","num_feature":"4","num_nodes":"9","size_leaf_vector":"0"}},{"base_weights":[7.657711E-1,5.7710983E-2,1.4389743E0,4.7901222E-1,-6.635868E-1,2.0803542E0,8.0267876E-1,-2.1163748E-1,1.2053995E0,-1.5181325E-1,-7.9289424E-1,-0E0,9.8906195E-1,-9.662699E-1,7.563838E-1,1.6184636E0,1.8225955E-3,2.2313458E-1,1.4116085E0],"categories":[],"categories_nodes":[],"categories_segments":[],"categories_sizes":[],"default_left":[1,1,1,1,1,0,1,1,1,0,0,0,1,0,0,0,0,0,0],"id":17,"left_children":[1,3,5,7,9,-1,11,13,15,-1,-1,-1,17,-1,-1,-1,-1,-1,-1],"loss_changes":[3.4091656E1,1.407013E1,5.9902344E0,1.611854E1,3.0987978E-1,0E0,4.1588345E0,1.7726171E1,7.1355247E0,0E0,0E0,0E0,5.186409E0,0E0,0E0,0E0,0E0,0E0,0E0],"parents":[2147483647,0,0,1,1,2,2,3,3,4,4,6,6,7,7,8,8,12,12],"right_children":[2,4,6,8,10,-1,12,14,16,-1,-1,-1,18,-1,-1,-1,-1,-1,-1],"split_conditions":[2.1490002E1,-4.006111E1,-4.7488747E1,-4.8870453E1,2.7161621E1,2.7044603E-1,2.6980534E1,1.7515E1,7.795E0,-1.9735722E-2,-1.0307625E-1,-0E0,-3.4792046E1,-1.2561509E-1,9.832989E-2,2.1040027E-1,2.369374E-4,2.9007494E-2,1.835091E-1],"split_indices":[1,2,2,2,3,0,3,1,1,0,0,0,2,0,0,0,0,0,0],"split_type":[0,0,0,0,0,0,0,0,0,0,0,0,0,0,0,0,0,0,0],"sum_hessian":[6.8E1,3.6E1,3.2E1,2.4E1,1.2E1,1E1,2.2E1,1.4E1,1E1,5E0,7E0,5E0,1.7E1,8E0,6E0,6E0,4E0,9E0,8E0],"tree_param":{"num_deleted":"0","num_feature":"4","num_nodes":"19","size_leaf_vector":"0"}},{"base_weights":[9.715693E-1,-7.8738295E-2,1.2523603E0,-7.9914343E-1,4.3555573E-1,1.71699E0,7.246843E-1,7.852306E-1,-1.3404596E-1,-0E0,2.2523272E0,9.424261E-1,2.5247622E-1,2.0978548E-1,1.0510788E0,9.855825E-3,3.3039668E-1],"categories":[],"categories_nodes":[],"categories_segments":[],"categories_sizes":[],"default_left":[1,1,1,0,1,1,1,0,0,0,0,1,1,1,1,1,1],"id":18,"left_children":[1,3,5,-1,7,9,11,-1,-1,-1,-1,-1,-1,-1,-1,-1,-1],"loss_changes":[1.8190693E1,8.190704E0,4.6647186E0,0E0,3.289269E0,1.9470997E1,1.7213116E0,0E0,0E0,0E0,0E0,1.18478775E-1,2.3181415E-1,0E0,0E0,0E0,0E0],"parents":[2147483647,0,0,1,1,2,2,4,4,5,5,6,6,11,11,12,12],"right_children":[2,4,6,-1,8,10,12,-1,-1,-1,-1,-1,-1,-1,-1,-1,-1],"split_conditions":[1.8365002E1,2.849E1,-4.8309654E1,-1.03888646E-1,3.1205E1,1.9439999E1,2.3825E1,1.0207997E-1,-1.7425975E-2,-0E0,2.928025E-1,1.2251539E-1,3.282191E-2,2.727211E-2,1.3664024E-1,1.2812573E-3,4.2951565E-2],"split_indices":[1,0,2,0,0,1,1,0,0,0,0,3,1,2147483647,2147483647,2147483647,2147483647],"split_type":[0,0,0,0,0,0,0,0,0,0,0,0,0,0,0,0,0],"sum_hessian":[5.4E1,1.2E1,4.2E1,4E0,8E0,1.6E1,2.6E1,4E0,4E0,5E0,1.1E1,1.4E1,1.2E1,4E0,1E1,5E0,7E0],"tree_param":{"num_deleted":"4","num_feature":"4","num_nodes":"17","size_leaf_vector":"0"}},{"base_weights":[6.183682E-1,-1.7028928E-1,1.2419275E0,1.3144597E-1,-6.6779953E-1,1.8442451E0,5.905636E-1,-1.5935361E-1,6.603579E-1,2.3143955E-1,8.52649E-1,2.6264444E-1,-4.3946636E-1,4.0291533E-1,-1.2094228E-1],"categories":[],"categories_nodes":[],"categories_segments":[],"categories_sizes":[],"default_left":[1,1,1,1,0,0,1,1,0,1,0,0,0,0,0],"id":19,"left_children":[1,3,5,7,-1,-1,9,11,-1,13,-1,-1,-1,-1,-1],"loss_changes":[2.8902906E1,4.9340606E0,6.503433E0,4.0460386E0,0E0,0E0,9.292822E-1,2.7671072E0,0E0,1.3438213E0,0E0,0E0,0E0,0E0,0E0],"parents":[2147483647,0,0,1,1,2,2,3,3,6,6,7,7,9,9],"right_children":[2,4,6,8,-1,-1,10,12,-1,14,-1,-1,-1,-1,-1],"split_conditions":[2.105E1,-3.927383E1,-4.8309654E1,3.1775E1,-8.6813934E-2,2.3975185E-1,3.838E1,2.789E1,8.584652E-2,3.5185E1,1.1084436E-1,3.4143776E-2,-5.7130624E-2,5.237899E-2,-1.5722496E-2],"split_indices":[1,2,2,0,0,0,0,0,0,0,0,0,0,0,0],"split_type":[0,0,0,0,0,0,0,0,0,0,0,0,0,0,0],"sum_hessian":[5.1E1,2.4E1,2.7E1,1.7E1,7E0,9E0,1.8E1,1.3E1,4E0,1.2E1,6E0,5E0,8E0,8E0,4E0],"tree_param":{"num_deleted":"0","num_feature":"4","num_nodes":"15","size_leaf_vector":"0"}},{"base_weights":[5.578691E-1,8.627786E-2,1.08254E0,3.5376814E-1,-3.4115273E-1,1.4005973E0,2.5790665E-1,-5.1436115E-2,7.90306E-1,-7.240166E-1,1.3567933E-1,-1.6931589E-1,5.0947434E-1,7.458684E-1,-5.2912796E-1,1.1089454E0,-0E0],"categories":[],"categories_nodes":[],"categories_segments":[],"categories_sizes":[],"default_left":[1,1,1,1,1,0,1,1,1,0,0,0,0,0,0,0,0],"id":20,"left_children":[1,3,5,7,9,-1,11,13,15,-1,-1,-1,-1,-1,-1,-1,-1],"loss_changes":[1.5869091E1,5.3173966E0,5.9498177E0,5.3403916E0,3.9347956E0,0E0,2.13765E0,9.23962E0,3.613946E0,0E0,0E0,0E0,0E0,0E0,0E0,0E0,0E0],"parents":[2147483647,0,0,1,1,2,2,3,3,4,4,6,6,7,7,8,8],"right_children":[2,4,6,8,10,-1,12,14,16,-1,-1,-1,-1,-1,-1,-1,-1],"split_conditions":[2.1385E1,-3.927383E1,2.457E1,-4.909309E1,1.825E1,1.8207765E-1,2.6085E1,-6.5023575E1,1.6185001E1,-9.412216E-2,1.7638313E-2,-2.2011064E-2,6.623166E-2,9.6962884E-2,-6.878663E-2,1.441629E-1,-0E0],"split_indices":[1,2,1,2,1,0,1,2,1,0,0,0,0,0,0,0,0],"split_type":[0,0,0,0,0,0,0,0,0,0,0,0,0,0,0,0,0],"sum_hessian":[6.2E1,3.6E1,2.6E1,2.3E1,1.3E1,1.6E1,1E1,1.4E1,9E0,6E0,7E0,4E0,6E0,4E0,1E1,5E0,4E0],"tree_param":{"num_deleted":"0","num_feature":"4","num_nodes":"17","size_leaf_vector":"0"}},{"base_weights":[5.7704693E-1,-3.5903907E-1,9.1871125E-1,-7.823624E-1,1.5495415E-1,1.6540544E0,3.0544573E-1,6.054729E-1,-3.5823125E-1,-2.7003807E-1,6.3811684E-1,-4.3973228E-1,-0E0,3.151927E-2,1.1079704E0],"categories":[],"categories_nodes":[],"categories_segments":[],"categories_sizes":[],"default_left":[1,1,1,0,1,0,1,0,0,1,1,0,0,0,0],"id":21,"left_children":[1,3,5,-1,7,-1,9,-1,-1,11,13,-1,-1,-1,-1],"loss_changes":[2.1666647E1,5.129769E0,1.823251E1,0E0,4.1892953E0,0E0,7.1052327E0,0E0,0E0,6.585163E-1,5.869973E0,0E0,0E0,0E0,0E0],"parents":[2147483647,0,0,1,1,2,2,4,4,6,6,9,9,10,10],"right_children":[2,4,6,-1,8,-1,10,-1,-1,12,14,-1,-1,-1,-1],"split_conditions":[1.7515E1,-4.8430244E1,-4.8621803E1,-1.0170711E-1,-3.9017815E1,2.1502706E-1,2.7336214E1,7.871148E-2,-4.657006E-2,2.671583E1,-3.4792046E1,-5.7165194E-2,-0E0,4.097505E-3,1.4403614E-1],"split_indices":[1,2,2,0,2,0,3,0,0,3,2,0,0,0,0],"split_type":[0,0,0,0,0,0,0,0,0,0,0,0,0,0,0],"sum_hessian":[5.7E1,1.5E1,4.2E1,7E0,8E0,1.5E1,2.7E1,4E0,4E0,1E1,1.7E1,4E0,6E0,1E1,7E0],"tree_param":{"num_deleted":"0","num_feature":"4","num_nodes":"15","size_leaf_vector":"0"}},{"base_weights":[4.7908315E-1,-3.435208E-1,7.6628965E-1,-1.0895799E0,3.4862834E-1,1.1096597E0,-2.7460817E-2,7.717088E-1,-2.4566141E-1,1.2336416E0,9.436574E-2,-7.8567284E-1,4.562115E-1,6.4446926E-1,-0E0],"categories":[],"categories_nodes":[],"categories_segments":[],"categories_sizes":[],"default_left":[1,1,1,0,1,1,1,0,0,0,0,0,1,0,0],"id":22,"left_children":[1,3,5,-1,7,9,11,-1,-1,-1,-1,-1,13,-1,-1],"loss_changes":[1.4925801E1,1.144684E1,1.24129505E1,0E0,4.3763475E0,3.0289383E0,8.538234E0,0E0,0E0,0E0,0E0,0E0,1.2603221E0,0E0,0E0],"parents":[2147483647,0,0,1,1,2,2,4,4,5,5,6,6,12,12],"right_children":[2,4,6,-1,8,10,12,-1,-1,-1,-1,-1,14,-1,-1],"split_conditions":[1.8365002E1,-4.8430244E1,-3.255722E1,-1.4164539E-1,-4.3104065E1,3.752E1,2.697258E1,1.0032214E-1,-3.1935982E-2,1.603734E-1,1.2267546E-2,-1.0213747E-1,2.7887295E1,8.3781004E-2,-0E0],"split_indices":[1,2,2,0,2,0,3,0,0,0,0,0,3,0,0],"split_type":[0,0,0,0,0,0,0,0,0,0,0,0,0,0,0],"sum_hessian":[5.2E1,1.3E1,3.9E1,5E0,8E0,2.6E1,1.3E1,4E0,4E0,2.2E1,4E0,4E0,9E0,5E0,4E0],"tree_param":{"num_deleted":"0","num_feature":"4","num_nodes":"15","size_leaf_vector":"0"}},{"base_weights":[5.442529E-1,2.0296818E-1,9.8162717E-1,6.780759E-1,-4.1431588E-1,1.5267E0,1.9873448E-1,1.0340583E0,1.8207744E-1,3.8944653E-1,-7.7333754E-1,1.5183796E-2,2.601519E-1,-3.58248E-1,5.2987635E-1,-2.2310607E-1,-9.869142E-1],"categories":[],"categories_nodes":[],"categories_segments":[],"categories_sizes":[],"default_left":[1,1,1,1,1,0,1,0,1,0,1,1,1,0,0,0,0],"id":23,"left_children":[1,3,5,7,9,-1,-1,-1,13,-1,15,-1,-1,-1,-1,-1,-1],"loss_changes":[6.7987328E0,1.2371364E1,7.503834E0,2.8509207E0,7.1320925E0,0E0,8.950609E-2,0E0,4.031462E0,0E0,3.853445E-1,0E0,0E0,0E0,0E0,0E0,0E0],"parents":[2147483647,0,0,1,1,2,2,3,3,4,4,6,6,8,8,10,10],"right_children":[2,4,6,8,10,-1,-1,-1,14,-1,16,-1,-1,-1,-1,-1,-1],"split_conditions":[3.535E1,-4.3020523E1,2.4585E1,-5.4674927E1,2.862E1,1.98471E-1,2.583548E-2,1.3442758E-1,3.177E1,5.0628047E-2,2.8399279E1,1.9738935E-3,3.3819746E-2,-4.657224E-2,6.8883926E-2,-2.9003788E-2,-1.2829885E-1],"split_indices":[0,2,1,2,0,0,0,0,0,0,3,2147483647,2147483647,0,0,0,0],"split_type":[0,0,0,0,0,0,0,0,0,0,0,0,0,0,0,0,0],"sum_hessian":[4.9E1,3.2E1,1.7E1,1.8E1,1.4E1,7E0,1E1,7E0,1.1E1,4E0,1E1,5E0,5E0,4E0,7E0,6E0,4E0],"tree_param":{"num_deleted":"2","num_feature":"4","num_nodes":"17","size_leaf_vector":"0"}},{"base_weights":[5.0856435E-1,6.58554E-3,9.589842E-1,7.681791E-1,-1.9716333E-1,9.237197E-2,1.189309E0,-6.3045293E-1,2.3209414E-1,1.1923535E0,-1.0352026E0,1.3259759E0,1.5167344E-1,4.976614E-1,-1.9206609E-1],"categories":[],"categories_nodes":[],"categories_segments":[],"categories_sizes":[],"default_left":[1,1,1,0,1,1,1,0,1,0,0,0,0,0,0],"id":24,"left_children":[1,3,5,-1,7,9,11,-1,13,-1,-1,-1,-1,-1,-1],"loss_changes":[1.4926758E1,6.655002E0,6.1637917E0,0E0,6.9902554E0,2.257772E1,2.4922905E0,0E0,2.8188345E0,0E0,0E0,0E0,0E0,0E0,0E0],"parents":[2147483647,0,0,1,1,2,2,4,4,5,5,6,6,8,8],"right_children":[2,4,6,-1,8,10,12,-1,14,-1,-1,-1,-1,-1,-1],"split_conditions":[2.7297958E1,8.13E0,1.674E1,9.986328E-2,2.0515E1,2.8266909E1,2.4695E1,-8.1958875E-2,-3.299104E1,1.5500595E-1,-1.3457634E-1,1.7237686E-1,1.9717546E-2,6.4695984E-2,-2.496859E-2],"split_indices":[3,1,1,0,1,3,1,0,2,0,0,0,0,0,0],"split_type":[0,0,0,0,0,0,0,0,0,0,0,0,0,0,0],"sum_hessian":[6.2E1,3.2E1,3E1,4E0,2.8E1,8E0,2.2E1,1.3E1,1.5E1,4E0,4E0,1.8E1,4E0,9E0,6E0],"tree_param":{"num_deleted":"0","num_feature":"4","num_nodes":"15","size_leaf_vector":"0"}},{"base_weights":[5.3888047E-1,1.05881E0,-1.0093405E-1,4.730217E-1,1.4730393E0,-4.3341193E-1,4.4923022E-1,-1.1248293E-1,1.4610138E0,-6.5123737E-1,2.6644433E-1,7.889664E-2,6.250136E-1,5.9717363E-1,-5.167354E-1,-7.5348035E-2,-9.128366E-1],"categories":[],"categories_nodes":[],"categories_segments":[],"categories_sizes":[],"default_left":[1,1,1,1,0,1,1,1,0,1,0,0,0,0,0,0,0],"id":25,"left_children":[1,3,5,7,-1,9,11,13,-1,15,-1,-1,-1,-1,-1,-1,-1],"loss_changes":[2.2744493E1,5.02063E0,7.2269835E0,1.4497555E1,0E0,4.6435595E0,5.7663846E-1,7.0354815E0,0E0,2.4599285E0,0E0,0E0,0E0,0E0,0E0,0E0,0E0],"parents":[2147483647,0,0,1,1,2,2,3,3,5,5,6,6,7,7,9,9],"right_children":[2,4,6,8,-1,10,12,14,-1,16,-1,-1,-1,-1,-1,-1,-1],"split_conditions":[-4.4986153E1,1.9439999E1,3.5805E1,-4.909309E1,1.9149509E-1,-1.469254E1,-3.8642036E1,-6.5023575E1,1.8993178E-1,-3.0281143E1,3.463776E-2,1.0256563E-2,8.125176E-2,7.763257E-2,-6.71756E-2,-9.795244E-3,-1.1866876E-1],"split_indices":[2,1,0,2,0,2,2,2,0,2,0,0,0,0,0,0,0],"split_type":[0,0,0,0,0,0,0,0,0,0,0,0,0,0,0,0,0],"sum_hessian":[6.1E1,3.2E1,2.9E1,1.8E1,1.4E1,1.9E1,1E1,1.4E1,4E0,1.5E1,4E0,6E0,4E0,4E0,1E1,7E0,8E0],"tree_param":{"num_deleted":"0","num_feature":"4","num_nodes":"17","size_leaf_vector":"0"}},{"base_weights":[2.6084447E-1,-5.861477E-1,5.6276065E-1,2.7705874E-2,-9.2039746E-1,2.7232021E-2,7.784258E-1,-4.543995E-1,7.0764005E-1,1.1989189E0,3.9203414E-1,-4.1523147E-2,-6.338076E-1,-6.499374E-2,6.8176824E-1],"categories":[],"categories_nodes":[],"categories_segments":[],"categories_sizes":[],"default_left":[1,1,1,0,0,1,1,1,0,0,1,0,0,0,0],"id":26,"left_children":[1,3,5,-1,-1,7,9,11,-1,-1,13,-1,-1,-1,-1],"loss_changes":[1.7045956E1,4.0402093E0,5.1544523E0,0E0,0E0,7.954808E0,2.630827E0,7.616415E-1,0E0,0E0,3.6853309E0,0E0,0E0,0E0,0E0],"parents":[2147483647,0,0,1,1,2,2,5,5,6,6,7,7,10,10],"right_children":[2,4,6,-1,-1,8,10,12,-1,-1,14,-1,-1,-1,-1],"split_conditions":[1.7515E1,2.674366E1,2.6963383E1,3.6017636E-3,-1.1965167E-1,2.2795E1,-4.701104E1,3.0154999E1,9.1993205E-2,1.5585946E-1,-3.6249958E1,-5.398009E-3,-8.239499E-2,-8.449186E-3,8.8629864E-2],"split_indices":[1,3,3,0,0,1,2,0,0,0,2,0,0,0,0],"split_type":[0,0,0,0,0,0,0,0,0,0,0,0,0,0,0],"sum_hessian":[5.5E1,1.3E1,4.2E1,6E0,7E0,1.4E1,2.8E1,9E0,5E0,8E0,2E1,5E0,4E0,9E0,1.1E1],"tree_param":{"num_deleted":"0","num_feature":"4","num_nodes":"15","size_leaf_vector":"0"}},{"base_weights":[4.0002438E-1,6.396814E-1,-1.2592115E-1,2.133851E-1,1.2113446E0,-5.985498E-1,3.1206778E-1,-1.5978648E-1,9.790016E-1,1.4895668E0,2.4457765E-1,-1.0613895E-1,-7.313338E-1,4.3958113E-1,4.4327494E-2,3.8486716E-1,-3.6648968E-1],"categories":[],"categories_nodes":[],"categories_segments":[],"categories_sizes":[],"default_left":[1,1,1,1,1,1,1,1,0,0,0,0,0,0,0,0,0],"id":27,"left_children":[1,3,5,7,9,11,13,15,-1,-1,-1,-1,-1,-1,-1,-1,-1],"loss_changes":[8.225271E0,8.871677E0,5.797486E0,9.863493E0,2.359972E0,2.7641296E-1,3.0968487E-1,3.5411105E0,0E0,0E0,0E0,0E0,0E0,0E0,0E0,0E0,0E0],"parents":[2147483647,0,0,1,1,2,2,3,3,4,4,5,5,6,6,7,7],"right_children":[2,4,6,8,10,12,14,16,-1,-1,-1,-1,-1,-1,-1,-1,-1],"split_conditions":[-3.9316467E1,3.3735E1,3.4975E1,2.7143661E1,-4.6125153E1,2.9029999E1,2.4445E1,-6.106757E1,1.272702E-1,1.9364367E-1,3.1795092E-2,-1.3798064E-2,-9.507339E-2,5.7145543E-2,5.762574E-3,5.0032727E-2,-4.7643658E-2],"split_indices":[2,0,0,3,2,0,1,2,0,0,0,0,0,0,0,0,0],"split_type":[0,0,0,0,0,0,0,0,0,0,0,0,0,0,0,0,0],"sum_hessian":[5.6E1,3.8E1,1.8E1,2.6E1,1.2E1,8E0,1E1,2E1,6E0,7E0,5E0,4E0,4E0,4E0,6E0,4E0,1.6E1],"tree_param":{"num_deleted":"0","num_feature":"4","num_nodes":"17","size_leaf_vector":"0"}},{"base_weights":[4.7007018E-1,-4.0441322E-1,6.1226803E-1,8.374491E-1,2.829571E-1,2.7841812E-1,1.2319247E0,-2.2851065E-1,5.102246E-1,6.433564E-1,-2.1584828E-1,9.327669E-2,-4.464074E-1,-1.2872179E-2,6.994085E-1],"categories":[],"categories_nodes":[],"categories_segments":[],"categories_sizes":[],"default_left":[1,0,1,1,1,1,0,1,1,0,0,0,0,0,0],"id":28,"left_children":[1,-1,3,5,7,9,-1,11,13,-1,-1,-1,-1,-1,-1],"loss_changes":[9.528047E0,0E0,2.9275398E0,4.9972973E0,4.387899E0,4.427848E0,0E0,1.2085748E0,2.581925E0,0E0,0E0,0E0,0E0,0E0,0E0],"parents":[2147483647,0,0,2,2,3,3,4,4,5,5,7,7,8,8],"right_children":[2,-1,4,6,8,10,-1,12,14,-1,-1,-1,-1,-1,-1],"split_conditions":[2.5814285E1,-5.2573718E-2,-4.500101E1,3.1314999E1,1.825E1,2.7895E1,1.601502E-1,3.0865E1,2.7259663E1,8.363633E-2,-2.8060276E-2,1.2125969E-2,-5.803296E-2,-1.6733832E-3,9.09231E-2],"split_indices":[3,0,2,0,1,0,0,0,3,0,0,0,0,0,0],"split_type":[0,0,0,0,0,0,0,0,0,0,0,0,0,0,0],"sum_hessian":[6.1E1,7E0,5.4E1,2.7E1,2.7E1,1.5E1,1.2E1,8E0,1.9E1,8E0,7E0,4E0,4E0,6E0,1.3E1],"tree_param":{"num_deleted":"0","num_feature":"4","num_nodes":"15","size_leaf_vector":"0"}},{"base_weights":[5.221289E-1,4.4614855E-2,9.3559545E-1,6.861931E-1,-1.6342422E-1,1.3994085E0,4.3480417E-1,-4.8889312E-1,1.089619E-1,9.599395E-2,6.13409E-1,-5.735803E-1,-9.672876E-2,2.9281735E-1,-1.809458E-1,-0E0,1.3194913E-1],"categories":[],"categories_nodes":[],"categories_segments":[],"categories_sizes":[],"default_left":[1,1,1,0,1,0,1,1,1,1,0,1,1,0,0,1,1],"id":29,"left_children":[1,3,5,-1,7,-1,9,-1,13,-1,-1,-1,-1,-1,-1,-1,-1],"loss_changes":[1.0845072E1,4.971421E0,3.4847164E0,0E0,2.8464208E0,0E0,8.809657E-1,3.785491E-2,1.3128818E0,4.5917556E-2,0E0,0E0,0E0,0E0,0E0,0E0,0E0],"parents":[2147483647,0,0,1,1,2,2,4,4,6,6,7,7,8,8,9,9],"right_children":[2,4,6,-1,8,-1,10,-1,14,-1,-1,-1,-1,-1,-1,-1,-1],"split_conditions":[2.7273298E1,-5.8705505E1,-4.6204998E1,8.92051E-2,2.6387173E1,1.8192309E-1,-3.4792046E1,-6.3556105E-2,2.2845E1,1.2479213E-2,7.974316E-2,-7.456544E-2,-1.2574738E-2,3.8066253E-2,-2.3522953E-2,-0E0,1.7153386E-2],"split_indices":[3,2,2,0,3,0,2,1,1,0,0,2147483647,2147483647,0,0,2147483647,2147483647],"split_type":[0,0,0,0,0,0,0,0,0,0,0,0,0,0,0,0,0],"sum_hessian":[5.2E1,2.7E1,2.5E1,4E0,2.3E1,8E0,1.7E1,9E0,1.4E1,9E0,8E0,5E0,4E0,9E0,5E0,4E0,5E0],"tree_param":{"num_deleted":"4","num_feature":"4","num_nodes":"17","size_leaf_vector":"0"}},{"base_weights":[4.7934684E-1,7.745295E-1,1.2670419E-1,1.9263903E-2,9.244707E-1,-5.575756E-3,4.4701365E-1,2.6018563E-1,-2.980813E-1,3.816356E-2,2.9376394E-1,-4.4930613E-1,6.2496718E-2],"categories":[],"categories_nodes":[],"categories_segments":[],"categories_sizes":[],"default_left":[1,1,1,0,0,1,0,1,1,1,1,0,0],"id":30,"left_children":[1,3,5,-1,-1,7,-1,-1,11,-1,-1,-1,-1],"loss_changes":[6.077754E0,3.5632248E0,1.6394033E0,0E0,0E0,2.7437491E0,0E0,4.737258E-3,1.1607417E0,0E0,0E0,0E0,0E0],"parents":[2147483647,0,0,1,1,2,2,5,5,7,7,8,8],"right_children":[2,4,6,-1,-1,8,-1,-1,12,-1,-1,-1,-1],"split_conditions":[-4.500101E1,2.591116E1,-1.829636E1,2.5043073E-3,1.2018119E-1,-3.924962E1,5.8111772E-2,3.382413E-2,3.4975E1,4.961263E-3,3.818931E-2,-5.8409795E-2,8.124573E-3],"split_indices":[2,3,2,0,0,2,0,2,0,2147483647,2147483647,0,0],"split_type":[0,0,0,0,0,0,0,0,0,0,0,0,0],"sum_hessian":[6E1,2.9E1,3.1E1,6E0,2.3E1,2.5E1,6E0,1.3E1,1.2E1,4E0,9E0,8E0,4E0],"tree_param":{"num_deleted":"2","num_feature":"4","num_nodes":"13","size_leaf_vector":"0"}},{"base_weights":[1.5692343E-1,7.9583615E-1,-4.4577744E-2,2.430402E-1,1.0344566E0,-2.3407018E-1,3.5268483E-1,2.1039402E-1,-5.01526E-1,6.085592E-1,8.267558E-2,-2.8044108E-1,5.0148803E-1,1.2505911E-1,-7.500519E-1,-0E0,1.0761616E-1],"categories":[],"categories_nodes":[],"categories_segments":[],"categories_sizes":[],"default_left":[1,1,1,0,0,1,1,1,1,0,1,0,0,0,0,1,1],"id":31,"left_children":[1,3,5,-1,-1,7,9,11,13,-1,-1,-1,-1,-1,-1,-1,-1],"loss_changes":[9.242257E0,6.923704E-1,4.693313E0,0E0,0E0,5.606809E0,9.800098E-1,3.494875E0,4.991689E0,0E0,1.850418E-2,0E0,0E0,0E0,0E0,0E0,0E0],"parents":[2147483647,0,0,1,1,2,2,5,5,6,6,7,7,8,8,10,10],"right_children":[2,4,6,-1,-1,8,10,12,14,-1,-1,-1,-1,-1,-1,-1,-1],"split_conditions":[-5.874659E1,2.8384998E1,3.5435E1,3.1595226E-2,1.3447936E-1,3.0055E1,2.454E1,2.6797794E1,-4.9164963E1,7.911269E-2,1.0747826E-2,-3.6457337E-2,6.5193444E-2,1.6257685E-2,-9.750675E-2,-0E0,1.39901E-2],"split_indices":[2,0,0,0,0,0,1,3,2,0,0,0,0,0,0,2147483647,2147483647],"split_type":[0,0,0,0,0,0,0,0,0,0,0,0,0,0,0,0,0],"sum_hessian":[6.4E1,1.2E1,5.2E1,7E0,5E0,3.7E1,1.5E1,1.4E1,2.3E1,4E0,1.1E1,5E0,9E0,7E0,1.6E1,5E0,6E0],"tree_param":{"num_deleted":"2","num_feature":"4","num_nodes":"17","size_leaf_vector":"0"}},{"base_weights":[2.3384951E-1,-2.298983E-2,7.255989E-1,6.536787E-1,-3.961153E-1,1.0904735E0,1.7357652E-1,-2.3171683E-1,1.2085655E0,-8.1344783E-1,-1.16808325E-1,2.498592E-1,-0E0,3.2184196E-1,-3.4035537E-1],"categories":[],"categories_nodes":[],"categories_segments":[],"categories_sizes":[],"default_left":[1,1,1,1,1,0,1,0,0,0,1,1,1,0,0],"id":32,"left_children":[1,3,5,7,9,-1,-1,-1,-1,-1,13,-1,-1,-1,-1],"loss_changes":[8.209216E0,1.2903323E1,3.2079372E0,1.0535562E1,3.1690192E0,0E0,1.7559421E-1,0E0,0E0,0E0,3.1220694E0,0E0,0E0,0E0,0E0],"parents":[2147483647,0,0,1,1,2,2,3,3,4,4,6,6,10,10],"right_children":[2,4,6,8,10,-1,-1,-1,-1,-1,14,-1,-1,-1,-1],"split_conditions":[3.5435E1,-5.478962E1,2.4585E1,1.7515E1,-4.776607E1,1.4176156E-1,2.2564946E-2,-3.0123187E-2,1.571135E-1,-1.05748214E-1,-3.8461433E1,3.2481696E-2,-0E0,4.1839454E-2,-4.4246197E-2],"split_indices":[0,2,1,1,2,0,3,0,0,0,2,2147483647,2147483647,0,0],"split_type":[0,0,0,0,0,0,0,0,0,0,0,0,0,0,0],"sum_hessian":[5.8E1,4.1E1,1.7E1,1.3E1,2.8E1,7E0,1E1,6E0,7E0,7E0,2.1E1,5E0,5E0,6E0,1.5E1],"tree_param":{"num_deleted":"2","num_feature":"4","num_nodes":"15","size_leaf_vector":"0"}},{"base_weights":[2.293709E-1,9.366327E-1,-0E0,-3.6140993E-1,4.3450686E-1,-6.3868076E-1,4.1180515E-1,1.0385846E0,2.9901635E-2,-2.6033255E-1,-9.7644454E-1,3.0943683E-1,-2.4448077E-1],"categories":[],"categories_nodes":[],"categories_segments":[],"categories_sizes":[],"default_left":[1,0,1,1,1,1,0,0,1,0,0,0,0],"id":33,"left_children":[1,-1,3,5,7,9,-1,-1,11,-1,-1,-1,-1],"loss_changes":[9.979795E0,0E0,8.989775E0,8.058802E0,5.98573E0,1.6390753E0,0E0,0E0,2.0184727E0,0E0,0E0,0E0,0E0],"parents":[2147483647,0,0,2,2,3,3,4,4,5,5,8,8],"right_children":[2,-1,4,6,8,10,-1,-1,12,-1,-1,-1,-1],"split_conditions":[-6.1200592E1,1.21762246E-1,3.3735E1,2.194E1,2.1195E1,3.1025E1,5.3534668E-2,1.35016E-1,-3.950854E1,-3.384323E-2,-1.2693779E-1,4.0226787E-2,-3.17825E-2],"split_indices":[2,0,0,1,1,0,0,0,2,0,0,0,0],"split_type":[0,0,0,0,0,0,0,0,0,0,0,0,0],"sum_hessian":[5.7E1,1E1,4.7E1,2.6E1,2.1E1,2E1,6E0,5E0,1.6E1,1.4E1,6E0,8E0,8E0],"tree_param":{"num_deleted":"0","num_feature":"4","num_nodes":"13","size_leaf_vector":"0"}},{"base_weights":[2.0345399E-1,4.7557253E-1,-2.2365233E-1,-3.398135E-2,7.8348875E-1,-4.18259E-1,3.929023E-1,-8.1639415E-1,9.5568764E-1,1.1044066E0,9.529819E-2,-7.181476E-1,2.4310179E-1,-1.0234143E0,-1.0490926E-1,-2.3539731E-2,1.9796218E-1,-1.5576604E-1,-8.057447E-1],"categories":[],"categories_nodes":[],"categories_segments":[],"categories_sizes":[],"default_left":[1,1,1,1,1,1,0,1,0,0,1,1,0,0,0,1,1,1,1],"id":34,"left_children":[1,3,5,7,9,11,-1,13,-1,-1,-1,-1,-1,-1,-1,-1,-1,-1,-1],"loss_changes":[8.047803E0,6.749261E0,4.2152834E0,1.9512493E1,4.9635525E0,5.7747464E0,0E0,1.2810163E0,0E0,0E0,2.341641E-1,4.0039062E-2,0E0,0E0,0E0,0E0,0E0,0E0,0E0],"parents":[2147483647,0,0,1,1,2,2,3,3,4,4,5,5,7,7,10,10,11,11],"right_children":[2,4,6,8,10,12,-1,14,-1,-1,-1,-1,-1,-1,-1,-1,-1,-1,-1],"split_conditions":[-3.9316467E1,1.943E1,-1.2464758E1,-4.8870453E1,-4.8621803E1,3.5845E1,5.10773E-2,2.9654999E1,1.2423939E-1,1.4357285E-1,1.2388765E-2,-9.335918E-2,3.1603232E-2,-1.3304386E-1,-1.3638204E-2,-3.0601649E-3,2.5735082E-2,-2.0249585E-2,-1.0474681E-1],"split_indices":[2,1,2,2,2,0,0,0,0,0,3,1,0,0,0,2147483647,2147483647,2147483647,2147483647],"split_type":[0,0,0,0,0,0,0,0,0,0,0,0,0,0,0,0,0,0,0],"sum_hessian":[5.9E1,3.6E1,2.3E1,1.5E1,2.1E1,1.9E1,4E0,9E0,6E0,1.2E1,9E0,1.3E1,6E0,5E0,4E0,5E0,4E0,4E0,9E0],"tree_param":{"num_deleted":"4","num_feature":"4","num_nodes":"19","size_leaf_vector":"0"}},{"base_weights":[2.2972555E-1,-4.8580053E-1,4.5897436E-1,-8.1431556E-1,1.6504345E-2,1.1679724E0,6.080802E-2,-3.3000597E-1,5.330107E-1,2.8428444E-1,-6.072751E-1,7.220044E-1,-0E0],"categories":[],"categories_nodes":[],"categories_segments":[],"categories_sizes":[],"default_left":[1,1,1,0,0,0,1,1,1,0,0,0,0],"id":35,"left_children":[1,3,5,-1,-1,-1,7,9,11,-1,-1,-1,-1],"loss_changes":[1.0497559E1,2.9007978E0,1.2381447E1,0E0,0E0,0E0,7.4192076E0,4.7156715E0,1.686687E0,0E0,0E0,0E0,0E0],"parents":[2147483647,0,0,1,1,2,2,6,6,7,7,8,8],"right_children":[2,4,6,-1,-1,-1,8,10,12,-1,-1,-1,-1],"split_conditions":[2.849E1,-5.987975E1,-4.9164963E1,-1.05861016E-1,2.1455649E-3,1.5183641E-1,3.446E1,3.0885E1,2.469E1,3.6956977E-2,-7.894576E-2,9.386057E-2,-0E0],"split_indices":[0,2,2,0,0,0,0,0,1,0,0,0,0],"split_type":[0,0,0,0,0,0,0,0,0,0,0,0,0],"sum_hessian":[5.2E1,1.1E1,4.1E1,5E0,6E0,1.1E1,3E1,1.7E1,1.3E1,5E0,1.2E1,8E0,5E0],"tree_param":{"num_deleted":"0","num_feature":"4","num_nodes":"13","size_leaf_vector":"0"}},{"base_weights":[2.961983E-1,4.7520334E-1,-2.5028175E-1,9.504721E-1,8.96615E-2,-6.2942004E-1,4.9492985E-1,-5.3727007E-1,2.9910257E-1,-1.1013668E0,2.6864385E-2,6.392779E-1,-3.8178593E-2],"categories":[],"categories_nodes":[],"categories_segments":[],"categories_sizes":[],"default_left":[1,1,1,0,1,1,0,0,1,0,0,0,0],"id":36,"left_children":[1,3,5,-1,7,9,-1,-1,11,-1,-1,-1,-1],"loss_changes":[7.0243073E0,8.699903E0,7.014815E0,0E0,5.2446756E0,5.0642295E0,0E0,0E0,3.5954967E0,0E0,0E0,0E0,0E0],"parents":[2147483647,0,0,1,1,2,2,4,4,5,5,8,8],"right_children":[2,4,6,-1,8,10,-1,-1,12,-1,-1,-1,-1],"split_conditions":[2.8481747E1,1.89E1,8.3825455E1,1.2356137E-1,1.9955E1,2.179E1,6.4340875E-2,-6.98451E-2,-4.9598343E1,-1.4317767E-1,3.49237E-3,8.310612E-2,-4.963217E-3],"split_indices":[3,1,3,0,1,1,0,0,2,0,0,0,0],"split_type":[0,0,0,0,0,0,0,0,0,0,0,0,0],"sum_hessian":[6E1,4.6E1,1.4E1,1.7E1,2.9E1,1E1,4E0,5E0,2.4E1,4E0,6E0,1E1,1.4E1],"tree_param":{"num_deleted":"0","num_feature":"4","num_nodes":"13","size_leaf_vector":"0"}},{"base_weights":[2.6206663E-1,-2.2650076E-1,5.5469316E-1,-5.2486455E-1,4.5178697E-1,1.0315509E0,2.4504101E-1,-0E0,-6.4378947E-1,-1.2754357E-1,6.019051E-1,4.5362648E-2,-3.861499E-1,1.4235649E-1,8.7223893E-1],"categories":[],"categories_nodes":[],"categories_segments":[],"categories_sizes":[],"default_left":[1,1,1,1,0,0,1,0,0,1,1,0,0,0,0],"id":37,"left_children":[1,3,5,7,-1,-1,9,-1,-1,11,13,-1,-1,-1,-1],"loss_changes":[1.0163129E1,6.912204E0,4.79416E0,1.4136443E0,0E0,0E0,4.8969264E0,0E0,0E0,1.0630732E0,1.3921185E0,0E0,0E0,0E0,0E0],"parents":[2147483647,0,0,1,1,2,2,3,3,6,6,9,9,10,10],"right_children":[2,4,6,8,-1,-1,10,-1,-1,12,14,-1,-1,-1,-1],"split_conditions":[2.6988968E1,3.4440002E1,-4.7204163E1,-6.106757E1,5.8732305E-2,1.3410161E-1,-3.4792046E1,-0E0,-8.3692625E-2,-3.6889442E1,3.5945E1,5.897144E-3,-5.0199486E-2,1.8506343E-2,1.1339106E-1],"split_indices":[3,0,2,2,0,0,2,0,0,2,0,0,0,0,0],"split_type":[0,0,0,0,0,0,0,0,0,0,0,0,0,0,0],"sum_hessian":[6.1E1,2.3E1,3.8E1,1.7E1,6E0,1E1,2.8E1,4E0,1.3E1,1.5E1,1.3E1,1.1E1,4E0,8E0,5E0],"tree_param":{"num_deleted":"0","num_feature":"4","num_nodes":"15","size_leaf_vector":"0"}},{"base_weights":[2.8736278E-1,-0E0,5.954941E-1,7.3084754E-1,-3.469667E-1,7.541617E-1,-2.7861279E-3,9.443331E-1,6.0130402E-2,-7.7197E-1,7.015789E-2,1.0790908E0,2.8645024E-1,3.9900506E-1,-4.0256986E-1,-1.43494485E-2,4.006778E-1],"categories":[],"categories_nodes":[],"categories_segments":[],"categories_sizes":[],"default_left":[1,1,1,1,1,1,0,0,0,0,1,0,1,0,0,0,0],"id":38,"left_children":[1,3,5,7,9,11,-1,-1,-1,-1,13,-1,15,-1,-1,-1,-1],"loss_changes":[5.463225E0,1.1034577E1,3.0333433E0,1.5083804E0,5.5894413E0,1.7856913E0,0E0,0E0,0E0,0E0,3.787609E0,0E0,7.01864E-1,0E0,0E0,0E0,0E0],"parents":[2147483647,0,0,1,1,2,2,3,3,4,4,5,5,10,10,12,12],"right_children":[2,4,6,8,10,12,-1,-1,-1,-1,14,-1,16,-1,-1,-1,-1],"split_conditions":[2.7297958E1,2.6229145E1,2.4785E1,-5.3362526E1,2.001E1,2.8127083E1,-3.6219662E-4,1.227633E-1,7.816952E-3,-1.00356095E-1,2.7036604E1,1.402818E-1,1.941E1,5.1870655E-2,-5.233408E-2,-1.8654283E-3,5.208811E-2],"split_indices":[3,3,1,2,1,3,0,0,0,0,3,0,1,0,0,0,0],"split_type":[0,0,0,0,0,0,0,0,0,0,0,0,0,0,0,0,0],"sum_hessian":[5.8E1,3.3E1,2.5E1,9E0,2.4E1,1.9E1,6E0,5E0,4E0,1E1,1.4E1,7E0,1.2E1,9E0,5E0,4E0,8E0],"tree_param":{"num_deleted":"0","num_feature":"4","num_nodes":"17","size_leaf_vector":"0"}},{"base_weights":[2.1604379E-3,-2.2930041E-1,8.558222E-1,2.0205598E-1,-4.6155646E-1,1.0404184E0,1.4712824E-1,-5.8151424E-1,7.243834E-1,3.4407666E-1,-6.955286E-1,3.8731206E-2,9.3385005E-1,-8.83551E-1,8.2544126E-2],"categories":[],"categories_nodes":[],"categories_segments":[],"categories_sizes":[],"default_left":[1,1,1,1,1,0,0,0,1,0,1,0,0,0,0],"id":39,"left_children":[1,3,5,7,9,-1,-1,-1,11,-1,13,-1,-1,-1,-1],"loss_changes":[1.3013777E1,5.652177E0,8.0265045E-1,1.0815564E1,7.9140267E0,0E0,0E0,0E0,1.7702503E0,0E0,4.805361E0,0E0,0E0,0E0,0E0],"parents":[2147483647,0,0,1,1,2,2,3,3,4,4,8,8,10,10],"right_children":[2,4,6,8,10,-1,-1,-1,12,-1,14,-1,-1,-1,-1],"split_conditions":[3.663E1,-5.047094E1,2.5175E1,2.849E1,2.903E1,1.3525438E-1,1.912667E-2,-7.559685E-2,2.6541668E1,4.4729963E-2,3.5435E1,5.0350567E-3,1.21400505E-1,-1.1486162E-1,1.0730736E-2],"split_indices":[0,2,1,0,0,0,0,0,3,0,0,0,0,0,0],"split_type":[0,0,0,0,0,0,0,0,0,0,0,0,0,0,0],"sum_hessian":[5.5E1,4.6E1,9E0,1.6E1,3E1,5E0,4E0,6E0,1E1,6E0,2.4E1,4E0,6E0,1.9E1,5E0],"tree_param":{"num_deleted":"0","num_feature":"4","num_nodes":"15","size_leaf_vector":"0"}},{"base_weights":[5.2492592E-2,-1.7517081E-1,5.138418E-1,3.3841705E-1,-3.7246963E-1,6.807897E-1,-1.5540451E-1,-1.2585376E-1,6.014921E-1,-5.118215E-1,2.5771314E-2,1.0488067E0,1.9774528E-1,-1.8214124E-1,-8.771134E-1,-2.636997E-1,2.7106434E-1,3.262026E-1,-0E0],"categories":[],"categories_nodes":[],"categories_segments":[],"categories_sizes":[],"default_left":[1,1,1,1,1,1,0,0,0,1,1,0,1,0,0,0,0,0,0],"id":40,"left_children":[1,3,5,7,9,11,-1,-1,-1,13,15,-1,17,-1,-1,-1,-1,-1,-1],"loss_changes":[8.316455E0,6.030985E0,3.5712876E0,2.5792713E0,2.4550714E0,2.5967207E0,0E0,0E0,0E0,2.6975546E0,1.438345E0,0E0,3.3875263E-1,0E0,0E0,0E0,0E0,0E0,0E0],"parents":[2147483647,0,0,1,1,2,2,3,3,4,4,5,5,9,9,10,10,12,12],"right_children":[2,4,6,8,10,12,-1,-1,-1,14,16,-1,18,-1,-1,-1,-1,-1,-1],"split_conditions":[3.454E1,2.7885E1,-3.255722E1,1.7625E1,3.241E1,2.4585E1,-2.0202585E-2,-1.6360989E-2,7.819397E-2,3.1025E1,2.6666733E1,1.3634486E-1,2.6992989E1,-2.367836E-2,-1.14024736E-1,-3.428096E-2,3.5238363E-2,4.2406335E-2,-0E0],"split_indices":[0,0,2,1,0,1,0,0,0,0,3,0,3,0,0,0,0,0,0],"split_type":[0,0,0,0,0,0,0,0,0,0,0,0,0,0,0,0,0,0,0],"sum_hessian":[6.9E1,4.8E1,2.1E1,1.2E1,3.6E1,1.7E1,4E0,5E0,7E0,2.6E1,1E1,6E0,1.1E1,1.8E1,8E0,4E0,6E0,4E0,7E0],"tree_param":{"num_deleted":"0","num_feature":"4","num_nodes":"19","size_leaf_vector":"0"}},{"base_weights":[6.915142E-2,-2.0418741E-1,2.1648598E-1,2.997112E-1,-9.760003E-1,3.4945476E-1,-5.371876E-2,-2.1330827E-1,6.948453E-1,5.685295E-1,-1.0593617E-1,-5.3768355E-1,4.351078E-1,1.5646845E-1,8.7571967E-1],"categories":[],"categories_nodes":[],"categories_segments":[],"categories_sizes":[],"default_left":[1,1,1,1,0,1,1,0,0,1,0,0,0,0,0],"id":41,"left_children":[1,3,5,7,-1,9,11,-1,-1,13,-1,-1,-1,-1,-1],"loss_changes":[2.5276904E0,1.0235659E1,1.6015451E0,4.328208E0,0E0,3.212319E0,5.261143E0,0E0,0E0,1.6183844E0,0E0,0E0,0E0,0E0,0E0],"parents":[2147483647,0,0,1,1,2,2,3,3,5,5,6,6,9,9],"right_children":[2,4,6,8,-1,10,12,-1,-1,14,-1,-1,-1,-1,-1],"split_conditions":[-4.8870453E1,-5.4287712E1,-2.7631756E1,-6.2295486E1,-1.2688003E-1,2.347E1,-1.6745152E1,-2.7730074E-2,9.0329885E-2,3.388E1,-1.3771702E-2,-6.989886E-2,5.656401E-2,2.0340897E-2,1.1384355E-1],"split_indices":[2,2,2,2,0,1,2,0,0,0,0,0,0,0,0],"split_type":[0,0,0,0,0,0,0,0,0,0,0,0,0,0,0],"sum_hessian":[5.2E1,1.7E1,3.5E1,1.2E1,5E0,2.3E1,1.2E1,6E0,6E0,1.5E1,8E0,6E0,6E0,1E1,5E0],"tree_param":{"num_deleted":"0","num_feature":"4","num_nodes":"15","size_leaf_vector":"0"}},{"base_weights":[8.434874E-2,-1.6423224E-2,7.1571624E-1,-1.5454917E-1,3.2785103E-1,1.1536162E-1,-4.34482E-1,5.448187E-1,5.3635E-2,-1.353615E-1,3.7489945E-1,-9.160776E-1,-9.5259205E-2,1.1165263E-1,-1.6641542E-2],"categories":[],"categories_nodes":[],"categories_segments":[],"categories_sizes":[],"default_left":[1,1,0,1,1,1,1,0,1,0,0,0,0,1,1],"id":42,"left_children":[1,3,-1,5,7,9,11,-1,-1,-1,-1,-1,-1,-1,-1],"loss_changes":[4.228475E0,3.0306802E0,0E0,3.8090038E0,7.961893E-1,2.0749624E0,3.269629E0,0E0,8.786823E-2,0E0,0E0,0E0,0E0,0E0,0E0],"parents":[2147483647,0,0,1,1,3,3,4,4,5,5,6,6,8,8],"right_children":[2,4,-1,6,8,10,12,-1,-1,-1,-1,-1,-1,-1,-1],"split_conditions":[3.263925E1,3.5645E1,9.304311E-2,3.1025E1,2.7696754E1,-5.373421E1,3.1675E1,7.0826426E-2,6.97255E-3,-1.7596994E-2,4.8736926E-2,-1.1909009E-1,-1.2383696E-2,1.4514841E-2,-2.1634004E-3],"split_indices":[3,0,0,0,3,2,0,0,2,0,0,0,0,2147483647,2147483647],"split_type":[0,0,0,0,0,0,0,0,0,0,0,0,0,0,0],"sum_hessian":[5.8E1,5.4E1,4E0,4.1E1,1.3E1,2.2E1,1.9E1,4E0,9E0,1.2E1,1E1,4E0,1.5E1,5E0,4E0],"tree_param":{"num_deleted":"2","num_feature":"4","num_nodes":"15","size_leaf_vector":"0"}},{"base_weights":[1.9309382E-1,-5.421826E-1,2.9873085E-1,3.6052322E-1,-1.9829234E-1,6.5022E-1,1.8564837E-1,1.8310258E-1,9.340789E-1,-5.9285063E-2,3.699342E-1],"categories":[],"categories_nodes":[],"categories_segments":[],"categories_sizes":[],"default_left":[1,0,1,1,0,1,1,0,0,0,0],"id":43,"left_children":[1,-1,3,5,-1,7,9,-1,-1,-1,-1],"loss_changes":[5.440583E0,0E0,2.123242E0,1.8398981E0,0E0,1.1493373E0,1.9902182E0,0E0,0E0,0E0,0E0],"parents":[2147483647,0,0,2,2,3,3,5,5,6,6],"right_children":[2,-1,4,6,-1,8,10,-1,-1,-1,-1],"split_conditions":[-6.2295486E1,-7.048374E-2,-2.1471443E1,1.7805E1,-2.5778003E-2,3.1314999E1,2.2474998E1,2.3803335E-2,1.2143025E-1,-7.707058E-3,4.8091445E-2],"split_indices":[2,0,2,1,0,0,1,0,0,0,0],"split_type":[0,0,0,0,0,0,0,0,0,0,0],"sum_hessian":[5.5E1,4E0,5.1E1,4.7E1,4E0,1.2E1,3.5E1,8E0,4E0,1.6E1,1.9E1],"tree_param":{"num_deleted":"0","num_feature":"4","num_nodes":"11","size_leaf_vector":"0"}},{"base_weights":[8.2225814E-2,2.866312E-1,-1.9843538E-1,-3.6498165E-1,4.0652528E-1,-3.3732727E-1,3.1748575E-1,5.2100325E-1,6.42824E-2,1.7293836E-1,-4.677442E-1,1.4469768E-1,7.81534E-1,-0E0,1.3316922E-1,-2.2205812E-1,-6.7438865E-1],"categories":[],"categories_nodes":[],"categories_segments":[],"categories_sizes":[],"default_left":[1,1,1,0,1,1,0,1,1,0,1,0,0,1,1,0,0],"id":44,"left_children":[1,3,5,-1,7,9,-1,11,-1,-1,15,-1,-1,-1,-1,-1,-1],"loss_changes":[4.331023E0,4.1330147E0,2.8507557E0,0E0,1.2323408E0,2.3473794E0,0E0,1.97439E0,9.485092E-2,0E0,2.6258802E-1,0E0,0E0,0E0,0E0,0E0,0E0],"parents":[2147483647,0,0,1,1,2,2,4,4,5,5,7,7,8,8,10,10],"right_children":[2,4,6,-1,8,10,-1,12,-1,-1,16,-1,-1,-1,-1,-1,-1],"split_conditions":[-3.924962E1,2.591116E1,3.7305E1,-4.7447614E-2,2.3555E1,2.6830002E1,4.1273147E-2,2.7097828E1,8.356712E-3,2.2481985E-2,2.8399279E1,1.8810699E-2,1.0159942E-1,-0E0,1.7311998E-2,-2.8867554E-2,-8.767052E-2],"split_indices":[2,3,0,0,1,0,0,3,1,0,3,0,0,2147483647,2147483647,0,0],"split_type":[0,0,0,0,0,0,0,0,0,0,0,0,0,0,0,0,0],"sum_hessian":[6.5E1,3.8E1,2.7E1,4E0,3.4E1,2.3E1,4E0,2.3E1,1.1E1,4E0,1.9E1,1.3E1,1E1,7E0,4E0,1.4E1,5E0],"tree_param":{"num_deleted":"2","num_feature":"4","num_nodes":"17","size_leaf_vector":"0"}},{"base_weights":[2.5167295E-1,-4.2093493E-2,7.410251E-1,3.0236432E-1,-3.2076716E-1,1.0271171E0,-2.5057766E-1,-2.927131E-1,5.417296E-1,7.520217E-3,-4.5460826E-1,1.25897E0,4.2581275E-2,6.911738E-1,-0E0,-5.568436E-1,-6.0546827E-2],"categories":[],"categories_nodes":[],"categories_segments":[],"categories_sizes":[],"default_left":[1,1,1,1,1,1,0,0,1,0,1,0,0,0,0,0,0],"id":45,"left_children":[1,3,5,7,9,11,-1,-1,13,-1,15,-1,-1,-1,-1,-1,-1],"loss_changes":[8.952536E0,4.5399246E0,8.036668E0,3.8689997E0,1.2625859E0,3.8001652E0,0E0,0E0,1.2397943E0,0E0,4.6170878E-1,0E0,0E0,0E0,0E0,0E0,0E0],"parents":[2147483647,0,0,1,1,2,2,3,3,4,4,5,5,8,8,10,10],"right_children":[2,4,6,8,10,12,-1,-1,14,-1,16,-1,-1,-1,-1,-1,-1],"split_conditions":[2.7322742E1,-5.0676292E1,-2.1727226E1,1.8529999E1,3.1224998E1,2.5185001E1,-3.2575093E-2,-3.8052704E-2,2.6607843E1,9.776282E-4,3.5435E1,1.636661E-1,5.535566E-3,8.985259E-2,-0E0,-7.238966E-2,-7.871087E-3],"split_indices":[3,2,2,1,0,1,0,0,3,0,0,0,0,0,0,0,0],"split_type":[0,0,0,0,0,0,0,0,0,0,0,0,0,0,0,0,0],"sum_hessian":[5.5E1,3.7E1,1.8E1,1.6E1,2.1E1,1.4E1,4E0,4E0,1.2E1,7E0,1.4E1,1E1,4E0,8E0,4E0,9E0,5E0],"tree_param":{"num_deleted":"0","num_feature":"4","num_nodes":"17","size_leaf_vector":"0"}},{"base_weights":[8.904311E-2,1.7081955E-1,-2.3027994E-1,6.2485003E-1,1.1732301E-2,-3.9887878E-1,-0E0,7.936856E-1,6.30946E-2,-5.186865E-1,2.1223281E-1,-6.803701E-1,-8.931793E-2,-1.9744536E-1,2.9627046E-1],"categories":[],"categories_nodes":[],"categories_segments":[],"categories_sizes":[],"default_left":[1,1,1,1,1,0,0,0,0,1,1,0,0,0,0],"id":46,"left_children":[1,3,5,7,9,-1,-1,-1,-1,11,13,-1,-1,-1,-1],"loss_changes":[1.9136097E0,3.874693E0,6.471133E-1,8.934188E-1,5.503049E0,0E0,0E0,0E0,0E0,4.995935E-1,1.631799E0,0E0,0E0,0E0,0E0],"parents":[2147483647,0,0,1,1,2,2,3,3,4,4,9,9,10,10],"right_children":[2,4,6,8,10,-1,-1,-1,-1,12,14,-1,-1,-1,-1],"split_conditions":[2.8481747E1,1.6465E1,3.4635002E1,3.082E1,1.9525E1,-5.185424E-2,-0E0,1.0317913E-1,8.202298E-3,-5.5737694E1,2.5820454E1,-8.844811E-2,-1.1611331E-2,-2.5667896E-2,3.8515158E-2],"split_indices":[3,1,0,0,1,0,0,0,0,2,3,0,0,0,0],"split_type":[0,0,0,0,0,0,0,0,0,0,0,0,0,0,0],"sum_hessian":[6.1E1,5.1E1,1E1,9E0,4.2E1,4E0,6E0,5E0,4E0,9E0,3.3E1,4E0,5E0,4E0,2.9E1],"tree_param":{"num_deleted":"0","num_feature":"4","num_nodes":"15","size_leaf_vector":"0"}},{"base_weights":[1.942219E-1,3.631322E-1,-3.5321343E-1,9.6238464E-1,1.29841E-1,-6.85294E-1,3.351079E-1,-6.2507427E-1,3.57985E-1,-9.6481395E-1,-6.562755E-2,5.172884E-1,7.312769E-2],"categories":[],"categories_nodes":[],"categories_segments":[],"categories_sizes":[],"default_left":[1,1,1,0,1,1,0,0,1,0,0,0,0],"id":47,"left_children":[1,3,5,-1,7,9,-1,-1,11,-1,-1,-1,-1],"loss_changes":[6.8608923E0,6.6856265E0,5.3855066E0,0E0,8.849998E0,1.8926282E0,0E0,0E0,1.406115E0,0E0,0E0,0E0,0E0],"parents":[2147483647,0,0,1,1,2,2,4,4,5,5,8,8],"right_children":[2,4,6,-1,8,10,-1,-1,12,-1,-1,-1,-1],"split_conditions":[2.8481747E1,7.96E0,8.3825455E1,1.2511E-1,1.9335E1,2.184E1,4.3564025E-2,-8.125965E-2,3.459E1,-1.2542582E-1,-8.531582E-3,6.724749E-2,9.506599E-3],"split_indices":[3,1,3,0,1,1,0,0,0,0,0,0,0],"split_type":[0,0,0,0,0,0,0,0,0,0,0,0,0],"sum_hessian":[6.2E1,4.9E1,1.3E1,9E0,4E1,9E0,4E0,7E0,3.3E1,4E0,5E0,1.8E1,1.5E1],"tree_param":{"num_deleted":"0","num_feature":"4","num_nodes":"13","size_leaf_vector":"0"}},{"base_weights":[2.6503112E-2,-2.0225224E-1,2.63711E-1,-5.109121E-1,3.1064644E-2,6.042317E-1,-6.6543184E-2,-3.8129814E-2,-6.236348E-1,4.264363E-1,-1.8421173E-1,7.997579E-1,1.3584758E-1,-4.1519505E-1,1.3460346E-1,-0E0,-2.1979308E-1,3.9919713E-1,-1.9585252E-1],"categories":[],"categories_nodes":[],"categories_segments":[],"categories_sizes":[],"default_left":[1,1,1,1,1,1,1,0,0,0,1,0,0,0,1,1,1,0,0],"id":48,"left_children":[1,3,5,7,9,11,13,-1,-1,-1,-1,-1,-1,-1,17,-1,-1,-1,-1],"loss_changes":[4.089342E0,2.930303E0,4.4955564E0,6.44454E-1,2.6753979E0,9.892807E-1,1.9667588E0,0E0,0E0,0E0,9.570229E-2,0E0,0E0,0E0,2.026075E0,0E0,0E0,0E0,0E0],"parents":[2147483647,0,0,1,1,2,2,3,3,4,4,5,5,6,6,10,10,14,14],"right_children":[2,4,6,8,10,12,14,-1,-1,-1,-1,-1,-1,-1,18,-1,-1,-1,-1],"split_conditions":[2.7154167E1,3.0355E1,2.8162447E1,-6.2501457E1,3.21E1,1.885E1,3.1314999E1,-4.9568755E-3,-8.1072524E-2,5.543672E-2,-2.3947524E-2,1.0396852E-1,1.7660186E-2,-5.3975355E-2,-3.994178E1,-0E0,-2.85731E-2,5.1895626E-2,-2.5460826E-2],"split_indices":[3,0,3,2,0,1,0,0,0,0,2,0,0,0,2,2147483647,2147483647,0,0],"split_type":[0,0,0,0,0,0,0,0,0,0,0,0,0,0,0,0,0,0,0],"sum_hessian":[6.5E1,3.3E1,3.2E1,1.2E1,2.1E1,1.4E1,1.8E1,4E0,8E0,6E0,1.5E1,7E0,7E0,5E0,1.3E1,4E0,1.1E1,7E0,6E0],"tree_param":{"num_deleted":"2","num_feature":"4","num_nodes":"19","size_leaf_vector":"0"}},{"base_weights":[1.1920546E-1,6.891049E-1,-7.556703E-2,3.1597383E-2,8.7496305E-1,-2.99272E-1,2.1069486E-1,1.5545364E-1,-5.097072E-1,5.135298E-1,9.185344E-3,-5.447155E-2,3.0243227E-1,-0E0,-6.712753E-1,-1.9155775E-1,1.7949763E-1],"categories":[],"categories_nodes":[],"categories_segments":[],"categories_sizes":[],"default_left":[1,1,1,0,0,1,1,1,1,0,1,0,0,0,0,0,0],"id":49,"left_children":[1,3,5,-1,-1,7,9,11,13,-1,15,-1,-1,-1,-1,-1,-1],"loss_changes":[7.071698E0,1.6270304E0,3.4853437E0,0E0,0E0,3.3623164E0,1.3316272E0,5.4276276E-1,1.9638281E0,0E0,8.599051E-1,0E0,0E0,0E0,0E0,0E0,0E0],"parents":[2147483647,0,0,1,1,2,2,5,5,6,6,7,7,8,8,10,10],"right_children":[2,4,6,-1,-1,8,10,12,14,-1,16,-1,-1,-1,-1,-1,-1],"split_conditions":[-5.874061E1,2.591116E1,3.454E1,4.1076597E-3,1.1374519E-1,3.0155E1,2.6908653E1,2.7379581E1,-4.9164963E1,6.675887E-2,3.663E1,-7.081301E-3,3.9316192E-2,-0E0,-8.726579E-2,-2.4902506E-2,2.3334691E-2],"split_indices":[2,3,0,0,0,0,3,3,2,0,0,0,0,0,0,0,0],"split_type":[0,0,0,0,0,0,0,0,0,0,0,0,0,0,0,0,0],"sum_hessian":[5.5E1,1.1E1,4.4E1,4E0,7E0,2.5E1,1.9E1,8E0,1.7E1,4E0,1.5E1,4E0,4E0,5E0,1.2E1,6E0,9E0],"tree_param":{"num_deleted":"0","num_feature":"4","num_nodes":"17","size_leaf_vector":"0"}},{"base_weights":[8.663003E-2,3.5100904E-1,-4.239829E-2,5.8783144E-2,6.464273E-1,-4.244422E-1,4.1221555E-2,4.5827186E-1,-3.1428453E-1,-3.8253117E-1,1.3304862E-1,3.3922926E-1,-5.1202673E-2],"categories":[],"categories_nodes":[],"categories_segments":[],"categories_sizes":[],"default_left":[1,1,1,1,0,0,1,0,0,0,1,0,0],"id":50,"left_children":[1,3,5,7,-1,-1,9,-1,-1,-1,11,-1,-1],"loss_changes":[2.5350714E0,1.7315845E0,1.8060026E0,3.4637764E0,0E0,0E0,1.9985216E0,0E0,0E0,0E0,1.7512889E0,0E0,0E0],"parents":[2147483647,0,0,1,1,2,2,3,3,6,6,10,10],"right_children":[2,4,6,8,-1,-1,10,-1,-1,-1,12,-1,-1],"split_conditions":[1.89E1,2.7297958E1,2.5683334E1,2.6294474E1,8.4035546E-2,-5.5177484E-2,-5.6923767E1,5.9575338E-2,-4.0856987E-2,-4.972905E-2,2.2919998E1,4.40998E-2,-6.6563473E-3],"split_indices":[1,3,3,3,0,0,2,0,0,0,1,0,0],"split_type":[0,0,0,0,0,0,0,0,0,0,0,0,0],"sum_hessian":[6.5E1,1.9E1,4.6E1,1.3E1,6E0,5E0,4.1E1,6E0,7E0,4E0,3.7E1,1.6E1,2.1E1],"tree_param":{"num_deleted":"0","num_feature":"4","num_nodes":"13","size_leaf_vector":"0"}},{"base_weights":[3.753614E-2,-3.7168756E-1,1.9106439E-1,-7.838932E-1,1.5433802E-1,6.798956E-2,4.2965204E-1,3.668118E-1,-5.0349753E-2,5.9980047E-1,-0E0,-3.9105645E-1,7.463887E-2],"categories":[],"categories_nodes":[],"categories_segments":[],"categories_sizes":[],"default_left":[1,1,1,0,0,1,1,0,1,0,0,0,0],"id":51,"left_children":[1,3,5,-1,-1,7,9,-1,11,-1,-1,-1,-1],"loss_changes":[3.721408E0,4.246498E0,1.0071326E0,0E0,0E0,1.405034E0,8.5555005E-1,0E0,1.4576786E0,0E0,0E0,0E0,0E0],"parents":[2147483647,0,0,1,1,2,2,5,5,6,6,8,8],"right_children":[2,4,6,-1,-1,8,10,-1,12,-1,-1,-1,-1],"split_conditions":[1.7515E1,-4.8430244E1,3.6845E1,-1.0190611E-1,2.0063942E-2,-5.4792534E1,2.8399189E1,4.7685534E-2,-5.3424236E1,7.797406E-2,-0E0,-5.0837338E-2,9.703053E-3],"split_indices":[1,2,0,0,0,2,3,0,2,0,0,0,0],"split_type":[0,0,0,0,0,0,0,0,0,0,0,0,0],"sum_hessian":[4.9E1,1.1E1,3.8E1,5E0,6E0,3E1,8E0,6E0,2.4E1,4E0,4E0,4E0,2E1],"tree_param":{"num_deleted":"0","num_feature":"4","num_nodes":"13","size_leaf_vector":"0"}},{"base_weights":[1.2304022E-2,6.182271E-1,-1.4739834E-1,9.180177E-2,7.353769E-1,-6.941383E-1,-1.7258884E-2,4.1075677E-1,-2.2441794E-1,5.093024E-1,8.5909285E-2,-3.381319E-1,3.2828596E-1],"categories":[],"categories_nodes":[],"categories_segments":[],"categories_sizes":[],"default_left":[1,1,1,0,0,0,1,1,1,1,1,0,0],"id":52,"left_children":[1,3,5,-1,-1,-1,7,-1,11,-1,-1,-1,-1],"loss_changes":[7.4484816E0,4.6662188E-1,4.0586557E0,0E0,0E0,0E0,5.226032E0,2.5734377E-1,3.0885775E0,0E0,0E0,0E0,0E0],"parents":[2147483647,0,0,1,1,2,2,6,6,7,7,8,8],"right_children":[2,4,6,-1,-1,-1,8,-1,12,-1,-1,-1,-1],"split_conditions":[2.6265625E1,-5.707617E1,-6.063468E1,1.193423E-2,9.5598996E-2,-9.0237975E-2,3.0805E1,5.339838E-2,3.263925E1,6.620931E-2,1.1168207E-2,-4.3957148E-2,4.2677175E-2],"split_indices":[3,2,2,0,0,0,0,3,3,2147483647,2147483647,0,0],"split_type":[0,0,0,0,0,0,0,0,0,0,0,0,0],"sum_hessian":[6.6E1,1.1E1,5.5E1,4E0,7E0,6E0,4.9E1,1.4E1,3.5E1,8E0,6E0,3.1E1,4E0],"tree_param":{"num_deleted":"2","num_feature":"4","num_nodes":"13","size_leaf_vector":"0"}},{"base_weights":[2.0500979E-1,7.3082495E-1,-3.597957E-2,8.328384E-1,1.2779084E-1,-2.5070575E-1,1.9505152E-1,-6.1539286E-1,-3.2730546E-2,3.2766798E-1,-9.0995416E-2,1.934278E-1,-2.1747161E-1,4.4321093E-1,-0E0],"categories":[],"categories_nodes":[],"categories_segments":[],"categories_sizes":[],"default_left":[1,1,1,0,0,1,1,0,1,1,0,0,0,0,0],"id":53,"left_children":[1,3,5,-1,-1,7,9,-1,11,13,-1,-1,-1,-1,-1],"loss_changes":[7.775877E0,4.2085838E-1,2.4989765E0,0E0,0E0,1.8294486E0,1.1183534E0,0E0,1.1431756E0,6.299801E-1,0E0,0E0,0E0,0E0,0E0],"parents":[2147483647,0,0,1,1,2,2,5,5,6,6,8,8,9,9],"right_children":[2,4,6,-1,-1,8,10,-1,12,14,-1,-1,-1,-1,-1],"split_conditions":[1.89E1,-4.3890488E1,2.7697115E1,1.0826899E-1,1.661281E-2,1.9855E1,2.4695E1,-8.000107E-2,2.2015E1,2.9433182E1,-1.1829403E-2,2.5145613E-2,-2.8271308E-2,5.761742E-2,-0E0],"split_indices":[1,2,3,0,0,1,1,0,1,3,0,0,0,0,0],"split_type":[0,0,0,0,0,0,0,0,0,0,0,0,0,0,0],"sum_hessian":[5.4E1,1.4E1,4E1,1E1,4E0,2.1E1,1.9E1,4E0,1.7E1,1.3E1,6E0,7E0,1E1,8E0,5E0],"tree_param":{"num_deleted":"0","num_feature":"4","num_nodes":"15","size_leaf_vector":"0"}},{"base_weights":[9.397668E-2,5.4015535E-1,-1.255424E-1,6.964451E-1,-4.925537E-2,-7.13867E-1,6.727073E-2,1.4068872E-1,7.8761625E-1,1.8205737E-1,-3.3246243E-1,9.4272596E-1,1.498744E-1,3.2681915E-1,-2.5841322E-2],"categories":[],"categories_nodes":[],"categories_segments":[],"categories_sizes":[],"default_left":[1,1,1,1,0,0,1,0,1,1,0,0,0,0,0],"id":54,"left_children":[1,3,5,7,-1,-1,9,-1,11,13,-1,-1,-1,-1,-1],"loss_changes":[6.6173706E0,2.3531575E0,5.6165977E0,1.4775658E-1,0E0,0E0,2.0696654E0,0E0,4.3381882E-1,1.1355531E0,0E0,0E0,0E0,0E0,0E0],"parents":[2147483647,0,0,1,1,2,2,3,3,6,6,8,8,9,9],"right_children":[2,4,6,8,-1,-1,10,-1,12,14,-1,-1,-1,-1,-1],"split_conditions":[1.89E1,-4.3515526E1,2.048E1,2.739E1,-6.403198E-3,-9.280271E-2,-2.1727226E1,1.8289533E-2,7.795E0,2.4575E1,-4.3220114E-2,1.2255437E-1,1.9483672E-2,4.248649E-2,-3.3593718E-3],"split_indices":[1,2,1,0,0,0,2,0,1,1,0,0,0,0,0],"split_type":[0,0,0,0,0,0,0,0,0,0,0,0,0,0,0],"sum_hessian":[5.8E1,1.7E1,4.1E1,1.3E1,4E0,7E0,3.4E1,4E0,9E0,2.9E1,5E0,5E0,4E0,1.6E1,1.3E1],"tree_param":{"num_deleted":"0","num_feature":"4","num_nodes":"15","size_leaf_vector":"0"}},{"base_weights":[-3.8489006E-2,-3.2819003E-1,1.7455278E-1,-5.442523E-1,1.6872594E-1,3.977232E-1,-0E0,-7.211382E-1,-3.3742033E-2,9.88445E-2,4.940444E-1,-3.4135282E-1,1.337423E-1,3.2271278E-1,-7.4598044E-2],"categories":[],"categories_nodes":[],"categories_segments":[],"categories_sizes":[],"default_left":[1,1,1,1,0,1,1,0,0,1,1,0,1,0,0],"id":55,"left_children":[1,3,5,7,-1,-1,11,-1,-1,-1,-1,-1,13,-1,-1],"loss_changes":[4.0969567E0,3.5678966E0,1.5440855E0,1.6152034E0,0E0,1.1279416E-1,1.4556507E0,0E0,0E0,0E0,0E0,0E0,1.0474422E0,0E0,0E0],"parents":[2147483647,0,0,1,1,2,2,3,3,5,5,6,6,12,12],"right_children":[2,4,6,8,-1,-1,12,-1,-1,-1,-1,-1,14,-1,-1],"split_conditions":[2.6988968E1,2.2355E1,2.7803593E1,3.0465E1,2.1934371E-2,5.1704016E-2,1.9314999E1,-9.374796E-2,-4.386464E-3,1.2849784E-2,6.422577E-2,-4.4375867E-2,2.469E1,4.195266E-2,-9.697746E-3],"split_indices":[3,1,3,0,0,3,1,0,0,2147483647,2147483647,0,1,0,0],"split_type":[0,0,0,0,0,0,0,0,0,0,0,0,0,0,0],"sum_hessian":[5.6E1,2.3E1,3.3E1,1.6E1,7E0,1.2E1,2.1E1,1E1,6E0,6E0,6E0,4E0,1.7E1,8E0,9E0],"tree_param":{"num_deleted":"2","num_feature":"4","num_nodes":"15","size_leaf_vector":"0"}},{"base_weights":[-5.880677E-2,2.6759592E-1,-2.2024651E-1,-2.7436274E-1,5.9805727E-1,-5.532968E-1,2.9369712E-2,-1.009393E0,4.7436063E-3,3.75868E-1,-1.6832225E-1,2.190541E-2,-3.3530772E-1],"categories":[],"categories_nodes":[],"categories_segments":[],"categories_sizes":[],"default_left":[1,1,1,0,0,1,1,0,0,0,1,0,0],"id":56,"left_children":[1,3,5,-1,-1,7,9,-1,-1,-1,11,-1,-1],"loss_changes":[2.8774557E0,4.1496887E0,3.1993046E0,0E0,0E0,4.3432155E0,2.0876694E0,0E0,0E0,0E0,7.1312475E-1,0E0,0E0],"parents":[2147483647,0,0,1,1,2,2,5,5,6,6,10,10],"right_children":[2,4,6,-1,-1,8,10,-1,-1,-1,12,-1,-1],"split_conditions":[2.6366642E1,2.5766666E1,1.943E1,-3.5667155E-2,7.774744E-2,-4.8595665E1,3.1055E1,-1.3122109E-1,6.166688E-4,4.8862837E-2,-4.0427055E1,2.8477032E-3,-4.359E-2],"split_indices":[3,3,1,0,0,2,0,0,0,0,2,0,0],"split_type":[0,0,0,0,0,0,0,0,0,0,0,0,0],"sum_hessian":[4.4E1,1.3E1,3.1E1,5E0,8E0,1.1E1,2E1,4E0,7E0,6E0,1.4E1,8E0,6E0],"tree_param":{"num_deleted":"0","num_feature":"4","num_nodes":"13","size_leaf_vector":"0"}},{"base_weights":[1.7046269E-2,-8.2230955E-2,4.0688238E-1,1.11866325E-1,-4.1125765E-1,-7.167177E-2,4.267476E-1,-5.292536E-1,3.8136265E-3,3.369752E-1,-2.6038307E-1,5.647278E-1,1.0262718E-2],"categories":[],"categories_nodes":[],"categories_segments":[],"categories_sizes":[],"default_left":[1,1,0,1,1,1,1,0,0,0,0,0,0],"id":57,"left_children":[1,3,-1,5,7,9,11,-1,-1,-1,-1,-1,-1],"loss_changes":[2.490638E0,3.5000417E0,0E0,2.262628E0,1.110323E0,2.4433725E0,6.5422416E-1,0E0,0E0,0E0,0E0,0E0,0E0],"parents":[2147483647,0,0,1,1,3,3,4,4,5,5,6,6],"right_children":[2,4,-1,6,8,10,12,-1,-1,-1,-1,-1,-1],"split_conditions":[3.6845E1,-3.924962E1,5.2894708E-2,2.717294E1,2.22E1,2.6247768E1,1.9130001E1,-6.880297E-2,4.957714E-4,4.3806773E-2,-3.38498E-2,7.341461E-2,1.3341533E-3],"split_indices":[0,2,0,3,1,3,1,0,0,0,0,0,0],"split_type":[0,0,0,0,0,0,0,0,0,0,0,0,0],"sum_hessian":[5.3E1,4.5E1,8E0,3E1,1.5E1,2.1E1,9E0,1.1E1,4E0,5E0,1.6E1,5E0,4E0],"tree_param":{"num_deleted":"0","num_feature":"4","num_nodes":"13","size_leaf_vector":"0"}},{"base_weights":[2.2617182E-1,3.7740162E-1,-2.9301202E-1,7.400137E-1,1.9641462E-1,-5.1810306E-1,2.6607882E-2,-1.3874328E-1,2.70585E-1,3.288811E-1,-5.6117475E-2],"categories":[],"categories_nodes":[],"categories_segments":[],"categories_sizes":[],"default_left":[1,1,1,0,1,0,0,0,1,0,0],"id":58,"left_children":[1,3,5,-1,7,-1,-1,-1,9,-1,-1],"loss_changes":[5.3013554E0,2.275041E0,1.3367271E0,0E0,1.2173063E0,0E0,0E0,0E0,8.226299E-1,0E0,0E0],"parents":[2147483647,0,0,1,1,2,2,4,4,8,8],"right_children":[2,4,6,-1,8,-1,-1,-1,10,-1,-1],"split_conditions":[2.8420397E1,1.6465E1,3.5185E1,9.620178E-2,1.8595001E1,-6.73534E-2,3.4590245E-3,-1.8036626E-2,-2.1317848E1,4.2754542E-2,-7.2952714E-3],"split_indices":[3,1,0,0,1,0,0,0,2,0,0],"split_type":[0,0,0,0,0,0,0,0,0,0,0],"sum_hessian":[5.5E1,4.4E1,1.1E1,9E0,3.5E1,5E0,6E0,5E0,3E1,2.6E1,4E0],"tree_param":{"num_deleted":"0","num_feature":"4","num_nodes":"11","size_leaf_vector":"0"}},{"base_weights":[7.645432E-2,3.9032358E-1,-3.6317185E-2,-1.4673738E-1,8.584213E-1,-3.804525E-1,3.2349095E-2,2.540001E-1,-1.0200828E-1,-0E0,3.6875713E-1,1.8862735E-1,-2.1857455E-1],"categories":[],"categories_nodes":[],"categories_segments":[],"categories_sizes":[],"default_left":[1,1,1,0,0,0,1,1,1,0,0,0,0],"id":59,"left_children":[1,3,5,-1,-1,-1,7,9,11,-1,-1,-1,-1],"loss_changes":[2.312842E0,5.097868E0,1.2996072E0,0E0,0E0,0E0,1.5086778E0,5.491054E-1,1.2704725E0,0E0,0E0,0E0,0E0],"parents":[2147483647,0,0,1,1,2,2,6,6,7,7,8,8],"right_children":[2,4,6,-1,-1,-1,8,10,12,-1,-1,-1,-1],"split_conditions":[2.6298912E1,2.591116E1,-6.2974895E1,-1.907586E-2,1.1159477E-1,-4.9458824E-2,3.0805E1,1.857E1,-4.7488747E1,-0E0,4.7938425E-2,2.4521554E-2,-2.841469E-2],"split_indices":[3,3,2,0,0,0,0,1,2,0,0,0,0],"split_type":[0,0,0,0,0,0,0,0,0,0,0,0,0],"sum_hessian":[5.6E1,1.2E1,4.4E1,7E0,5E0,4E0,4E1,1.4E1,2.6E1,6E0,8E0,6E0,2E1],"tree_param":{"num_deleted":"0","num_feature":"4","num_nodes":"13","size_leaf_vector":"0"}},{"base_weights":[-1.2540786E-2,-1.9797823E-1,2.0847362E-1,9.154302E-3,-7.445006E-1,6.2695366E-1,5.157611E-3,-1.7841245E-1,2.2702198E-1,-2.4339943E-1,2.3597091E-1,-4.1578102E-1,2.4477258E-1,4.464565E-1,-1.5044378E-1,6.604224E-3,-3.5634503E-1,4.1984972E-1,-0E0],"categories":[],"categories_nodes":[],"categories_segments":[],"categories_sizes":[],"default_left":[1,1,1,1,0,0,1,1,1,1,1,0,0,0,0,0,0,0,0],"id":60,"left_children":[1,3,5,7,-1,-1,9,11,13,15,17,-1,-1,-1,-1,-1,-1,-1,-1],"loss_changes":[2.91725E0,4.6227546E0,2.5756307E0,1.5698849E0,0E0,0E0,1.8460196E0,2.5757196E0,1.9068776E0,5.15321E-1,8.281984E-1,0E0,0E0,0E0,0E0,0E0,0E0,0E0,0E0],"parents":[2147483647,0,0,1,1,2,2,3,3,6,6,7,7,8,8,9,9,10,10],"right_children":[2,4,6,8,-1,-1,10,12,14,16,18,-1,-1,-1,-1,-1,-1,-1,-1],"split_conditions":[3.1880001E1,3.1025E1,2.6725746E1,2.676062E1,-9.678507E-2,8.150397E-2,2.7261364E1,3.0355E1,2.7884983E1,2.1195E1,2.3285E1,-5.405153E-2,3.1820435E-2,5.803934E-2,-1.955769E-2,8.585491E-4,-4.6324853E-2,5.458046E-2,-0E0],"split_indices":[0,0,3,3,0,0,3,0,3,1,1,0,0,0,0,0,0,0,0],"split_type":[0,0,0,0,0,0,0,0,0,0,0,0,0,0,0,0,0,0,0],"sum_hessian":[6.1E1,3.4E1,2.7E1,2.8E1,6E0,5E0,2.2E1,1.5E1,1.3E1,1E1,1.2E1,1E1,5E0,8E0,5E0,4E0,6E0,5E0,7E0],"tree_param":{"num_deleted":"0","num_feature":"4","num_nodes":"19","size_leaf_vector":"0"}},{"base_weights":[1.1705334E-1,7.9937E-1,-4.685177E-3,-1.484333E-1,2.1147072E-1,-2.5660214E-1,2.9214138E-1,4.8419365E-1,-4.6817962E-2,1.4285514E-1,-4.0579584E-1,-2.0405102E-1,1.6431297E-1],"categories":[],"categories_nodes":[],"categories_segments":[],"categories_sizes":[],"default_left":[1,0,1,1,1,1,0,0,1,0,0,0,0],"id":61,"left_children":[1,-1,3,5,7,9,-1,-1,11,-1,-1,-1,-1],"loss_changes":[5.019962E0,0E0,1.8272126E0,2.0948963E0,1.839027E0,2.2665422E0,0E0,0E0,7.1420425E-1,0E0,0E0,0E0,0E0],"parents":[2147483647,0,0,2,2,3,3,4,4,5,5,8,8],"right_children":[2,-1,4,6,8,10,-1,-1,12,-1,-1,-1,-1],"split_conditions":[-6.5023575E1,1.039181E-1,3.432E1,2.1385E1,-4.5361115E1,2.7895E1,3.7978377E-2,6.294517E-2,3.663E1,1.8571166E-2,-5.2753456E-2,-2.6526632E-2,2.1360686E-2],"split_indices":[2,0,0,1,2,0,0,0,0,0,0,0,0],"split_type":[0,0,0,0,0,0,0,0,0,0,0,0,0],"sum_hessian":[5.3E1,4E0,4.9E1,3.1E1,1.8E1,2.7E1,4E0,7E0,1.1E1,7E0,2E1,7E0,4E0],"tree_param":{"num_deleted":"0","num_feature":"4","num_nodes":"13","size_leaf_vector":"0"}},{"base_weights":[-9.566342E-2,-1.8092652E-1,4.8751593E-1,1.5512742E-2,-4.0828353E-1,-1.2804867E-1,3.724154E-1,-5.0836307E-1,-1.6165451E-3,1.2563032E-1,-3.564032E-1,-7.618067E-2,-5.991461E-1],"categories":[],"categories_nodes":[],"categories_segments":[],"categories_sizes":[],"default_left":[1,1,0,1,1,1,0,1,0,0,0,0,0],"id":62,"left_children":[1,3,-1,5,7,9,-1,11,-1,-1,-1,-1,-1],"loss_changes":[3.5199573E0,2.758226E0,0E0,2.146638E0,1.0272565E0,1.9648492E0,0E0,4.8573685E-1,0E0,0E0,0E0,0E0,0E0],"parents":[2147483647,0,0,1,1,3,3,4,4,5,5,7,7],"right_children":[2,4,-1,6,8,10,-1,12,-1,-1,-1,-1,-1],"split_conditions":[1.5732475E2,2.697977E1,6.337707E-2,3.432E1,3.6955E1,-5.4792534E1,4.8414E-2,1.677E1,-2.1015086E-4,1.633194E-2,-4.6332415E-2,-9.903486E-3,-7.7888995E-2],"split_indices":[3,3,0,0,0,2,0,1,0,0,0,0,0],"split_type":[0,0,0,0,0,0,0,0,0,0,0,0,0],"sum_hessian":[5.8E1,5.4E1,4E0,3.1E1,2.3E1,2.4E1,7E0,1.7E1,6E0,1.2E1,1.2E1,5E0,1.2E1],"tree_param":{"num_deleted":"0","num_feature":"4","num_nodes":"13","size_leaf_vector":"0"}},{"base_weights":[-2.3616558E-2,-3.796954E-1,1.0929547E-1,-5.0319505E-1,-0E0,3.790109E-1,-2.0860538E-2,1.4775536E-2,4.613929E-1,-1.1450132E-1,1.7762294E-1,1.5378533E-1,-2.892488E-1,-5.1738513E-3,3.051362E-1],"categories":[],"categories_nodes":[],"categories_segments":[],"categories_sizes":[],"default_left":[1,1,1,0,0,1,1,0,0,1,1,0,0,0,0],"id":63,"left_children":[1,3,5,-1,-1,7,9,-1,-1,11,13,-1,-1,-1,-1],"loss_changes":[3.4941123E0,9.2561054E-1,1.9831957E0,0E0,0E0,4.0359116E-1,8.351419E-1,0E0,0E0,1.7147045E0,4.0270036E-1,0E0,0E0,0E0,0E0],"parents":[2147483647,0,0,1,1,2,2,5,5,6,6,9,9,10,10],"right_children":[2,4,6,-1,-1,8,10,-1,-1,12,14,-1,-1,-1,-1],"split_conditions":[-5.24843E1,3.0355E1,-4.500101E1,-6.541535E-2,-0E0,-5.161211E1,3.6845E1,1.9208196E-3,5.9981074E-2,3.122E1,-3.916264E1,1.9992093E-2,-3.7602343E-2,-6.7260064E-4,3.9667703E-2],"split_indices":[2,0,2,0,0,2,0,0,0,0,2,0,0,0,0],"split_type":[0,0,0,0,0,0,0,0,0,0,0,0,0,0,0],"sum_hessian":[6.3E1,1.5E1,4.8E1,1E1,5E0,1.3E1,3.5E1,4E0,9E0,2.6E1,9E0,1E1,1.6E1,5E0,4E0],"tree_param":{"num_deleted":"0","num_feature":"4","num_nodes":"15","size_leaf_vector":"0"}},{"base_weights":[7.0711705E-3,-3.1998593E-1,1.2890093E-1,-7.9910934E-1,2.3622876E-1,4.5630738E-1,1.6626848E-2,-3.0284375E-1,1.1585398E-1,2.351057E-1,-1.0050159E-1],"categories":[],"categories_nodes":[],"categories_segments":[],"categories_sizes":[],"default_left":[1,1,1,0,0,0,1,0,1,0,0],"id":64,"left_children":[1,3,5,-1,-1,-1,7,-1,9,-1,-1],"loss_changes":[2.682556E0,5.9101415E0,1.6988997E0,0E0,0E0,0E0,1.5040756E0,0E0,1.107327E0,0E0,0E0],"parents":[2147483647,0,0,1,1,2,2,6,6,8,8],"right_children":[2,4,6,-1,-1,-1,8,-1,10,-1,-1],"split_conditions":[1.7515E1,-4.8870453E1,-5.4188194E1,-1.0388421E-1,3.0709738E-2,5.9319958E-2,2.6666733E1,-3.9369687E-2,2.4585E1,3.0563738E-2,-1.3065206E-2],"split_indices":[1,2,2,0,0,0,3,0,1,0,0],"split_type":[0,0,0,0,0,0,0,0,0,0,0],"sum_hessian":[5.8E1,1.3E1,4.5E1,6E0,7E0,7E0,3.8E1,6E0,3.2E1,2.1E1,1.1E1],"tree_param":{"num_deleted":"0","num_feature":"4","num_nodes":"11","size_leaf_vector":"0"}},{"base_weights":[-4.9673513E-2,4.961498E-1,-1.7653538E-1,-4.1664028E-1,9.414876E-2,-8.080999E-2,-8.9173484E-1,3.9778048E-1,-9.760392E-2,-4.341868E-1,1.1611338E-1,-2.997449E-1,8.2772635E-2],"categories":[],"categories_nodes":[],"categories_segments":[],"categories_sizes":[],"default_left":[1,0,1,1,1,1,0,0,1,0,0,0,0],"id":65,"left_children":[1,-1,3,5,7,9,-1,-1,11,-1,-1,-1,-1],"loss_changes":[4.8149347E0,0E0,3.917086E0,4.3805695E0,2.016534E0,2.0041664E0,0E0,0E0,9.800673E-1,0E0,0E0,0E0,0E0],"parents":[2147483647,0,0,2,2,3,3,4,4,5,5,8,8],"right_children":[2,-1,4,6,8,10,-1,-1,12,-1,-1,-1,-1],"split_conditions":[-6.1727432E1,6.4499475E-2,3.267E1,3.109E1,2.2099998E1,-5.373421E1,-1.1592553E-1,5.171146E-2,3.559E1,-5.644428E-2,1.5094738E-2,-3.8966835E-2,1.0760442E-2],"split_indices":[2,0,0,0,1,2,0,0,0,0,0,0,0],"split_type":[0,0,0,0,0,0,0,0,0,0,0,0,0],"sum_hessian":[5.9E1,8E0,5.1E1,2.6E1,2.5E1,1.9E1,7E0,8E0,1.7E1,5E0,1.4E1,7E0,1E1],"tree_param":{"num_deleted":"0","num_feature":"4","num_nodes":"13","size_leaf_vector":"0"}},{"base_weights":[-3.0035181E-2,-1.3952675E-1,2.5044692E-1,1.2282582E-1,-3.4389383E-1,5.804601E-1,-8.433499E-2,-2.4874811E-1,2.574372E-1,-8.702106E-2,-5.41986E-1,-1.4206502E-1,2.827831E-3,3.796328E-1,-1.0571336E-1,-3.2616755E-1,8.775953E-2,-6.461326E-1,-1.3206957E-1],"categories":[],"categories_nodes":[],"categories_segments":[],"categories_sizes":[],"default_left":[1,1,1,1,1,0,1,0,1,1,1,1,1,0,0,0,0,1,1],"id":66,"left_children":[1,3,5,7,9,-1,-1,-1,13,15,-1,-1,-1,-1,-1,-1,-1,-1,-1],"loss_changes":[2.2144818E0,3.0574594E0,2.5795052E0,1.633972E0,1.2035885E0,0E0,1.0363098E-1,0E0,1.245633E0,1.0385768E0,8.092165E-2,0E0,0E0,0E0,0E0,0E0,0E0,0E0,0E0],"parents":[2147483647,0,0,1,1,2,2,3,3,4,4,6,6,8,8,9,9,10,10],"right_children":[2,4,6,8,10,-1,-1,-1,14,16,-1,-1,-1,-1,-1,-1,-1,-1,-1],"split_conditions":[3.5645E1,3.0055E1,2.458E1,2.402E1,2.706297E1,7.545981E-2,-1.0963549E-2,-3.2337252E-2,2.7801651E1,2.5875E1,-7.0458174E-2,-1.8468453E-2,3.6761802E-4,4.9352262E-2,-1.3742737E-2,-4.240178E-2,1.1408739E-2,-8.3997235E-2,-1.7169043E-2],"split_indices":[0,0,1,0,3,0,1,0,3,3,0,2147483647,2147483647,0,0,0,0,2147483647,2147483647],"split_type":[0,0,0,0,0,0,0,0,0,0,0,0,0,0,0,0,0,0,0],"sum_hessian":[6.2E1,4.7E1,1.5E1,2.1E1,2.6E1,6E0,9E0,4E0,1.7E1,1.5E1,1.1E1,5E0,4E0,1.3E1,4E0,5E0,1E1,6E0,5E0],"tree_param":{"num_deleted":"4","num_feature":"4","num_nodes":"19","size_leaf_vector":"0"}},{"base_weights":[-0E0,-2.873863E-1,1.19054325E-1,-7.615875E-1,1.750975E-1,7.1264774E-1,-0E0,5.1011693E-1,-3.0750832E-1,-2.3407573E-1,1.1283825E-1,-4.8008764E-1,-0E0,-1.7618226E-2,3.6553687E-1],"categories":[],"categories_nodes":[],"categories_segments":[],"categories_sizes":[],"default_left":[1,1,1,0,1,0,1,0,0,1,1,0,0,0,0],"id":67,"left_children":[1,3,5,-1,7,-1,9,-1,-1,11,13,-1,-1,-1,-1],"loss_changes":[2.5778942E0,5.6558833E0,3.868952E0,0E0,3.2859898E0,0E0,1.4513674E0,0E0,0E0,1.1056802E0,1.2994655E0,0E0,0E0,0E0,0E0],"parents":[2147483647,0,0,1,1,2,2,4,4,6,6,9,9,10,10],"right_children":[2,4,6,-1,8,-1,10,-1,-1,12,14,-1,-1,-1,-1],"split_conditions":[1.7515E1,-4.8870453E1,1.8974998E1,-9.900637E-2,-3.927383E1,9.26442E-2,2.139E1,6.63152E-2,-3.997608E-2,2.9029999E1,-2.6363247E1,-6.241139E-2,-0E0,-2.2903692E-3,4.7519792E-2],"split_indices":[1,2,1,0,2,0,1,0,0,0,2,0,0,0,0],"split_type":[0,0,0,0,0,0,0,0,0,0,0,0,0,0,0],"sum_hessian":[6.5E1,1.7E1,4.8E1,7E0,1E1,4E0,4.4E1,6E0,4E0,1.3E1,3.1E1,4E0,9E0,2.3E1,8E0],"tree_param":{"num_deleted":"0","num_feature":"4","num_nodes":"15","size_leaf_vector":"0"}},{"base_weights":[-0E0,2.09226E-1,-8.402079E-2,2.9623106E-1,-0E0,-3.9513862E-1,5.576226E-2,-7.141772E-1,2.8145853E-2,3.1508335E-1,-1.3899004E-1,6.0285106E-2,-2.7949703E-1],"categories":[],"categories_nodes":[],"categories_segments":[],"categories_sizes":[],"default_left":[1,1,1,0,0,1,1,0,0,0,1,0,0],"id":68,"left_children":[1,3,5,-1,-1,7,9,-1,-1,-1,11,-1,-1],"loss_changes":[1.1544956E0,4.0120256E-1,2.148389E0,0E0,0E0,2.292608E0,2.034756E0,0E0,0E0,0E0,7.8094864E-1,0E0,0E0],"parents":[2147483647,0,0,1,1,2,2,5,5,6,6,10,10],"right_children":[2,4,6,-1,-1,8,10,-1,-1,-1,12,-1,-1],"split_conditions":[2.7895E1,1.89E1,1.943E1,3.8510036E-2,-0E0,-4.7737675E1,-4.1502266E1,-9.284303E-2,3.6589608E-3,4.0960833E-2,2.2919998E1,7.837064E-3,-3.633461E-2],"split_indices":[0,1,1,0,0,2,2,0,0,0,1,0,0],"split_type":[0,0,0,0,0,0,0,0,0,0,0,0,0],"sum_hessian":[5.4E1,1.4E1,4E1,9E0,5E0,1E1,3E1,4E0,6E0,1.2E1,1.8E1,8E0,1E1],"tree_param":{"num_deleted":"0","num_feature":"4","num_nodes":"13","size_leaf_vector":"0"}}]},"name":"gbtree"},"learner_model_param":{"base_score":"5E-1","num_class":"0","num_feature":"4","num_target":"1"},"objective":{"name":"reg:squarederror","reg_loss_param":{"scale_pos_weight":"1"}}},"version":[1,6,1]}